<?xml version="1.0"?>
<opencv_storage>
<my_nn type_id="opencv-ml-ann-mlp">
  <layer_sizes type_id="opencv-matrix">
    <rows>1</rows>
    <cols>3</cols>
    <dt>i</dt>
    <data>
      1764 48 5</data></layer_sizes>
  <activation_function>SIGMOID_SYM</activation_function>
  <f_param1>6.6666666666666663e-001</f_param1>
  <f_param2>1.7159000000000000e+000</f_param2>
  <min_val>-9.4999999999999996e-001</min_val>
  <max_val>9.4999999999999996e-001</max_val>
  <min_val1>-9.7999999999999998e-001</min_val1>
  <max_val1>9.7999999999999998e-001</max_val1>
  <training_params>
    <train_method>BACKPROP</train_method>
    <dw_scale>1.0000000000000001e-001</dw_scale>
    <moment_scale>1.0000000000000001e-001</moment_scale>
    <term_criteria><epsilon>1.0000000474974513e-003</epsilon>
      <iterations>10000</iterations></term_criteria></training_params>
  <input_scale>
    2.2833366868544463e+001 -9.3429458107900609e-001
    1.2950111651697105e+001 -1.3457037940945653e+000
    9.6682885146882622e+000 -1.5797903529085704e+000
    1.3483669889488116e+001 -1.0651793491305954e+000
    8.2903820177732559e+000 -1.0240050220920580e+000
    1.3902444683928112e+001 -6.7397944686988931e-001
    2.3644111283004744e+001 -6.7701796199640374e-001
    2.9341085945699795e+001 -6.1918628752485649e-001
    2.3044872393917583e+001 -6.9833060484889786e-001
    1.0403862307733787e+001 -1.0522604840934364e+000
    8.4544837464163738e+000 -2.3797160799225678e+000
    8.6817125398752779e+000 -2.6073832859642501e+000
    1.1251268825056489e+001 -1.1395902604287511e+000
    7.8727508460734326e+000 -9.1388782819107062e-001
    1.3090207006356618e+001 -6.4508751981751089e-001
    1.8109102461125318e+001 -6.4447344180084365e-001
    2.1655769232511055e+001 -6.5177504135536990e-001
    1.5780197123977381e+001 -7.9460820288670997e-001
    1.7980319976484697e+001 -9.1777784622344405e-001
    1.1222844371999592e+001 -1.8842753145685740e+000
    8.8064394605553069e+000 -2.7734148866751518e+000
    1.1076780802867752e+001 -1.8607847310811980e+000
    8.5547454664130402e+000 -1.0348151047295309e+000
    1.4626934027396256e+001 -6.7241124054805212e-001
    2.1079091087500125e+001 -6.4130544843269965e-001
    2.8047317617257995e+001 -6.7049131216847235e-001
    2.0777714727283186e+001 -7.6137605799330621e-001
    9.8459614090400223e+000 -1.0317422849473996e+000
    1.0164156711863905e+001 -3.3588388456942324e+000
    1.2218477545115659e+001 -4.2267332187446227e+000
    9.5058651830796776e+000 -1.7450329504830850e+000
    8.7784634281721186e+000 -9.0844258981619996e-001
    1.3539565289323653e+001 -6.6077449951385958e-001
    1.7005334330719503e+001 -6.6723783330283470e-001
    1.9944941901259380e+001 -7.2938038324504140e-001
    1.2280813676117559e+001 -7.8935367763512498e-001
    9.2098178980492467e+000 -1.0453327685659239e+000
    8.8479000487279897e+000 -2.1928297344606436e+000
    8.6466784648843689e+000 -1.9200981949303475e+000
    1.7700115931986542e+001 -9.7089535803532612e-001
    1.1546163270589219e+001 -7.3676485458809549e-001
    1.9348858095519674e+001 -5.0401157341251823e-001
    3.3953421146895863e+001 -5.8788564180799530e-001
    3.7869063433382266e+001 -6.8390173693672585e-001
    1.4193504697921128e+001 -7.1157685294528683e-001
    9.9567132532709781e+000 -1.9047068679473218e+000
    9.8330389785887107e+000 -2.5303293908024793e+000
    7.8629463287842576e+000 -1.8637921903243078e+000
    1.1393692352720349e+001 -8.6396418394254082e-001
    1.2673535727182701e+001 -8.2849865898961139e-001
    1.9215964195837568e+001 -5.8349491027332101e-001
    3.0304463221971080e+001 -6.9726375643901328e-001
    2.4519930988927459e+001 -7.7960895937618591e-001
    9.2011819236430803e+000 -9.2274704893159409e-001
    9.1870151241466758e+000 -1.0462401808233632e+000
    1.1364020847019393e+001 -3.1204823873656435e+000
    1.1310433793004425e+001 -3.3236991394650497e+000
    1.2583186182533094e+001 -1.2136682183547955e+000
    1.4728502633085407e+001 -7.2146634877433835e-001
    2.1631934770851970e+001 -5.4204231635131095e-001
    3.3425996651508925e+001 -6.6394098185222339e-001
    2.4855330283217082e+001 -6.5772584610811136e-001
    1.0900659662879558e+001 -7.3187187096635575e-001
    9.5510758410784700e+000 -1.6089286690116347e+000
    9.9129221212884655e+000 -2.8912812373446477e+000
    8.0016000137840564e+000 -2.1321816422312097e+000
    8.0056636695234964e+000 -9.3967793083054041e-001
    1.0016323230889865e+001 -8.2619713306841658e-001
    2.0244584169511338e+001 -6.3368756298037121e-001
    2.1224488860553816e+001 -6.3430151370632470e-001
    1.3374936840297332e+001 -7.0083376555393340e-001
    8.2722776906343807e+000 -9.7938094351772353e-001
    8.6487156390689570e+000 -1.9751367780070945e+000
    8.9290889865647003e+000 -1.8027123752789074e+000
    8.8643162803757427e+000 -1.4956920403460157e+000
    1.6440091367049895e+001 -1.0496942688263011e+000
    1.7604975507858455e+001 -9.3966124678427188e-001
    2.3821350737153832e+001 -6.8669399164816425e-001
    3.4243022300471139e+001 -9.3691392568360576e-001
    2.3186118840411417e+001 -9.9379232798154760e-001
    8.7324137736074530e+000 -1.1110781770950953e+000
    8.9651047454241208e+000 -2.1925400717321581e+000
    9.2686997230027277e+000 -1.8210463084635060e+000
    7.7817698015764192e+000 -1.0040600075721806e+000
    9.3778449270701092e+000 -7.7682264431435133e-001
    1.3793003034620698e+001 -8.9688134002624953e-001
    1.8965237709515730e+001 -8.3233580792159290e-001
    2.0136144245092058e+001 -9.9891187044557328e-001
    1.5605424645706726e+001 -1.0591032654145698e+000
    8.5948602975922483e+000 -1.4833399952017354e+000
    8.3405230491846503e+000 -1.5289313711916186e+000
    9.0523711378383886e+000 -1.8581598425966390e+000
    7.5659424918412395e+000 -1.4800414489896141e+000
    1.0449639963016844e+001 -1.0051427764376115e+000
    9.2654594329902924e+000 -7.4907863495990301e-001
    1.8601237612590612e+001 -7.3104539730467488e-001
    1.7353114495622560e+001 -8.0651342635403200e-001
    1.2152685794839705e+001 -8.9616108628639646e-001
    8.1002823608149068e+000 -1.1766220416837434e+000
    8.3891341498693990e+000 -1.5566984954976586e+000
    8.7807767102501391e+000 -1.4718825549930814e+000
    7.4753002321039093e+000 -1.0032808819877292e+000
    8.3784834124734040e+000 -9.2174874184926003e-001
    9.1370819521123767e+000 -9.1832641796219450e-001
    1.1987340844425942e+001 -9.7073830435209618e-001
    9.2289603409266228e+000 -1.0575663429910673e+000
    9.3615265328564998e+000 -1.2182492549927317e+000
    8.1139676695488081e+000 -1.4426201370138827e+000
    8.7566437980008036e+000 -2.2544400823861386e+000
    1.0959062795285462e+001 -1.5057535320379700e+000
    8.2745749516636291e+000 -7.5535004081938029e-001
    8.8700422913594572e+000 -6.6224636087684496e-001
    1.2899756392156087e+001 -7.8470587184602469e-001
    2.1111293146010073e+001 -8.2353691386549643e-001
    2.1077741533249462e+001 -9.7803779485365350e-001
    1.6413315154589881e+001 -1.1673994960563505e+000
    8.1671255436319647e+000 -1.9381478163155028e+000
    8.8829483030054792e+000 -2.1800610108549106e+000
    1.3478504305908137e+001 -9.8751680163186650e-001
    8.7703985262112791e+000 -6.7128280741456448e-001
    8.8479505621632164e+000 -6.4210597691812721e-001
    1.1886961817577136e+001 -7.3531925393447939e-001
    2.4210512530962301e+001 -7.8568896519922982e-001
    2.2805793842608523e+001 -9.5801976788754073e-001
    1.0640545926173658e+001 -1.3734132190475949e+000
    8.2290410230112485e+000 -2.0970090460378499e+000
    8.6549119182548786e+000 -1.6301130153870169e+000
    1.2389109630822352e+001 -1.2577927925087566e+000
    8.1877011199712566e+000 -8.2317776339275273e-001
    8.8693551752035678e+000 -9.3512340261455618e-001
    9.0589986172788812e+000 -9.2517954120941859e-001
    1.0142071023169205e+001 -9.2827463930489040e-001
    8.2283447958191154e+000 -9.8332265427413090e-001
    7.8578101610675484e+000 -1.2119068340859718e+000
    8.2869307414508793e+000 -1.6942060259103964e+000
    8.3463236857660661e+000 -1.4247426040849671e+000
    1.4204990061216657e+001 -9.5235922339788093e-001
    8.8686947766219379e+000 -7.5204658384165668e-001
    1.0648618838614130e+001 -8.6624630214953935e-001
    9.8031534661991628e+000 -7.9836152950989359e-001
    1.3716452166787750e+001 -9.0322464118824020e-001
    1.1747488375434974e+001 -1.1224576150077608e+000
    8.9610907955668608e+000 -1.4084576675191769e+000
    7.9229593977254575e+000 -1.6394345203429332e+000
    1.0961429747124674e+001 -1.7121693506275624e+000
    1.5119625798903531e+001 -8.3012385374232067e-001
    9.8134440372086544e+000 -6.5091710476084619e-001
    9.0594669818314681e+000 -6.3478096492562841e-001
    1.0009580430533580e+001 -7.4727487725647812e-001
    1.9016780112673658e+001 -8.6712930944282662e-001
    1.6781926566911320e+001 -1.2245769668534361e+000
    7.6648407390788647e+000 -1.5995687589280814e+000
    7.7433922606743861e+000 -2.0509761935010267e+000
    1.1257580583185916e+001 -1.2300955591879752e+000
    1.7074812063891386e+001 -8.8194178734064932e-001
    9.9360423341491089e+000 -6.8201131340550503e-001
    1.0228076450997845e+001 -6.9617499690213291e-001
    1.0781315535920976e+001 -8.9910889286922124e-001
    1.3332940223828981e+001 -9.9235295681193969e-001
    7.8187309172626893e+000 -1.3222846281475895e+000
    7.7318677060653718e+000 -1.8565009011134996e+000
    7.6427388707926358e+000 -1.9495020872159501e+000
    9.8403678431220971e+000 -1.2447455774341227e+000
    1.4057037148117608e+001 -8.4036540510989022e-001
    8.5622437728944387e+000 -6.7539222237139618e-001
    1.0182501129513893e+001 -7.3425535726306335e-001
    1.0652032451343780e+001 -8.0617452234207898e-001
    1.4104488463580873e+001 -8.5097933104679735e-001
    1.3834032846445723e+001 -1.1456998364005371e+000
    8.8153427565051050e+000 -1.3970461998296184e+000
    7.8271231279841587e+000 -1.5208630816584738e+000
    1.0636456631089397e+001 -1.2575007465950516e+000
    1.1275230761174111e+001 -8.7855244184715853e-001
    7.8843519617683047e+000 -7.1819401259687754e-001
    8.6655955398068514e+000 -7.4549763651100986e-001
    1.3495554714095082e+001 -9.0681576984122225e-001
    1.9006034215966320e+001 -1.1136032887037679e+000
    8.6783051682357826e+000 -1.3764122997052997e+000
    7.7229930336418029e+000 -1.8420313610548262e+000
    8.3154246210250218e+000 -1.7274700379555190e+000
    1.3671249528483822e+001 -8.1806896538208929e-001
    2.1711971382051896e+001 -7.1750673363165252e-001
    1.0580447309813007e+001 -5.9909895931156065e-001
    1.3136311362633933e+001 -6.5628630700800650e-001
    1.1127353983266820e+001 -7.2976068115054604e-001
    1.5719446998732298e+001 -9.4686981199290898e-001
    7.5458395250878478e+000 -1.4491742953203353e+000
    7.5158484115603681e+000 -1.8663881158228588e+000
    9.5956150973574843e+000 -1.4462046968238660e+000
    1.6531758355246932e+001 -7.4619737634989458e-001
    1.3600770276235789e+001 -6.3330283788890973e-001
    7.5729867328794231e+000 -5.9506223240580769e-001
    9.0180557282772291e+000 -6.8061126812628603e-001
    9.6503635805997128e+000 -8.6800540018806849e-001
    1.3141402830709744e+001 -1.0174928707381308e+000
    7.7990402180710134e+000 -1.6929025007409870e+000
    7.7469046093840506e+000 -1.8848514615038185e+000
    9.6313129051294339e+000 -9.8523933035726174e-001
    1.2547034904686921e+001 -9.5418660426111146e-001
    1.2956344711998588e+001 -7.2834918947229421e-001
    7.3776262907309809e+000 -6.3740259033113733e-001
    9.7532711206731193e+000 -6.7435620772624361e-001
    1.8290165302717014e+001 -7.9290320095015721e-001
    1.8059743163753158e+001 -9.6982812399509322e-001
    7.3060524285530635e+000 -1.5378909989897356e+000
    7.6797594382002448e+000 -1.9281024823494348e+000
    8.5751937052608529e+000 -1.2894753336569056e+000
    1.4508175278956330e+001 -7.6346686215281401e-001
    1.0410817606834739e+001 -6.4416542973677349e-001
    7.2035288846980041e+000 -6.1013183596654441e-001
    7.9811949201683889e+000 -6.4117013263850198e-001
    1.6383967172123619e+001 -8.5956524929472911e-001
    1.3517830103827540e+001 -1.2291875117165487e+000
    7.7109519916233804e+000 -1.9369878360905415e+000
    7.7680001544239747e+000 -2.0551634725519077e+000
    9.3215917577908343e+000 -9.6258574316260193e-001
    1.8724697999219199e+001 -7.7028844405573915e-001
    1.3553625318152461e+001 -6.5388177669485603e-001
    8.4852166544088909e+000 -6.5961391331401131e-001
    9.5328631910349326e+000 -7.8823003244551360e-001
    9.0656020675742415e+000 -1.0157361685876880e+000
    1.1562224357588788e+001 -1.2152572670407638e+000
    7.0255788689581591e+000 -1.7423027481967941e+000
    7.4327348534618132e+000 -1.6989211285299883e+000
    1.1306816878176102e+001 -9.2689419876886325e-001
    2.1383051746136601e+001 -7.2217730280843395e-001
    1.3200087797284979e+001 -5.9126502384670854e-001
    8.5518633153952006e+000 -6.4750044550184904e-001
    8.8390288472967260e+000 -7.7198405007395621e-001
    8.5825683104944126e+000 -1.0657776929492278e+000
    1.1743176774161958e+001 -1.1803711268466124e+000
    9.4956567876044105e+000 -1.3626397679869486e+000
    1.3033820759905298e+001 -1.1826179180717100e+000
    2.2862965247332799e+001 -9.3894517226927832e-001
    1.7880144904194303e+001 -7.1309788790047257e-001
    1.2442562519797637e+001 -6.6153727699674669e-001
    8.0528186750169137e+000 -6.5121447661775300e-001
    8.8653376717753201e+000 -7.4198899708679533e-001
    1.0842252982332569e+001 -8.8849253974634468e-001
    8.6394958600230183e+000 -1.4780514953122275e+000
    6.7084027256748673e+000 -1.9554024584889753e+000
    6.6670629665719927e+000 -1.8990156977233292e+000
    1.1082685176128399e+001 -8.7654149128560255e-001
    3.2650556113267328e+001 -8.5178407496738850e-001
    1.5842826765513973e+001 -6.2213759985233752e-001
    8.5942284510863072e+000 -6.3239350321234511e-001
    9.4656256939565022e+000 -7.6594066625307056e-001
    9.6751006401553425e+000 -1.0294243299965316e+000
    8.8926614942618425e+000 -1.6627513609723981e+000
    6.5987104163864743e+000 -1.8261703346873153e+000
    9.4695445176584716e+000 -1.4617091190604852e+000
    2.5657052880407470e+001 -1.0039087953601116e+000
    2.1229213996130529e+001 -7.2714838939314719e-001
    1.3967148032593633e+001 -1.4157751657734166e+000
    7.9500504390201590e+000 -2.0666424476417702e+000
    1.0265848595851766e+001 -2.1103877174633743e+000
    1.0372018893181508e+001 -9.5654989913103472e-001
    2.2473162813697989e+001 -6.5747102573288640e-001
    3.6458335950520308e+001 -6.5470897353298874e-001
    3.5991781985022257e+001 -6.2531248354645685e-001
    2.4153373629876569e+001 -6.3461492330756153e-001
    1.1112526156394930e+001 -7.7370184140840559e-001
    1.1608716723655625e+001 -2.3697464186589219e+000
    1.1393474820103199e+001 -3.6221685544276472e+000
    1.1420092492866381e+001 -2.2626131946029169e+000
    1.1268612341091243e+001 -8.7899811833711783e-001
    1.9554791207606065e+001 -6.8032303074317313e-001
    2.2481335529291638e+001 -6.6136318955476392e-001
    1.9646897608543497e+001 -6.9965050479299939e-001
    1.0953743827780716e+001 -6.3904226014009247e-001
    1.7837539636863806e+001 -7.8989866161328104e-001
    1.3267368595141729e+001 -1.2908346631163896e+000
    8.3244195050051264e+000 -2.3643341075987547e+000
    1.0732828096694906e+001 -3.0718350599847191e+000
    1.0511386568225349e+001 -1.3604822457962400e+000
    1.7984556824374163e+001 -8.4936816647007707e-001
    3.0511734812486036e+001 -7.6670773240666890e-001
    1.9844122364603198e+001 -6.0863911594191389e-001
    1.3965306334205378e+001 -5.9327370339405683e-001
    1.0069629947394347e+001 -8.6312804002026411e-001
    8.1766563820464135e+000 -1.3594771587691505e+000
    8.6242832044650477e+000 -2.6440846091697483e+000
    9.3863208596484284e+000 -2.4946325044327677e+000
    1.1375354308914385e+001 -1.2367928626549389e+000
    1.7078228834420802e+001 -8.8245224931051180e-001
    1.9370720994654064e+001 -8.1119663127704666e-001
    9.7857848337005731e+000 -7.6172013009504469e-001
    9.3480599017384005e+000 -7.8017057012607871e-001
    8.8351691006406625e+000 -8.1576032825978040e-001
    9.8933998569300936e+000 -2.0198456391425319e+000
    9.2158142640683245e+000 -2.4934069669260621e+000
    1.2306799186495246e+001 -1.5174589217558612e+000
    1.5922668118378711e+001 -9.3906197785628631e-001
    3.3084733650309339e+001 -7.4346718042601512e-001
    3.3701558503415271e+001 -6.5674172257009622e-001
    1.9848473182890316e+001 -6.4593140481385036e-001
    8.4416203713487672e+000 -6.8183485415030554e-001
    8.3219317589477271e+000 -1.1062350731074733e+000
    8.6945170533114080e+000 -1.9011815583747176e+000
    7.3783704755709216e+000 -1.8698542894584245e+000
    9.2011817056758574e+000 -1.2488985003902946e+000
    6.8298075029528826e+000 -9.3191449473589083e-001
    2.5069820941853060e+001 -7.5436411029998796e-001
    2.3792197414622976e+001 -6.1371370424213845e-001
    1.1651563107149986e+001 -6.3441455268200297e-001
    7.2634068808497281e+000 -8.7184733422929872e-001
    9.4263488264245314e+000 -7.8182320693454155e-001
    1.0736064632027182e+001 -1.2761242390307814e+000
    7.1677001404045209e+000 -1.6409041860562270e+000
    9.0029600651267092e+000 -1.5091184134795399e+000
    8.5996967222903766e+000 -9.3452201109395039e-001
    3.2952624713495119e+001 -1.0514357839013304e+000
    2.1102295364319168e+001 -6.9265640449764831e-001
    9.3791363400299108e+000 -7.8350443924594504e-001
    7.3365121719523856e+000 -7.8236146194778100e-001
    8.9270239534574092e+000 -8.5882085997365976e-001
    9.4445504467854615e+000 -1.1633353699671622e+000
    7.2278928369629281e+000 -1.2435279136838926e+000
    7.1304675224075922e+000 -1.2073271079311745e+000
    6.4225117735932340e+000 -9.7076424724240895e-001
    2.0560617168564640e+001 -8.2540397462849147e-001
    2.0732728698036624e+001 -6.4375911177301337e-001
    8.8878244126770927e+000 -8.0842481791380527e-001
    7.0113040548689076e+000 -8.4764282096318488e-001
    7.8483526852028209e+000 -1.0572738690453634e+000
    8.4547527002908787e+000 -1.1119492410936362e+000
    7.1547734714443854e+000 -1.0916332798917123e+000
    9.8465369862950212e+000 -1.0141070012749001e+000
    6.2122867800739767e+000 -7.7643149407050160e-001
    1.9934436298762176e+001 -6.7174109828737727e-001
    1.6822695857782570e+001 -6.4287275824075363e-001
    9.1760234933799101e+000 -6.6059126822211101e-001
    6.5933303103236200e+000 -9.2786848702065183e-001
    7.7087812076148117e+000 -1.0178698840345228e+000
    8.7512145314810965e+000 -9.4231226591532169e-001
    7.1842497160610588e+000 -8.4932304750660359e-001
    8.5937650454868990e+000 -9.9943186660763161e-001
    6.0262186694109969e+000 -8.3164516576751724e-001
    1.2840819271390448e+001 -8.7607115215819620e-001
    9.4221220461055868e+000 -8.8414796990957778e-001
    8.3487626094645346e+000 -9.3830842800398684e-001
    6.6533981627137546e+000 -1.0205723533598414e+000
    9.1019367132156681e+000 -8.2751310663513666e-001
    8.7360661459146538e+000 -8.9466716676484759e-001
    6.7204556864401814e+000 -9.4086159498542721e-001
    8.0101134795055398e+000 -1.0354423326299025e+000
    5.7980871208715934e+000 -8.6110100749583207e-001
    1.9656639923756803e+001 -6.3572946519418683e-001
    1.9728916605037682e+001 -5.7804150523021791e-001
    8.6707778841601577e+000 -7.5026758314172970e-001
    6.4141373946258664e+000 -8.4088022385063788e-001
    8.6462644035738379e+000 -8.5254113259122322e-001
    8.7369028961012791e+000 -8.5323683697636965e-001
    6.5102002234189698e+000 -9.0246675007494748e-001
    8.0285512613305254e+000 -1.0474728939707407e+000
    5.9916889667012514e+000 -8.0612215518448749e-001
    1.6279665102825206e+001 -7.0045529365730996e-001
    1.4040675326706737e+001 -6.8070703576870040e-001
    8.4355012822012903e+000 -8.1680456255237877e-001
    6.2622886527226527e+000 -8.6643791528963576e-001
    8.1584752322121208e+000 -9.7666860885731410e-001
    1.0649815132600922e+001 -9.4314579170659163e-001
    7.1769180681163620e+000 -8.1268249903899048e-001
    8.3103438693216738e+000 -9.8238941526772783e-001
    6.2195561905876069e+000 -8.7442486068521486e-001
    1.1952536606995301e+001 -9.1153877571381814e-001
    8.6329398453981998e+000 -8.9400885054333501e-001
    7.5897574877406440e+000 -1.0430880133063374e+000
    6.9554583621337498e+000 -1.0766665811662666e+000
    8.4808790123237152e+000 -1.0140558875665231e+000
    1.3770594748885985e+001 -9.2673577417688524e-001
    7.9287207508697302e+000 -7.3402684828197684e-001
    1.0463906739245127e+001 -9.3649235407670250e-001
    6.4970923051410718e+000 -7.3504979852428276e-001
    1.4813787930566981e+001 -9.8022413316827395e-001
    1.2013029423261877e+001 -1.0477900417242971e+000
    9.3389301390971138e+000 -1.1607204631409607e+000
    6.9334200806964290e+000 -1.1079563204025600e+000
    9.4095694216392669e+000 -9.4777763760881040e-001
    8.3414177090691304e+000 -9.0000720901755538e-001
    6.3347069664745286e+000 -9.0592325990545142e-001
    8.4155201950225340e+000 -1.0809368980573677e+000
    6.2376234782085005e+000 -8.6022087939714664e-001
    1.6659571089739639e+001 -8.6307249794483509e-001
    1.2999197631110306e+001 -8.5130597374921024e-001
    8.6620990309079495e+000 -9.3746091607130233e-001
    6.5121151162375241e+000 -9.1617530113520462e-001
    8.9332552648498353e+000 -1.1202830642556061e+000
    8.0907187486263243e+000 -9.8439576520603267e-001
    6.7829804326149175e+000 -9.6216946176247187e-001
    8.5281766036715165e+000 -9.9943967008061685e-001
    6.4969167491147868e+000 -7.6124026924732613e-001
    1.6074112957044782e+001 -9.0937737149117071e-001
    1.1730850349189916e+001 -9.2014632449552269e-001
    8.4455798118320669e+000 -9.6356662157084705e-001
    6.6976271555926390e+000 -1.0695664673967542e+000
    9.9099230566983838e+000 -1.0732528592885144e+000
    1.8286471285760861e+001 -9.4405396581156276e-001
    8.8505731772024561e+000 -6.6898667863390138e-001
    1.2522080786805640e+001 -8.6981868881182001e-001
    7.1135463353923214e+000 -6.8720851366141811e-001
    1.4110818756768980e+001 -8.4295764704015563e-001
    1.5134955197693749e+001 -1.0719209364873556e+000
    9.2180858510125390e+000 -1.0734465116860912e+000
    7.2703829414527208e+000 -1.1828152583774532e+000
    1.0606797936126981e+001 -1.1546995291346924e+000
    1.2946700950135165e+001 -9.0080183805276948e-001
    6.9457860051947762e+000 -7.0453963442787215e-001
    9.2812234890822758e+000 -8.8377074988606463e-001
    7.2124156542955733e+000 -6.9770097550812749e-001
    1.6189150789525698e+001 -8.7146191134740913e-001
    1.1526091909055255e+001 -1.0795017539454856e+000
    8.9662354775681674e+000 -1.3246112950931910e+000
    7.6194406355212516e+000 -1.3013946971485928e+000
    8.0811648188177418e+000 -1.1381626162883554e+000
    8.3872472585178546e+000 -1.0265690148358315e+000
    6.6568656174925440e+000 -1.0081127374795444e+000
    8.7476992666396853e+000 -1.0415963493533351e+000
    7.0608111184083793e+000 -7.7885387148653829e-001
    1.1216656321318485e+001 -8.5574125268647505e-001
    7.9341587308752919e+000 -9.0276030096120263e-001
    7.1271498135613509e+000 -1.0649096686616399e+000
    6.6120273322329925e+000 -1.2593690802715163e+000
    9.9372658369957776e+000 -1.0977785127378710e+000
    1.1076522370856148e+001 -1.0758433214043799e+000
    7.2298916413585328e+000 -9.2113558806832185e-001
    6.9768736274557392e+000 -1.0019869087472468e+000
    7.2973955036168086e+000 -8.3885367664789012e-001
    1.1698124997316604e+001 -9.8504673049921243e-001
    7.9932417899344665e+000 -1.0270862221840982e+000
    7.1836924404131741e+000 -1.2271533747647181e+000
    7.1533500642861272e+000 -1.2357513756654721e+000
    1.3551495991079609e+001 -1.0582733701776081e+000
    1.3036293184948747e+001 -7.4077715299790425e-001
    7.4919714761582332e+000 -6.6805973230220994e-001
    1.0720411601515259e+001 -8.4030562326204139e-001
    8.7541522406921395e+000 -6.9528646408443695e-001
    1.4648556040021784e+001 -8.9937610370792853e-001
    7.9483626751572780e+000 -1.3589029832618065e+000
    8.2655925711287068e+000 -1.6687093573226264e+000
    8.5104623151900487e+000 -1.2127668447032609e+000
    1.6798054111848479e+001 -8.7736629391286680e-001
    1.3054176229597152e+001 -6.8250227015335918e-001
    7.2835960517530864e+000 -6.3952767924105447e-001
    8.8865781225982836e+000 -7.3353157355783705e-001
    1.4257795418577755e+001 -9.6371164196596937e-001
    1.0676399977498551e+001 -1.2975097424283366e+000
    6.0950541483661684e+000 -1.5618777703547546e+000
    6.3341662238067489e+000 -1.6395229893432182e+000
    9.1926719416069496e+000 -9.4869250354138079e-001
    1.1147385448641641e+001 -9.1373641776495218e-001
    1.3493498381092939e+001 -9.2463291309819096e-001
    7.5937156847609204e+000 -8.0067695945935624e-001
    7.9392757239089873e+000 -9.8707823732264066e-001
    8.4843866028226227e+000 -8.3131292619035901e-001
    1.2654598608465696e+001 -9.5690920596168894e-001
    9.6347809618835303e+000 -1.0306132104480865e+000
    8.0518849120033344e+000 -1.1477857843709165e+000
    7.7977738730176265e+000 -1.0100762062012243e+000
    1.0884935297279428e+001 -8.4209460526496094e-001
    1.3533317025386856e+001 -9.5640299492082492e-001
    7.9118657664050867e+000 -7.9791282618437243e-001
    8.7386980819264295e+000 -9.8073071503544340e-001
    9.0164183070847645e+000 -9.9979898979164461e-001
    1.0325126332137655e+001 -1.3354701195801111e+000
    6.3558208028159244e+000 -1.3509445343086000e+000
    8.6859607709637920e+000 -1.3258160353492434e+000
    8.3776651714930015e+000 -9.3062120645633650e-001
    1.5625933418108081e+001 -6.4035689429511655e-001
    1.0531476641395018e+001 -6.0121119401497503e-001
    6.9037823782467953e+000 -6.1738870697265624e-001
    7.4430169159274131e+000 -6.9111469144445858e-001
    1.3478942707490532e+001 -1.0034422693234175e+000
    9.5153267964560762e+000 -1.6013577349725829e+000
    7.5156502112368520e+000 -1.9950416668694611e+000
    9.8322711109040792e+000 -1.8675451604621458e+000
    1.2425907433939960e+001 -7.5840237254504639e-001
    2.8425850524472665e+001 -6.6589995591931583e-001
    1.6038142261400502e+001 -5.5242595592270882e-001
    7.6491765857499230e+000 -5.7338404482364391e-001
    9.4612184246106441e+000 -6.9602861818588768e-001
    1.0603912276722458e+001 -1.0603475029452241e+000
    9.5388765987323314e+000 -1.9555598287102256e+000
    7.4990023073902394e+000 -1.9063531462388412e+000
    1.4217719909075434e+001 -1.3604718474691166e+000
    2.7613751917123341e+001 -8.2744333034559681e-001
    1.2335954641108579e+001 -7.5580246999659417e-001
    1.2467047101218064e+001 -8.3328577303285911e-001
    7.4687841566149489e+000 -7.3857934493024791e-001
    8.1804848030165473e+000 -8.7496021243270505e-001
    1.0659573603907180e+001 -1.2862003718593444e+000
    8.7357877334181726e+000 -1.8331631750760120e+000
    7.2325864012031476e+000 -1.7593553569643940e+000
    9.7696229865696047e+000 -1.2350940472329737e+000
    1.1090516217068545e+001 -8.3422958984466200e-001
    2.2721578374450175e+001 -7.2543836138606843e-001
    2.6755381171664649e+001 -7.5871915301375115e-001
    1.3418832455081974e+001 -6.7351414342411708e-001
    1.3940484065871047e+001 -9.3505913695980325e-001
    1.0139867448713208e+001 -1.4586663698185767e+000
    7.9807132220732617e+000 -2.1559307344324767e+000
    7.0351328152023527e+000 -1.7080283143306003e+000
    1.4251701543412299e+001 -1.1440221914219335e+000
    2.0148431786232678e+001 -8.0375750636745380e-001
    2.3286659025204447e+001 -8.4795067492825416e-001
    1.5655764086964636e+001 -1.0636674966547790e+000
    7.6527323731338273e+000 -1.9018177155170237e+000
    8.9436745764259520e+000 -2.4139995543277393e+000
    9.3627160552954045e+000 -1.7380105628080049e+000
    1.5721879359881649e+001 -8.1579294008896619e-001
    3.7707360566898330e+001 -7.7659902439456019e-001
    1.9495161973993977e+001 -5.3602326599188266e-001
    1.2999098541888717e+001 -5.6643555280047808e-001
    1.2458196699531797e+001 -8.8962831743559678e-001
    1.1503596770574845e+001 -1.2251312600558431e+000
    8.9236752388018985e+000 -2.1959221390839074e+000
    1.0114208862067763e+001 -2.4130491785992927e+000
    1.0452851922611801e+001 -1.3773771679779307e+000
    1.6867055907799859e+001 -9.1954060291738438e-001
    2.0257576501947007e+001 -7.7327662067788328e-001
    9.0233216205091260e+000 -7.3169498465478844e-001
    7.9762687002674637e+000 -7.8639240291388479e-001
    2.5601922006475437e+001 -7.7256800166407080e-001
    1.3013466386624884e+001 -7.5559859297126841e-001
    7.8892105660630536e+000 -1.3433798204909766e+000
    1.1424214665312558e+001 -3.4234012737180963e+000
    8.4464754966405877e+000 -2.4165244967614274e+000
    1.7145806880387621e+001 -1.1290386146492071e+000
    4.3671546336756883e+001 -8.4463335657721561e-001
    2.0480211379602565e+001 -4.8266616750529506e-001
    1.7763974450915558e+001 -5.7440663274602544e-001
    1.5172503483299938e+001 -9.5621944359682476e-001
    1.0750160899498050e+001 -1.0088900881450202e+000
    7.3378456467684963e+000 -1.2740068980074053e+000
    9.0175443415978318e+000 -2.0864575242147914e+000
    8.7670438130907620e+000 -1.7773189024250120e+000
    1.4364140074494211e+001 -1.0259599943459932e+000
    1.9616651619162088e+001 -7.8871042250068646e-001
    1.1409888772777018e+001 -7.0873363439923132e-001
    9.5469451389585309e+000 -8.0301984345529598e-001
    1.3445889061754899e+001 -9.5769225675481973e-001
    1.4015378581758268e+001 -1.0324106439737313e+000
    7.8576958143710609e+000 -1.1977173816177689e+000
    1.0605731678548961e+001 -1.4183129515524049e+000
    8.6552921666444185e+000 -1.0467367307109132e+000
    2.8534266168722557e+001 -1.1260448347694598e+000
    1.8898327181017645e+001 -7.3497366906769002e-001
    7.3469423586667029e+000 -8.3752839756025832e-001
    6.2565559063905596e+000 -8.6272893055083655e-001
    1.4891876011497432e+001 -1.2261006022805316e+000
    9.8616583960669946e+000 -9.9375751224523079e-001
    7.1554832979168079e+000 -1.0440944711371885e+000
    7.7674700580209652e+000 -1.1362277160972882e+000
    7.0845718016419879e+000 -9.7811060701085406e-001
    1.4105778652272662e+001 -8.7154580215992938e-001
    1.5655925376887941e+001 -8.2362296883336139e-001
    6.9698374442188822e+000 -9.5671343052015811e-001
    6.4436207237342833e+000 -9.9951582438556219e-001
    1.2946560000091189e+001 -1.1647950821154822e+000
    1.1205875864260655e+001 -1.0530823990208020e+000
    7.2757234673935232e+000 -1.0905732812241615e+000
    8.9070088524097919e+000 -1.2830651459417890e+000
    1.0348419727751036e+001 -1.3729991425136623e+000
    2.1041239342799468e+001 -1.2102829709214735e+000
    1.5441535463218694e+001 -9.2713154339415693e-001
    9.7605026035744302e+000 -9.7185498352106625e-001
    7.6652054103095200e+000 -1.1104550244832254e+000
    8.8467736570697131e+000 -1.4157417173598557e+000
    8.1748435940164033e+000 -1.1364149052111732e+000
    6.9088287588713904e+000 -1.2175959616598815e+000
    7.9537191412820123e+000 -1.0041069313776878e+000
    7.3970486381106539e+000 -1.1148267883353158e+000
    1.1588713882994846e+001 -1.0175271237212431e+000
    9.8044086025606578e+000 -1.0627666951406061e+000
    8.7680690583427214e+000 -1.4517053311290200e+000
    7.3719422491814610e+000 -1.6078683349424372e+000
    1.8202377326793261e+001 -1.1746189230437474e+000
    8.1051799090038603e+000 -8.5883894740270539e-001
    6.3169513853714712e+000 -9.2591736692627513e-001
    7.4127274500301903e+000 -8.5502215367791456e-001
    7.4425996868229696e+000 -9.3864588450427289e-001
    1.9468749130021653e+001 -7.0980334318220129e-001
    1.6754746504974602e+001 -6.6126177443495493e-001
    7.2999218479313921e+000 -8.8343240470133866e-001
    6.3091476197461782e+000 -9.1072783691528336e-001
    1.6073562335409502e+001 -1.1711887220625226e+000
    8.3511632172342161e+000 -8.8522797637377815e-001
    6.3792687196668991e+000 -9.4827170530692984e-001
    8.4672009601339635e+000 -9.1385969355794405e-001
    8.2247027781399424e+000 -7.1111068417862255e-001
    1.8266816226332164e+001 -6.2822902743463183e-001
    1.6952838642497621e+001 -6.5619188573256904e-001
    6.7952048093727919e+000 -8.6105305408968891e-001
    6.2449397079338000e+000 -8.8164393794670204e-001
    9.2969707458344661e+000 -1.3662715323760783e+000
    8.5497089770059969e+000 -1.0113197307130048e+000
    6.4823555234198507e+000 -1.0028434378022999e+000
    7.7587336830325251e+000 -8.0114473996051638e-001
    8.6571605452029292e+000 -9.4836267975675992e-001
    1.9128195638236747e+001 -9.7309528050267902e-001
    1.2017891725911619e+001 -8.6849917345504524e-001
    8.4256707372175548e+000 -1.1609485148827792e+000
    6.7503434938706341e+000 -1.3879739049403592e+000
    9.5691879226287888e+000 -1.3510938083977897e+000
    8.5846243832851670e+000 -1.0613459209902429e+000
    7.5399736684515721e+000 -1.0686699788496792e+000
    1.0663190581760253e+001 -1.0550174928210962e+000
    8.7409318839544330e+000 -9.3697451871511439e-001
    1.8739022368388675e+001 -8.8334880744781119e-001
    1.2407142567998495e+001 -7.8673337250330200e-001
    6.7528943146155287e+000 -9.9713739362989939e-001
    6.4072527209432364e+000 -1.2908388723653892e+000
    1.7102108684764790e+001 -1.2386157395241761e+000
    8.0677648261443498e+000 -8.7712064583839344e-001
    6.8584656833394719e+000 -9.2334095615810696e-001
    1.0480190030844255e+001 -9.4589463528619255e-001
    8.0310782386373099e+000 -6.9380856264721724e-001
    2.0740071879398950e+001 -6.7218478596338060e-001
    1.8147012651887337e+001 -7.4716683825448649e-001
    7.5879263322300465e+000 -8.8662286720298700e-001
    7.3920290832838953e+000 -9.1629567643010501e-001
    1.2595144258476855e+001 -1.2563136606723855e+000
    8.1616990837717402e+000 -1.2152559109901258e+000
    6.5067807098352688e+000 -1.1239746474239496e+000
    8.4402244625724432e+000 -9.8368457330429637e-001
    8.1211805273017923e+000 -7.2248668102631020e-001
    1.8976879180650055e+001 -8.0832538383676611e-001
    1.3744992557508999e+001 -9.2762714550717218e-001
    8.0790121558932881e+000 -9.6758565236193683e-001
    7.7067729123005710e+000 -1.0129097290593814e+000
    9.7975478505753220e+000 -1.2168569423913762e+000
    8.2434618095462611e+000 -1.1380420085203440e+000
    6.7237042474802022e+000 -1.0839386753957974e+000
    9.3696169310771413e+000 -1.0486922409368140e+000
    8.7587757747440804e+000 -9.4450136643552596e-001
    2.0440131258147215e+001 -1.0549500125152826e+000
    1.2311493880622853e+001 -9.1635047086759458e-001
    7.6077760675398123e+000 -1.0506432468207534e+000
    7.3307292390899050e+000 -1.2894984269112730e+000
    8.4186956428351287e+000 -1.1747059661452475e+000
    8.2489322385854980e+000 -1.5538565727959854e+000
    7.1147912760985603e+000 -1.4166197684588875e+000
    7.8666270937799005e+000 -1.0472384783433135e+000
    8.5071525075415533e+000 -1.0468286976638632e+000
    1.3558570320455575e+001 -1.0509457478848596e+000
    9.2735517008630541e+000 -9.1288041033072687e-001
    7.9077308292516966e+000 -1.0303098288767307e+000
    7.8069045529612344e+000 -1.2370033215773459e+000
    1.2449372206806480e+001 -1.2144988159668701e+000
    9.6217065352902758e+000 -1.4043887807033635e+000
    8.3126612772598740e+000 -1.4594644979363567e+000
    1.0182816331420932e+001 -1.0981048447185775e+000
    1.0028151935950111e+001 -8.2975069087317044e-001
    1.9898379290975207e+001 -9.9174881678889981e-001
    1.0483005570228823e+001 -1.0240327828439373e+000
    8.8422684881903297e+000 -1.1629664293525053e+000
    9.5924917061708630e+000 -1.1432719065886576e+000
    1.1683670021373032e+001 -1.1863207759344441e+000
    1.3214525819692543e+001 -2.0156782674144433e+000
    8.8348711416460937e+000 -1.6715272372053331e+000
    8.6085850911233575e+000 -1.2398967568330397e+000
    1.0575846198944747e+001 -1.0645670958823028e+000
    1.7758098668792602e+001 -1.1589961360827064e+000
    8.9700132341938108e+000 -9.8762300367264610e-001
    8.1027714282618089e+000 -1.1572246550735166e+000
    9.4930150911368738e+000 -1.1120716911759261e+000
    9.6889489611069433e+000 -1.2749810275023632e+000
    9.8909308967288236e+000 -1.7333397561565036e+000
    9.5804346734644241e+000 -2.1215402543643753e+000
    9.4963926557285259e+000 -1.3148531821933309e+000
    1.0803334084878896e+001 -1.1879707820277279e+000
    1.3249152705343985e+001 -9.5669763613957204e-001
    1.0514842303284610e+001 -9.5484861201324644e-001
    1.0451979017598392e+001 -1.1159940777135269e+000
    1.0039230508914143e+001 -1.1771116071700223e+000
    9.5005347857056250e+000 -1.5542292318008262e+000
    1.1547791958382001e+001 -2.5917425099087987e+000
    1.3507355191186862e+001 -3.5985175527703612e+000
    9.1048738687979256e+000 -1.6596738223773118e+000
    1.3075183023505309e+001 -1.5534431326882998e+000
    1.9775120339006659e+001 -1.2855375860578182e+000
    1.6609313880721661e+001 -1.2108478767174560e+000
    1.3028787607215772e+001 -1.2443006487953177e+000
    9.5952246153528336e+000 -1.1593325807273958e+000
    1.1641213718068318e+001 -1.2206903461588303e+000
    1.1593123071149732e+001 -1.6150055314122205e+000
    8.7155501106873494e+000 -1.5061248505720561e+000
    8.0851719678606724e+000 -1.2675492177354619e+000
    1.0491635515486420e+001 -1.2101658232801291e+000
    1.5585277608624951e+001 -1.1892141429841503e+000
    1.1119360425929649e+001 -1.0030253148703789e+000
    9.4726317107717897e+000 -1.1274694099783424e+000
    1.0506307267268042e+001 -1.1343447408752749e+000
    1.0743670701735113e+001 -1.1044458085004796e+000
    1.0771525596684940e+001 -1.1950043044857086e+000
    8.7301520586041850e+000 -1.1216391755060771e+000
    9.0482571529746867e+000 -1.1513917844354422e+000
    1.0930066182727549e+001 -1.2411147329093986e+000
    1.2925882417794643e+001 -1.2412215942575879e+000
    1.1797983296047608e+001 -1.1621624368492649e+000
    1.1300647511185169e+001 -1.1332525249846104e+000
    1.0893132759212378e+001 -1.1688119160138295e+000
    1.0200848243818585e+001 -2.0005209029442232e+000
    1.1892681281999947e+001 -2.7435509887392024e+000
    1.2859612613883053e+001 -3.3764908512577456e+000
    9.1481111901133279e+000 -1.7124879893514329e+000
    1.2454338583675877e+001 -1.5282123913574406e+000
    1.7414965756588821e+001 -1.1918613907878932e+000
    1.3908436627197247e+001 -9.7785464848458736e-001
    1.1728011291703000e+001 -1.0531396341181476e+000
    1.0352411620643416e+001 -1.4459308533100845e+000
    1.0206570489706261e+001 -1.7604886747172872e+000
    1.0708681922258311e+001 -2.0221934804073038e+000
    1.0672967494870935e+001 -2.0351419906613173e+000
    1.0161231828473316e+001 -1.3581159220616761e+000
    1.1630105626344747e+001 -1.4788917927196432e+000
    1.2690568183972619e+001 -1.2886938389588163e+000
    9.8328953691367165e+000 -1.0672164919394693e+000
    9.5751994706920112e+000 -1.0976472339106376e+000
    1.0931064027120865e+001 -1.5382382981816769e+000
    1.1243728818279155e+001 -9.7241715204326462e-001
    9.8961537986757531e+000 -1.0177886338241915e+000
    8.2296267148770319e+000 -8.7515451673310651e-001
    8.3787615722990463e+000 -9.9318016627030048e-001
    1.0195617197307360e+001 -1.7039409465755608e+000
    9.7143080930898567e+000 -2.0345606951673916e+000
    1.0757654135554375e+001 -1.8294078022683193e+000
    1.3733865608186530e+001 -1.2450255554115559e+000
    1.2072294136911074e+001 -1.0357737410790759e+000
    1.6111670708353884e+001 -7.9050552693435638e-001
    1.8664539960077207e+001 -7.9287229847148888e-001
    1.3210661242077066e+001 -7.5544794655919689e-001
    1.2185118614945766e+001 -1.0635062906444330e+000
    1.2103700491699051e+001 -2.7741372466979697e+000
    8.8062498630109598e+000 -2.3929784450591085e+000
    7.4015541572259140e+000 -1.5880550718883415e+000
    1.8825553232915283e+001 -1.1650757584850127e+000
    1.7951981653585779e+001 -9.0847164754143928e-001
    1.1060638788783701e+001 -1.1718875635801647e+000
    1.0683438651811169e+001 -1.1588512403674343e+000
    8.9462534085412564e+000 -1.0131462933898296e+000
    9.4107897928786830e+000 -1.2383243834447299e+000
    9.9892739325071211e+000 -2.2692852271364825e+000
    9.8357866076184575e+000 -1.8910558284213417e+000
    1.5639103174975503e+001 -1.7354587393321059e+000
    1.4973324807618097e+001 -1.3645568725372670e+000
    1.3971391149095449e+001 -1.2806254170256479e+000
    1.9861661356194706e+001 -8.6557320023054374e-001
    2.2233303615216990e+001 -8.2502463200303944e-001
    1.9538161557950328e+001 -9.2777311101322502e-001
    1.3392012990402364e+001 -1.4353325847816616e+000
    1.2541375537012387e+001 -3.8583831356268314e+000
    8.4805716718234390e+000 -2.2564547767554846e+000
    1.1600602265213098e+001 -1.4729923585576292e+000
    2.5657042939855199e+001 -1.1222651336459175e+000
    2.2300192847072466e+001 -9.6523662509213370e-001
    3.0842151543057643e+001 -6.4031023961546629e-001
    1.8905603783136822e+001 -6.4362527616238430e-001
    9.9868781787519367e+000 -8.5368778875482298e-001
    9.2499179558197824e+000 -2.5338409182489907e+000
    8.8071965093952898e+000 -2.9030606835867045e+000
    1.3617786884658925e+001 -1.7841702554804835e+000
    1.9698407603124455e+001 -7.2761750165411587e-001
    2.7136064695613790e+001 -5.9388947476693521e-001
    2.5093278508629808e+001 -5.5733060034709569e-001
    1.6715913919227372e+001 -8.0181107565623055e-001
    1.5891710427173988e+001 -9.7948268967691288e-001
    8.3955178344682260e+000 -1.0939878297957242e+000
    9.9852294158885524e+000 -1.9414949438210878e+000
    8.3866503699308996e+000 -2.1941968788498909e+000
    1.3390353201508816e+001 -1.5217034403360383e+000
    1.6191254956447928e+001 -9.1405896898107619e-001
    1.4252194798967437e+001 -7.5723723109261853e-001
    1.3081271505688449e+001 -7.4752365793211384e-001
    1.9685661596292114e+001 -5.3205565721293047e-001
    2.0861131994394203e+001 -5.4490411331235200e-001
    2.0088091365140546e+001 -7.3243664597027702e-001
    1.3434665798860721e+001 -1.7610959704936582e+000
    8.7073361164164513e+000 -2.8594170214519097e+000
    9.8297006013923145e+000 -2.9075780974992034e+000
    9.2276791906285318e+000 -9.7419933231117872e-001
    1.7178852330194353e+001 -7.1129097840724476e-001
    2.6370685848503818e+001 -6.4828646717785887e-001
    1.1611773800812832e+001 -8.5138223795889600e-001
    1.2029885872824394e+001 -7.5682742121997904e-001
    1.6192745016158046e+001 -1.1307354202297237e+000
    1.2245128393522945e+001 -1.5339604031294205e+000
    8.7211559642952032e+000 -2.3420816834346896e+000
    1.0569093853260112e+001 -2.2289878504813174e+000
    9.1860656109310153e+000 -1.0216645208448272e+000
    1.4880120871046774e+001 -9.8168311950218012e-001
    1.4463060243714242e+001 -9.4464722248556754e-001
    1.1485194698944285e+001 -1.0730952821914665e+000
    1.5144374409225710e+001 -1.2685493308491000e+000
    8.9676997310198185e+000 -1.2080695662597476e+000
    1.0070777564283610e+001 -1.5001993948121874e+000
    8.6265551332875479e+000 -1.4734163769730659e+000
    1.1774945907949643e+001 -1.1623136205251001e+000
    1.7405464824931165e+001 -1.1957105198861724e+000
    1.1581813748502293e+001 -9.6067693142851285e-001
    9.3289457377659701e+000 -1.0397674512562165e+000
    9.2090297776956866e+000 -1.6317408348852984e+000
    8.5832428791248141e+000 -1.3194331989684362e+000
    8.0308413531604419e+000 -1.3272790606256610e+000
    8.8466272260500549e+000 -1.1217419299406786e+000
    8.1604176003306907e+000 -1.0923258446207884e+000
    1.4201261782147943e+001 -1.1155271068258701e+000
    1.2849908442538364e+001 -1.2747061579855279e+000
    9.3562361775089276e+000 -1.2368051942230920e+000
    8.0094309505631518e+000 -1.4020335058823958e+000
    7.7907792466672374e+000 -1.0677604551431303e+000
    9.6743494419421250e+000 -9.5245678776875009e-001
    1.5059828664174926e+001 -1.3456421449037648e+000
    1.1244205688129727e+001 -1.3784038599810429e+000
    7.9470221522370519e+000 -1.6860187529204880e+000
    8.7481934349899895e+000 -1.2842719097516273e+000
    9.4401769003171800e+000 -9.5013857422416159e-001
    1.4862565920460858e+001 -1.0747955074115683e+000
    8.8471197683248715e+000 -9.9794571308425850e-001
    7.7764286840539389e+000 -1.3433122863395668e+000
    9.0589871980263403e+000 -1.4688791329538442e+000
    1.0255494894417822e+001 -1.3594256104688600e+000
    8.7896937946527682e+000 -1.0629436107828043e+000
    7.7100216664672399e+000 -1.1342534695418354e+000
    9.1736889582218950e+000 -1.0017848180308413e+000
    9.6410114255322288e+000 -9.2273361613768590e-001
    1.3164350739458316e+001 -1.1432371089191751e+000
    8.1654065861879008e+000 -1.1676731420005013e+000
    9.1062552574606261e+000 -1.6009561361172471e+000
    9.8684995660121899e+000 -1.3055770778774145e+000
    8.5598248475480556e+000 -1.1353465854599474e+000
    9.6072720043861217e+000 -9.0096107376095358e-001
    1.1998946713183134e+001 -1.1433218387574537e+000
    1.5513647909571251e+001 -9.6810970039496791e-001
    1.4851044841493643e+001 -1.1416880100910061e+000
    9.6568937199117268e+000 -1.1651872734109010e+000
    7.5055969218234946e+000 -1.3887282169863717e+000
    9.2480790549401242e+000 -1.4951569124997985e+000
    1.0086002299650623e+001 -1.3241261236809525e+000
    1.0240347899692138e+001 -1.2406697172262464e+000
    1.0954837959114951e+001 -1.1597303167129780e+000
    1.0188453260007954e+001 -1.2868191222593952e+000
    1.4901570282021865e+001 -1.1789654852946529e+000
    1.2405006089539082e+001 -9.9273696948766388e-001
    7.7123778337693381e+000 -1.0006991173195248e+000
    7.0512699300406796e+000 -1.3103505727801577e+000
    7.3842015630917279e+000 -1.4269866471296333e+000
    8.8375859192691806e+000 -1.4901412198322794e+000
    9.9441949192228982e+000 -1.2356498745162745e+000
    1.4815124166590499e+001 -1.2017636379001744e+000
    8.9222142779356908e+000 -1.1152942694468100e+000
    8.9326146984792025e+000 -8.4600725971075452e-001
    9.2105406594417918e+000 -8.4819759585073617e-001
    1.3618600477146046e+001 -1.1649092409954336e+000
    8.2971510158474544e+000 -1.1644377776393595e+000
    7.1113117559344010e+000 -1.3750994344765699e+000
    7.8530585912270165e+000 -1.4792620867192299e+000
    9.3842115999769273e+000 -1.3080833408541761e+000
    1.2529769200392025e+001 -1.2632875329904911e+000
    1.0068146105833021e+001 -1.3433674067970574e+000
    1.0548966568617207e+001 -1.0374363487451959e+000
    1.0478456823563270e+001 -9.1673637172997446e-001
    1.3849177217154464e+001 -1.1344595736217702e+000
    8.0166138560699522e+000 -1.1349448795787724e+000
    8.5253824848682722e+000 -1.0113036059557698e+000
    8.5946579515299746e+000 -1.1036068823349003e+000
    8.4558245134781824e+000 -1.1285501418141457e+000
    1.1312655593509636e+001 -1.1266525433330181e+000
    1.1801707716142070e+001 -1.3032468829732544e+000
    1.8552911166577321e+001 -1.3055920876190257e+000
    1.4288003903999412e+001 -1.0611277827977204e+000
    9.4454593254082440e+000 -1.0325870316070254e+000
    7.7755705235501384e+000 -1.1768475836548824e+000
    8.3711489181375676e+000 -1.0669740318157921e+000
    8.5478056654572558e+000 -1.3429293927501267e+000
    8.1426571821320888e+000 -1.3751229968673306e+000
    9.9560336562106411e+000 -1.1744521829507146e+000
    9.5883808396245307e+000 -1.2305041810654769e+000
    9.6760378464498853e+000 -1.1057176873703642e+000
    9.5040747747446233e+000 -1.0283066092080104e+000
    9.1467440113598375e+000 -1.0343859672540163e+000
    7.8453861124558228e+000 -1.1066978419827100e+000
    8.0357950243487508e+000 -1.3350508343718137e+000
    8.3003960779778740e+000 -1.4780627746009567e+000
    8.6604657562563787e+000 -1.2647764217652424e+000
    1.5030799888456492e+001 -1.3839962229673193e+000
    1.1644210880299136e+001 -1.3809764516479839e+000
    1.0538632377016118e+001 -9.4333848298041434e-001
    1.0243283815089226e+001 -8.5195979635949481e-001
    1.4224631903725983e+001 -9.6971518364429232e-001
    8.2253629366328589e+000 -9.2685846486519741e-001
    8.5556339560609000e+000 -1.3171847279178619e+000
    8.4921021794922140e+000 -1.5198081340132759e+000
    8.5027364335883160e+000 -1.4830375862419802e+000
    1.0147459994364020e+001 -1.2120168336559392e+000
    9.3001361119684738e+000 -1.2804454670079370e+000
    8.9784642800893355e+000 -1.1062186270195369e+000
    8.8490849211577558e+000 -1.0582032758836801e+000
    1.0626130756244129e+001 -1.0684227819934853e+000
    7.6506974667800023e+000 -9.8331334326369146e-001
    8.2956336937452981e+000 -1.0120730108327818e+000
    7.9802477198792507e+000 -1.1860199619885061e+000
    8.3518015384003572e+000 -1.3682471270794194e+000
    1.0271878219067824e+001 -1.1400743299685225e+000
    9.4114243106169369e+000 -1.0620998802245898e+000
    1.0419430325735052e+001 -9.7573531897301602e-001
    1.2177119850095171e+001 -9.4545816430620577e-001
    1.2400777564612435e+001 -9.3694924091430509e-001
    8.1240475056631389e+000 -8.9875445707247215e-001
    8.3321763274367715e+000 -1.1928187375133363e+000
    8.4996189823343720e+000 -1.5122291600958886e+000
    8.7808884519297781e+000 -1.7213146982588117e+000
    9.2167826056205318e+000 -1.2429478582657474e+000
    9.0116058974641984e+000 -1.1062124455387241e+000
    1.1578299748965549e+001 -9.8404166085286471e-001
    1.5350235230447765e+001 -9.4420897461822717e-001
    1.2065983420518201e+001 -8.5657401171852066e-001
    7.9095624606700943e+000 -9.4261188720770339e-001
    8.4223703478465168e+000 -9.9984266741973427e-001
    8.2554828927540100e+000 -1.1195075570423159e+000
    8.2559653489986111e+000 -1.1803530763019883e+000
    1.1283967845431425e+001 -1.1663005245534965e+000
    9.4703145542277127e+000 -1.1657162866551543e+000
    8.7635026415794890e+000 -1.0975527162554759e+000
    9.2131472745009511e+000 -1.0464157681064383e+000
    1.0145536770846096e+001 -9.3141261013998111e-001
    7.3897386401703287e+000 -9.1296098140041726e-001
    8.2250739699261235e+000 -1.0145482044645133e+000
    7.8705704943224308e+000 -1.0530449719916359e+000
    8.1718446025367477e+000 -1.0640042162236745e+000
    1.3285408918151177e+001 -1.3095303769194742e+000
    9.5409759528124098e+000 -1.3065278642396598e+000
    8.3771450955820903e+000 -1.2388282238313355e+000
    8.9964194056801023e+000 -1.3152707968403239e+000
    1.0009706202269651e+001 -1.2334554450838451e+000
    7.6416475233579835e+000 -1.0508711377985758e+000
    1.0046480483185482e+001 -1.6621548665455721e+000
    1.0370907516017541e+001 -2.1283823651525742e+000
    1.0128496772775399e+001 -2.1941361261262622e+000
    9.0324522095352489e+000 -1.3493491044708483e+000
    9.2914556767677681e+000 -1.1523863935852059e+000
    1.2061879195291613e+001 -1.0531235128390080e+000
    1.6993608052126447e+001 -1.2363943627210512e+000
    1.3142190503719778e+001 -1.1204164434902530e+000
    9.7296151428816220e+000 -1.2608102661411498e+000
    1.0565909021083572e+001 -1.4670197266667284e+000
    1.0945642399112259e+001 -1.7935308330359432e+000
    1.1639436294112652e+001 -1.8040575123854627e+000
    1.2185418099546528e+001 -1.4513974889302479e+000
    1.0932702947437869e+001 -1.4831890650496908e+000
    1.6848981944161324e+001 -1.5260700995500427e+000
    1.1514880342346247e+001 -1.1216383795614648e+000
    1.0013114439971423e+001 -1.1330041691624972e+000
    1.1849498657146311e+001 -1.3459302218798008e+000
    1.0270522392527850e+001 -1.3297921701081554e+000
    8.8996536594788882e+000 -1.1751298698872796e+000
    8.9614523959792400e+000 -1.1278877864671841e+000
    1.2975887050618146e+001 -1.2621084103445073e+000
    9.5821425121699484e+000 -1.3415816616802658e+000
    8.3678387440125537e+000 -1.3558422564349704e+000
    8.9497862941026227e+000 -1.5438086883714977e+000
    9.9690970125569596e+000 -1.5823824193165201e+000
    8.9611228504363627e+000 -1.4305534417562766e+000
    1.1178837719770588e+001 -1.4521983026678305e+000
    9.1916223447160998e+000 -1.2224064969453352e+000
    1.0183104899839689e+001 -1.2533122374345709e+000
    1.3408700632353005e+001 -1.4605105232491944e+000
    1.0864860822332759e+001 -1.4859539035591272e+000
    1.1254217480550485e+001 -1.2793896467666177e+000
    1.2055204502153597e+001 -1.4862614327884276e+000
    1.1902509039842904e+001 -1.6498522148481813e+000
    9.4584841668107611e+000 -1.3957769985196962e+000
    1.4715880003904273e+001 -1.0717428899045902e+000
    1.3732237636575432e+001 -1.2000575425098934e+000
    1.2658153193996171e+001 -1.1580527629425501e+000
    1.1006234653440224e+001 -1.6309924032050407e+000
    9.5807918887425725e+000 -2.5483368943257605e+000
    1.1870652573289982e+001 -1.8739951491519276e+000
    1.5433671095682202e+001 -1.3875514115318892e+000
    1.2762129284047736e+001 -1.1074984799637801e+000
    1.8028888819674091e+001 -1.1611101106477422e+000
    2.4269586638680497e+001 -7.2900439911149617e-001
    2.7212030251544633e+001 -8.4697466785156106e-001
    1.9795122173717960e+001 -9.7472073108424495e-001
    1.2958386224721387e+001 -2.1973602151022100e+000
    1.4892261122138819e+001 -4.9696575053184082e+000
    8.9785019441874621e+000 -2.2657029469344536e+000
    2.0539514317456732e+001 -1.2515448850168198e+000
    2.4165150505195466e+001 -8.6962543241024570e-001
    2.5269149043162489e+001 -7.5430382930727946e-001
    1.5151630043345996e+001 -1.3251613544536156e+000
    1.0438132492057330e+001 -1.2276554817787979e+000
    1.4026263123288526e+001 -1.7021613753035150e+000
    1.0445143436475599e+001 -2.1091040921919006e+000
    9.9777016415888031e+000 -2.6627545662519831e+000
    1.0982064661662113e+001 -1.4293911506666401e+000
    1.2095542558724560e+001 -1.1315423406301184e+000
    1.2391745491071980e+001 -1.1790727845766322e+000
    1.1759854456339845e+001 -1.1019956688479928e+000
    2.0314466824996590e+001 -8.4066421036903416e-001
    1.9907589513388956e+001 -1.0107845797115378e+000
    1.5237048003882567e+001 -1.4329952482279340e+000
    9.5062507743655171e+000 -2.7398173433249515e+000
    1.5804141728777994e+001 -5.3053185998628791e+000
    1.3512448609200748e+001 -1.9618379698318984e+000
    1.6849340487073974e+001 -9.4190889027536606e-001
    1.9197880199831651e+001 -7.9666935732941546e-001
    1.8488921173765810e+001 -7.7611637454042404e-001
    1.7684977773245198e+001 -5.5620934759088181e-001
    2.1030597457170437e+001 -4.8398918703081739e-001
    3.0151832558070208e+001 -6.2852991857338281e-001
    1.6506014992607255e+001 -1.0382664941798541e+000
    8.1315407111265614e+000 -2.1910938614203173e+000
    1.0893972533019731e+001 -3.1009477104358711e+000
    7.6855035712584794e+000 -1.3231472865950975e+000
    1.5594948496879358e+001 -8.2184981809104718e-001
    2.4634460666277043e+001 -7.2551906241937902e-001
    1.0388470522866818e+001 -8.6570095573470707e-001
    1.1202038332306751e+001 -7.0001166282786242e-001
    2.1012894824548439e+001 -8.4250589093499828e-001
    1.5678278357101703e+001 -1.0269873239988427e+000
    8.7317706551943655e+000 -1.6859433351276290e+000
    8.9293791854989593e+000 -1.9918207142107969e+000
    7.4495983055998556e+000 -1.1014940631792065e+000
    1.1987356610927424e+001 -9.3787859295306419e-001
    1.7796117169549955e+001 -1.0797991039804085e+000
    1.3753466543653975e+001 -6.1150503704815606e-001
    2.2316630145081668e+001 -5.9641324402564166e-001
    2.9817667675144062e+001 -7.6804771735670374e-001
    1.3590660226782060e+001 -8.8589443285492098e-001
    8.6429596241616427e+000 -1.7683506779853750e+000
    9.6608067755430849e+000 -2.6344565179606425e+000
    8.0879169893678160e+000 -2.0707775269614364e+000
    1.5888720477615903e+001 -1.1396583337047994e+000
    1.8604262469758488e+001 -8.1123831657722234e-001
    8.0674893614470982e+000 -8.0843086781818907e-001
    9.6633103956741486e+000 -7.8776269608426819e-001
    1.7449166840235648e+001 -8.2402171330346452e-001
    1.5751213632649060e+001 -1.0136446858703836e+000
    1.0293417489529896e+001 -1.5281508402691972e+000
    9.8870419476471980e+000 -2.5151884058115659e+000
    9.5470381365809640e+000 -2.4296832565744584e+000
    1.0231715859194130e+001 -1.2175592443548942e+000
    1.0580857926703802e+001 -8.6534738311326687e-001
    7.8151597654486862e+000 -1.0792634380039205e+000
    9.2992778170941026e+000 -8.1233955654892276e-001
    1.4996675347394936e+001 -7.2317255663522984e-001
    2.0228124415814769e+001 -1.1546221329129802e+000
    8.4195218301421164e+000 -1.2702582278391639e+000
    9.6331814894791776e+000 -1.2935068431649370e+000
    7.6208074081294512e+000 -8.8229829803284676e-001
    1.8553497925156964e+001 -1.0420469111249211e+000
    1.1927168781501850e+001 -9.6739057917786186e-001
    6.6434211891255446e+000 -1.2725915144296827e+000
    9.1786932979240401e+000 -1.4833398871700889e+000
    9.7665560039498516e+000 -1.0604978534376490e+000
    1.0497692182287738e+001 -9.2726373448311694e-001
    7.3281615520507755e+000 -1.0499018466300645e+000
    7.6721545884518374e+000 -1.1315225724199161e+000
    7.3874556474493049e+000 -9.4455675790833404e-001
    1.2768596402370376e+001 -9.3994874757307123e-001
    9.7368948488869709e+000 -1.0110785890382237e+000
    6.2038277095948580e+000 -8.3603630635371295e-001
    7.7524087305981437e+000 -8.7087350674701935e-001
    1.5087796135873464e+001 -7.2522081898715962e-001
    2.6441703222574287e+001 -1.1712451536238389e+000
    1.1112827836846146e+001 -1.2320329220619473e+000
    9.7197277552374910e+000 -1.4552068794586435e+000
    7.9497171316891686e+000 -1.3567967799034333e+000
    1.3303019487744111e+001 -1.1225864245419055e+000
    1.0851457682729492e+001 -8.5970554265674171e-001
    6.4547026734375894e+000 -1.2207855737204412e+000
    6.6794205712814261e+000 -1.2882813757494151e+000
    7.7805674218277803e+000 -8.7499278521847279e-001
    1.1531948296459754e+001 -8.3747757118274768e-001
    7.1539857171178056e+000 -9.7521631114607987e-001
    7.4727821516022193e+000 -1.2462723517359711e+000
    7.4514309429745937e+000 -1.1844136194203083e+000
    1.2566254187835488e+001 -1.1656933646741834e+000
    1.1405134318518499e+001 -1.2050633284612826e+000
    6.3646695575178525e+000 -1.2186912560087875e+000
    7.6396136173966740e+000 -1.3105509823648629e+000
    7.7109229076487535e+000 -9.0804129253513377e-001
    1.9078747393624546e+001 -9.1690551732626180e-001
    8.4209609048531640e+000 -9.9306979049146427e-001
    7.6290051844864539e+000 -8.2161062563466614e-001
    7.1203840849573172e+000 -7.6724673309993874e-001
    1.4837424845408007e+001 -8.7445620436860216e-001
    9.1363048791721084e+000 -9.0621906620288928e-001
    6.4246172140099516e+000 -1.2070279735725156e+000
    7.1111119068640409e+000 -1.3426377658082522e+000
    7.5599136870419326e+000 -9.0800350098740679e-001
    1.6110241002099357e+001 -9.1555384550855390e-001
    8.1390722853895650e+000 -7.7100036041670850e-001
    1.0820740240956107e+001 -7.8610443776956940e-001
    9.6323389258914442e+000 -6.7236643240056027e-001
    1.7922655682408362e+001 -8.3771397510291501e-001
    9.8183161729526187e+000 -9.2321260306111053e-001
    6.4283508095268189e+000 -1.1636447701609198e+000
    6.7843924236511155e+000 -1.2406486589371792e+000
    7.6644093480437396e+000 -8.1188060839203757e-001
    1.2274537930066305e+001 -6.8730607563283397e-001
    8.0752718397126184e+000 -8.0813008491913818e-001
    7.2321734476950352e+000 -8.3713982132591758e-001
    6.9791870055820580e+000 -7.8530192918078023e-001
    1.3275134591245491e+001 -7.9212674458218668e-001
    1.4956955436103099e+001 -1.1134205342581418e+000
    6.3621812187049951e+000 -1.0687354969986240e+000
    6.6511524102007513e+000 -1.2500699520571938e+000
    7.8224460447927884e+000 -8.2496953731863254e-001
    1.0504113734141200e+001 -7.6115295888831569e-001
    7.9608208869750925e+000 -7.4046843377579408e-001
    8.2422644733841182e+000 -7.4355346083431295e-001
    7.0237321130438977e+000 -6.0976590211722526e-001
    1.6628710686743158e+001 -6.6357293433714815e-001
    1.4081084970276118e+001 -9.3836327174858924e-001
    7.9792039819959450e+000 -1.3305444662609083e+000
    7.0864971683101388e+000 -1.4114394648561295e+000
    7.9093045672319668e+000 -1.0035584342237587e+000
    1.6462418560982503e+001 -1.0074442334790570e+000
    7.7613976210946225e+000 -7.5624480940024108e-001
    9.3646101900742060e+000 -7.2488952936043705e-001
    7.7864145523754358e+000 -6.5682187383469770e-001
    1.6889449773398809e+001 -8.6441680472223170e-001
    1.1348990527763505e+001 -9.5249900017017974e-001
    8.4716724883101548e+000 -1.3499539917298249e+000
    6.9483681763973593e+000 -1.3735177482951488e+000
    7.4952117735383998e+000 -1.1710847849788979e+000
    1.2659175923678454e+001 -1.1072288989650292e+000
    7.7465430932322530e+000 -8.7458934290076606e-001
    7.5057582217527550e+000 -8.2576374973552780e-001
    7.1302365286568428e+000 -8.3094630990985163e-001
    9.5131124220845855e+000 -9.3841485048252571e-001
    8.8754927641923160e+000 -9.6418541123449897e-001
    7.2683424947219759e+000 -1.0747889968401398e+000
    6.7718566400818387e+000 -1.2799293284822892e+000
    7.4398767396829557e+000 -8.5809608779512725e-001
    1.1014772069264271e+001 -8.1772914290333110e-001
    7.4915372321004838e+000 -7.2591705230814796e-001
    1.0587514603749199e+001 -7.3178478191041008e-001
    8.4657092593007022e+000 -5.9633652121952752e-001
    1.9490109728093078e+001 -7.2424883178451371e-001
    1.6575287702112110e+001 -9.8502348350643432e-001
    6.9738375318931789e+000 -1.0197553872423470e+000
    6.6567041042571438e+000 -1.2961395985735293e+000
    7.6254242144187083e+000 -1.0340276565674356e+000
    1.0746197062513055e+001 -8.4616434842666965e-001
    7.4995173802571076e+000 -7.3332986779407239e-001
    7.8648723835426892e+000 -8.1316680080522308e-001
    7.0093488267633726e+000 -7.2505870824664431e-001
    1.3239968179457946e+001 -8.3488994441473818e-001
    1.3642930775916318e+001 -9.9119520947153206e-001
    1.1459314673174564e+001 -1.3262237963967263e+000
    7.7935525121650011e+000 -1.2740301795376452e+000
    7.7301376906479948e+000 -1.1277773223385588e+000
    1.1969776691221789e+001 -1.1190878605054666e+000
    1.0033467133654156e+001 -1.0739455607698714e+000
    8.9859409109929356e+000 -1.1443139098068495e+000
    8.2945926216237194e+000 -1.1400850005475096e+000
    1.1254101080109633e+001 -1.0523727737891615e+000
    9.9197217534398749e+000 -1.0110742044078171e+000
    1.0972929577319130e+001 -1.2279235035917455e+000
    7.7379518127748046e+000 -1.0773633573249208e+000
    8.1073771834650614e+000 -1.0028817522830626e+000
    1.6990977897984887e+001 -1.2503494079911150e+000
    1.1332282708999031e+001 -1.3456678098747428e+000
    8.1314028733407024e+000 -1.4319413550445053e+000
    8.2437368249306218e+000 -1.5730793663927010e+000
    9.4108511669266210e+000 -1.3681605340590084e+000
    9.3339483348273458e+000 -1.2263480483968690e+000
    8.1692327841223840e+000 -1.0754668159411744e+000
    7.1465060832606717e+000 -1.2443404816064612e+000
    7.6599694603368871e+000 -1.0155366893918214e+000
    1.4881200623561016e+001 -1.0038613403995587e+000
    9.9862030575042233e+000 -8.0904307169543555e-001
    8.6224644139428932e+000 -9.6574926912212156e-001
    7.4382477935589488e+000 -9.9721845121474506e-001
    1.4383145294522720e+001 -1.0221601108283516e+000
    1.4832425905490707e+001 -1.0007672512532808e+000
    8.4516810921451224e+000 -1.1397029162005696e+000
    7.1343305068086833e+000 -1.2204638675081805e+000
    7.5660180598335547e+000 -1.0220958433469831e+000
    1.6244129270927992e+001 -1.0989491776979512e+000
    1.0364930379764939e+001 -9.4787227923012496e-001
    7.5606673751862905e+000 -1.0960173209591972e+000
    7.5751415052383573e+000 -1.2279581277832814e+000
    1.1738368029572586e+001 -1.2841356416911762e+000
    1.2326419738324029e+001 -1.0567273865879292e+000
    1.2126156347451881e+001 -1.3701551348994068e+000
    7.7232648509875723e+000 -9.7213029248111948e-001
    7.9800563460759504e+000 -8.8194993142209155e-001
    2.0154154090095286e+001 -1.1697371628604307e+000
    1.1745308367015244e+001 -1.2575122798568168e+000
    7.8289815866116603e+000 -1.3317192437611107e+000
    8.1376977303836302e+000 -1.5169127031122727e+000
    9.6468936369633020e+000 -1.4643976606885181e+000
    8.9793251513739545e+000 -1.3239074840307781e+000
    1.2450252951627883e+001 -1.5914921947851817e+000
    8.1319692428761972e+000 -1.1315961986992658e+000
    8.0398254994774394e+000 -1.0612864816970973e+000
    1.4085396882613903e+001 -1.2356390725271940e+000
    1.3504942413582139e+001 -1.2623538905023433e+000
    1.0450129736202257e+001 -1.1226214505691114e+000
    1.0309211518690999e+001 -1.1982451022317067e+000
    1.0614882390751584e+001 -1.2793214334811942e+000
    9.3550536796136079e+000 -1.2926637190851167e+000
    9.1431908457076325e+000 -1.1867485856253206e+000
    7.2297402901453038e+000 -1.2188162955599220e+000
    7.4817245616187478e+000 -1.0546754889255394e+000
    1.4796286017473429e+001 -1.1220699781909813e+000
    1.0459583379630981e+001 -1.0193790520116892e+000
    7.1430922916080144e+000 -1.0823677643428975e+000
    7.1759637010766184e+000 -1.1475738661330785e+000
    1.0554266877771566e+001 -1.1546429458199676e+000
    1.1145103518458628e+001 -1.0606856912735085e+000
    9.9064753398156817e+000 -1.2709778311053903e+000
    8.1620200117316362e+000 -1.3942327666483367e+000
    8.9295338048950157e+000 -1.4013451068372991e+000
    1.1332714657247617e+001 -1.3787746590729761e+000
    1.1738589465288930e+001 -1.2738907584399470e+000
    8.5745866099048573e+000 -1.1541113222876436e+000
    8.1621512455520886e+000 -1.0315501757197019e+000
    1.2808942299507057e+001 -1.1604998206868860e+000
    1.0473665148774218e+001 -1.0562826590484857e+000
    1.4613613325243694e+001 -1.3329989749624596e+000
    1.3801910582578579e+001 -1.4783728847798341e+000
    1.3963192937473552e+001 -1.7614443052439952e+000
    9.8720343822673939e+000 -1.7898340444857965e+000
    1.0112180227366961e+001 -1.8479898501552723e+000
    9.8716430752530240e+000 -1.0192751795199122e+000
    9.5408480385814176e+000 -8.4366119422374397e-001
    1.3552686766845536e+001 -1.0997606079735516e+000
    1.0945718909569393e+001 -1.0611656394873767e+000
    2.3396235933839538e+001 -9.5377564293008477e-001
    2.2625428540663329e+001 -1.1640726098888825e+000
    1.0981037883001239e+001 -1.6144946107863902e+000
    8.6134749835066309e+000 -2.2854901418591713e+000
    1.2622640864253947e+001 -3.6726861997539575e+000
    1.6068739735193944e+001 -1.2693446418136778e+000
    2.2614760814385928e+001 -8.9570560494602680e-001
    2.3115062721905446e+001 -7.7981262422406894e-001
    1.9809074558344879e+001 -8.3080402505092199e-001
    1.1409291831833503e+001 -1.0877510868376277e+000
    1.1137733031563441e+001 -1.4166655199603704e+000
    9.3118850887961493e+000 -2.0174349293957374e+000
    9.6626686575160736e+000 -2.2472023677705897e+000
    1.0655119504992166e+001 -1.6675820075010619e+000
    7.8727096395527880e+000 -9.4125917941126569e-001
    7.7483330774476391e+000 -8.0662878460744269e-001
    1.0503635679095014e+001 -9.5166519448911646e-001
    1.1186810395635412e+001 -9.5991556160281788e-001
    1.7354301168800852e+001 -9.0611886929163499e-001
    1.3790778952810880e+001 -1.1731639681310448e+000
    7.5256299837666356e+000 -1.7634663598370688e+000
    9.1893627660259174e+000 -2.5415045421939593e+000
    1.1916897015256819e+001 -2.5471007366954708e+000
    1.1676110865942727e+001 -1.0482782803958679e+000
    1.2088892596721614e+001 -7.4325593960807923e-001
    1.9247416632723770e+001 -8.0194311066348489e-001
    1.7401822679550332e+001 -8.2738148593610472e-001
    1.8494888673547990e+001 -6.0601604785325192e-001
    3.2561409332090854e+001 -6.7118098849436802e-001
    3.1915373634994136e+001 -7.2969568152322029e-001
    1.7642878446830593e+001 -7.8515533968163853e-001
    1.0902852639966815e+001 -1.2687035242225730e+000
    9.5042362234694906e+000 -2.4954090815449859e+000
    7.6059795603032061e+000 -2.1100957558472957e+000
    1.3891326813335366e+001 -1.1883450588435933e+000
    2.1517209191519331e+001 -8.0325779550090604e-001
    1.0195824055706822e+001 -7.5561593855206388e-001
    1.3691924343697048e+001 -7.8823783195151531e-001
    2.1052329480991713e+001 -8.3054502982697254e-001
    1.6283446700682699e+001 -8.2122785238640628e-001
    1.1836588166066722e+001 -1.1509805101933026e+000
    8.9343212139900459e+000 -2.1083300601713528e+000
    8.2528507542343874e+000 -2.4691665301019530e+000
    8.1968497676325249e+000 -1.2730312572704521e+000
    1.0893598961050007e+001 -8.4798641653415086e-001
    2.2234864935548853e+001 -6.2087823894863148e-001
    3.3381397463010885e+001 -6.2723398094165783e-001
    2.6990678160018312e+001 -6.5950663968657197e-001
    1.6762675640657942e+001 -7.1246065578057960e-001
    9.1970485725359996e+000 -9.5066303235002592e-001
    1.0100588422895704e+001 -2.0741999714094947e+000
    8.1200028210630961e+000 -2.1785530205956039e+000
    1.1547316516169149e+001 -1.4214349609751826e+000
    1.8999903571400655e+001 -7.4466451002568235e-001
    1.1599566349476609e+001 -6.8317709524901393e-001
    1.8710087415160682e+001 -6.8526513019090263e-001
    1.8010779441253270e+001 -6.8930017736674265e-001
    1.3929303324607018e+001 -7.1631805760805878e-001
    9.9782979838828414e+000 -9.3857447271378514e-001
    1.0869817806458871e+001 -2.2547237175374417e+000
    1.2276972556388248e+001 -4.0460920928705564e+000
    1.1388156724188990e+001 -2.8106130626821235e+000
    1.1249455834677411e+001 -8.8714039184359295e-001
    7.9194106829282900e+000 -7.6733913436225154e-001
    1.2996360908731004e+001 -8.8355038572055999e-001
    2.3678048261907843e+001 -8.7691865855816842e-001
    2.9611857307146238e+001 -1.0015317355520892e+000
    1.7371343212037253e+001 -1.0706344882456984e+000
    9.7750227739126032e+000 -1.3271991539755335e+000
    7.2772003954028364e+000 -1.6626029030736440e+000
    1.1302660973844176e+001 -1.2838288303128340e+000
    9.5280703873530648e+000 -7.6728685208208647e-001
    7.3423323502245745e+000 -1.1168882428146811e+000
    7.7263891999822283e+000 -1.0279863575945194e+000
    8.7499408069249434e+000 -7.3570025391817051e-001
    1.2438678681540795e+001 -7.6253493875717793e-001
    7.7936463473505961e+000 -8.3312483560985784e-001
    8.0452575385522547e+000 -9.7956542042723005e-001
    6.9211281125839337e+000 -1.1527180302408524e+000
    8.8714846327991594e+000 -1.1678208870715265e+000
    9.4183507318060098e+000 -9.7932382268899520e-001
    8.6118480887985029e+000 -6.9697625285365528e-001
    2.2356059218717938e+001 -8.0113880066037091e-001
    3.1056242948947173e+001 -8.6274040053469248e-001
    2.3100114970963837e+001 -7.9476422627884513e-001
    1.5373124360668827e+001 -9.6306146410980453e-001
    1.1907493803943703e+001 -1.5558752095772221e+000
    9.9576499624288140e+000 -2.7732852050578174e+000
    1.0016693675656684e+001 -2.2954393660397234e+000
    8.6632327532724389e+000 -8.6912509389863435e-001
    7.7792814163802850e+000 -1.0095398499492967e+000
    9.6109130026487577e+000 -9.3010214019363679e-001
    1.2752309187251610e+001 -8.1649254280611827e-001
    1.2394498365779695e+001 -7.7364555680279556e-001
    7.9196296813196012e+000 -8.4052248010735997e-001
    9.3736975382604086e+000 -1.1568895147130822e+000
    7.5931482087105318e+000 -1.9853473363733627e+000
    9.1552012635399329e+000 -2.0722366488513604e+000
    8.5341715060881782e+000 -1.2052660861155653e+000
    6.6512586186218341e+000 -1.0969737951615264e+000
    7.8651842137749188e+000 -1.0252793490612411e+000
    1.0288330718987682e+001 -7.5811184452733460e-001
    1.1702381630623661e+001 -6.7394562751073639e-001
    6.7263775611422272e+000 -7.0436926844439296e-001
    8.5501351121648508e+000 -7.5425257043348060e-001
    7.0233645074792204e+000 -7.5008769169417966e-001
    1.2510480110557898e+001 -8.7678360243613707e-001
    9.7766137635360710e+000 -8.4395739022581218e-001
    6.6715150964019720e+000 -1.0372561925512915e+000
    7.6105312145402593e+000 -1.0524176968603329e+000
    1.0014150039969902e+001 -8.2954838819629739e-001
    9.7350153581954348e+000 -8.2825571782656016e-001
    6.3811187960863913e+000 -8.4868055593560354e-001
    9.2760479725176364e+000 -7.6601742241787274e-001
    7.2421626483846815e+000 -6.0850909929304442e-001
    1.6503986108872009e+001 -6.3284342944382088e-001
    1.0140099294626939e+001 -7.8461598787912679e-001
    6.8867454570797051e+000 -1.0497507774681176e+000
    9.1528843384656771e+000 -9.8940455854818965e-001
    1.2892943964067616e+001 -9.2364784509724396e-001
    1.0942841084032205e+001 -7.6638329306613562e-001
    6.7907737110546140e+000 -7.6823261534122200e-001
    9.7403373474917654e+000 -8.9028277562724845e-001
    7.0808153421113698e+000 -1.1372362772126541e+000
    8.6440533688521057e+000 -1.2104181948264383e+000
    7.7002926190689847e+000 -1.0620922069032339e+000
    6.8918517855137278e+000 -1.1041137970875479e+000
    8.3031601617925155e+000 -1.1059328201228531e+000
    8.6504276901295043e+000 -1.0029815976522110e+000
    8.5734798142721242e+000 -9.5243713918636719e-001
    6.5112156431118784e+000 -9.3740855061334616e-001
    8.5283757101464932e+000 -8.7182735870132055e-001
    7.2736506884675913e+000 -8.3458281212192487e-001
    9.8261926030890425e+000 -9.9834859027520972e-001
    7.7468621299160496e+000 -1.0215376236999387e+000
    6.5105345764535274e+000 -9.7901687779982460e-001
    7.1497684554395278e+000 -1.0664829634327500e+000
    8.0227629891354670e+000 -8.5021946259699854e-001
    1.0334646242249150e+001 -8.9729423110037743e-001
    6.7719323277990799e+000 -8.8424616317281324e-001
    9.9845300058990851e+000 -7.8563805694446620e-001
    7.2319486395379284e+000 -5.9697146308309157e-001
    1.7394467033624181e+001 -6.6248038864152747e-001
    1.0996326966497728e+001 -8.1182216598760948e-001
    6.3563300539774374e+000 -9.7823329339973231e-001
    7.1368680443588159e+000 -1.1023334858802605e+000
    7.6788204842985675e+000 -9.0086474907151581e-001
    1.0709284099262785e+001 -7.6602148067054376e-001
    6.9965693216249036e+000 -6.9074286295504339e-001
    9.6904802277401973e+000 -7.2449797802310423e-001
    7.9169074054441060e+000 -6.1804510596928919e-001
    1.6050387431104976e+001 -6.6595944556938591e-001
    1.0568383650180705e+001 -8.3345517700687477e-001
    7.0252566574520037e+000 -1.2278879989476417e+000
    7.7066404361753742e+000 -1.2082447713051121e+000
    7.9748437985720324e+000 -1.0077766795233623e+000
    9.5746020121441919e+000 -9.6650408653742781e-001
    6.8617197578000599e+000 -9.4123709457214366e-001
    7.9491589928083126e+000 -7.9897609808060366e-001
    7.0191415622217850e+000 -6.5643323814425170e-001
    1.0747484617225659e+001 -7.4514261093422463e-001
    8.2699709848642833e+000 -1.0346521122141239e+000
    6.7991057220958782e+000 -1.1978258442084166e+000
    7.8760545590114344e+000 -1.3470975252936930e+000
    8.5686312455539255e+000 -1.1539972653905759e+000
    9.3559831939927225e+000 -7.4284110317356067e-001
    7.0653955887278936e+000 -6.8969331680273960e-001
    9.8829913275550929e+000 -7.1731693443708744e-001
    7.4709311719995286e+000 -6.1717860093647736e-001
    1.2813644797970721e+001 -6.9429096954132008e-001
    8.2859179937001937e+000 -1.0109350155146306e+000
    6.5539933469462399e+000 -1.0701083645536360e+000
    6.4828098345071981e+000 -1.1029940587215183e+000
    6.8521961849160409e+000 -8.6065767794364589e-001
    1.2154651660174759e+001 -8.4038947708859291e-001
    8.7867545568927810e+000 -7.2423628649785177e-001
    9.6367915473245436e+000 -8.5628613448521851e-001
    7.0702281594437091e+000 -7.9497114833851334e-001
    1.7137756214722558e+001 -8.3146456837638150e-001
    1.2131165425322006e+001 -9.1295117102970380e-001
    6.8137413923319281e+000 -1.1305706769165353e+000
    6.6612393831581445e+000 -1.2893179866674205e+000
    7.0828733276474320e+000 -9.9443976443718085e-001
    1.1882672311258997e+001 -9.1232950401118251e-001
    8.9503433010904008e+000 -7.8939405712519495e-001
    6.9963421586078693e+000 -9.0439716218438015e-001
    6.5696030377410883e+000 -8.8177388108014665e-001
    1.2910915722485161e+001 -8.9291289105253691e-001
    1.3087220502660145e+001 -9.9897679128040251e-001
    6.7119958284011831e+000 -1.1905510056071942e+000
    6.9699204150182430e+000 -1.2238644881709717e+000
    8.9800165597672432e+000 -1.0414261129906823e+000
    1.1284231267367764e+001 -7.8204145247940149e-001
    8.9516005291627199e+000 -7.1763877253304176e-001
    1.1985362060843494e+001 -7.6561680203203641e-001
    8.3348275084644179e+000 -6.5947544783877166e-001
    1.8713027006072249e+001 -8.5579587529911760e-001
    9.8494992775264336e+000 -1.0445015177502319e+000
    7.1690675053281687e+000 -1.4506934377298817e+000
    8.5878263789203633e+000 -1.6228810275090209e+000
    9.5712071076042395e+000 -1.2023263297821081e+000
    1.2818464406272243e+001 -9.2102401876365525e-001
    9.1734178980062495e+000 -7.9357263933067157e-001
    8.2777365062190320e+000 -8.3631484183570060e-001
    7.0146024861105163e+000 -7.4022911881161368e-001
    1.3277080005057863e+001 -9.3433133936066304e-001
    1.2094999990161588e+001 -1.3136863384043911e+000
    8.0436994576437648e+000 -9.4131674954116795e-001
    7.7317884847561364e+000 -1.2067881266600013e+000
    9.4199720814122792e+000 -1.0414959295328194e+000
    1.2474587689386986e+001 -8.2672374102222279e-001
    9.5678710058596348e+000 -7.2686731400650428e-001
    8.2751906494932150e+000 -8.6629144398391533e-001
    7.3958421808091934e+000 -7.5651675742275737e-001
    1.7909257754991508e+001 -8.0535708720402166e-001
    1.4247307080825847e+001 -7.9488393029421156e-001
    8.7292141286166594e+000 -8.8897254503213097e-001
    8.5277339876715832e+000 -1.3846041059923508e+000
    6.6109399584210014e+000 -1.4401291316406291e+000
    1.0919359540216655e+001 -1.3102747282932152e+000
    1.1444096320735952e+001 -9.7061031725642000e-001
    9.0281141787134107e+000 -8.7477832889698615e-001
    7.8428760758707883e+000 -7.4548021376873241e-001
    1.8252403185144015e+001 -8.8317805248823655e-001
    1.3153157206248462e+001 -7.5030114900854772e-001
    8.2272444978595924e+000 -1.2407402370291760e+000
    8.0798213103402894e+000 -1.8371216998821449e+000
    7.3776874059385662e+000 -1.4410678683308924e+000
    1.2899382140100903e+001 -9.0213317992060771e-001
    1.1041613167413072e+001 -7.3215255788027178e-001
    9.2577641588699464e+000 -7.2919725277313718e-001
    7.3567194060875956e+000 -6.4873226882452439e-001
    1.3745573327990076e+001 -7.0920918556720869e-001
    1.4473543681484669e+001 -9.8974270849616341e-001
    9.0226991340245437e+000 -9.7136896949197615e-001
    6.2213674136432600e+000 -1.7495881508599429e+000
    6.0688742262571056e+000 -1.6409550411036236e+000
    1.0157808018944072e+001 -1.3139428611901567e+000
    1.5651031930442567e+001 -1.0320674009941631e+000
    8.4032074851543594e+000 -7.3215074211463593e-001
    7.2266061373770647e+000 -6.5652080338683305e-001
    1.2363471157997909e+001 -6.7689215819157433e-001
    1.6375165199252869e+001 -7.9367170807054577e-001
    1.3050950931640120e+001 -8.0223589903289028e-001
    9.5603494126687565e+000 -1.2596899818122782e+000
    7.0111668553097104e+000 -1.6855583751788099e+000
    8.9928990030460216e+000 -1.7349627063270792e+000
    1.2386074486526930e+001 -1.1669301900549853e+000
    8.3693544444832693e+000 -7.8959590198054752e-001
    7.4652615692069579e+000 -6.8018618974496381e-001
    1.7077523093016172e+001 -8.1351352949842048e-001
    1.5160267757381568e+001 -6.8871750391822195e-001
    2.5892174843722277e+001 -7.7779856469085562e-001
    1.4649225993862983e+001 -1.1654107555324014e+000
    6.7032896479221051e+000 -1.5975151557773171e+000
    7.9425836685737492e+000 -2.0589892796189067e+000
    1.0138351496960757e+001 -1.2234473374907551e+000
    1.6021727271487862e+001 -9.0443325000715213e-001
    1.5492035561959790e+001 -6.3403583339311420e-001
    3.7034373089396340e+001 -8.1082567808999306e-001
    3.2998375492402729e+001 -7.6339392404616235e-001
    1.2826435788196509e+001 -7.9656063049120318e-001
    8.4723012685738386e+000 -1.9240530585400486e+000
    7.5958623186105099e+000 -2.0708842019097262e+000
    9.2079905006705633e+000 -1.5640193665439710e+000
    1.1678911685334045e+001 -9.9893779157828355e-001
    7.2588395347695291e+000 -7.3195926523895649e-001
    6.6754451140281832e+000 -6.3491112781637260e-001
    9.6488042188781726e+000 -6.0361862582890125e-001
    1.5151961378454605e+001 -6.2511635517928787e-001
    2.2289124507072156e+001 -7.4847414714923766e-001
    1.1401401158341342e+001 -1.3511106554322045e+000
    7.6097802043569880e+000 -1.9629685696210368e+000
    9.5252689207574459e+000 -1.8279731234320136e+000
    9.8142196379679909e+000 -1.0786046628752377e+000
    8.6949008563414889e+000 -7.5080718061817864e-001
    7.4059141186306245e+000 -5.9564662483712705e-001
    1.3365454968567105e+001 -5.5119176298731132e-001
    2.0765468489401567e+001 -5.9375011373336484e-001
    2.3751291632921490e+001 -7.8550422639124107e-001
    2.8117874685085837e+001 -6.8629447176093461e-001
    2.1613204411922631e+001 -6.7883607117441425e-001
    1.6793922045872478e+001 -8.0502767950790888e-001
    8.2245040130328384e+000 -1.0618430348923220e+000
    1.1305483489048520e+001 -1.7574448716997302e+000
    8.4702149460889800e+000 -2.4756462877219483e+000
    1.1394161574971148e+001 -1.8686543440357202e+000
    1.9548797469920082e+001 -9.8299915430124007e-001
    1.5058155882731496e+001 -8.3701870048684401e-001
    1.9728904976222836e+001 -6.9157506621119447e-001
    1.6976914162720135e+001 -6.8905426037531570e-001
    1.3514350581227397e+001 -7.4458034755458047e-001
    8.5796885240562748e+000 -9.8956332017269344e-001
    1.0137844652600362e+001 -1.7652850075962903e+000
    1.2261824120499464e+001 -4.0879077767535303e+000
    1.0300351568030331e+001 -3.2861882210210172e+000
    1.0456096788518181e+001 -1.1345183587496204e+000
    2.1658057817101113e+001 -7.7483127484920622e-001
    2.6886292951711305e+001 -7.3242338925073003e-001
    2.0909725235678881e+001 -7.2455701194479083e-001
    1.4655637347897319e+001 -8.1420596761292163e-001
    7.8519024001363160e+000 -1.1455432578018125e+000
    1.2899779373137076e+001 -1.1861287671218232e+000
    9.6896588526213652e+000 -1.6341485730363070e+000
    1.0722837843555489e+001 -1.2958765044498155e+000
    1.8606790510050971e+001 -9.6600639461125326e-001
    1.4944127151410834e+001 -8.5179591471214866e-001
    1.9200200498362559e+001 -6.9366179051412546e-001
    1.6567744256370968e+001 -7.0587228546421610e-001
    1.1170909672332661e+001 -7.1237153414203158e-001
    7.3626150438361595e+000 -1.0448785142377977e+000
    1.0864592795544073e+001 -1.2556761703730801e+000
    8.4853355028474606e+000 -2.4420329103419056e+000
    8.0654338576981157e+000 -2.2413371520376297e+000
    1.0118622594756181e+001 -1.1519689546656606e+000
    1.4240001935737610e+001 -7.6477387568984201e-001
    2.9829943024057652e+001 -6.6681966051445085e-001
    3.4431361286249313e+001 -6.7163950217620538e-001
    2.3464655245150198e+001 -6.1612733323133273e-001
    1.4721440843377559e+001 -7.8998949027891996e-001
    1.3589261148138295e+001 -1.2301502660993675e+000
    1.1290316109286660e+001 -3.2799556104767396e+000
    1.0931525587175500e+001 -2.9460742418262891e+000
    9.0326598332434287e+000 -9.9672950132485028e-001
    8.7933324075789283e+000 -9.6956424262171703e-001
    1.6536511836037608e+001 -7.9591862224525145e-001
    2.4741279168030655e+001 -7.8206979341063199e-001
    1.9891612168899641e+001 -7.5477705063955003e-001
    9.7125587013328545e+000 -8.3711779583177015e-001
    8.0149925577909844e+000 -9.0394676248921813e-001
    8.2096870866772278e+000 -2.1518063813656005e+000
    1.0201570320882906e+001 -2.9185198868268261e+000
    9.1579634794539331e+000 -1.5015456983534252e+000
    1.2792665565075255e+001 -7.2588673729386388e-001
    3.2002948157283761e+001 -6.6157547762477842e-001
    3.3171684928574486e+001 -6.4530368244777125e-001
    1.9954731747865651e+001 -6.1053507782164185e-001
    1.0248355689472405e+001 -8.1639152543500315e-001
    1.5708587681642843e+001 -9.6212178030690065e-001
    8.6427187038024389e+000 -1.8327763821196381e+000
    8.6063347356584003e+000 -2.0841247399828542e+000
    9.2339570513459943e+000 -1.0843228542364389e+000
    9.2335869753154132e+000 -9.7183420568311729e-001
    2.2143909901808343e+001 -8.3976835080435908e-001
    2.6095321532741018e+001 -7.4574326159856541e-001
    1.6700077958610620e+001 -6.4817821121977925e-001
    1.0428541988082523e+001 -8.5772426298020077e-001
    1.0029583449893947e+001 -8.6620093525496689e-001
    7.7605173104873302e+000 -1.8469002644182559e+000
    9.6246432866550187e+000 -2.4749116859084515e+000
    9.8412943592513091e+000 -2.0699477745489765e+000
    8.4426786201578619e+000 -1.1778546187439507e+000
    1.2971694412509274e+001 -1.0262397062769772e+000
    1.7055955713207393e+001 -9.8058755973595868e-001
    1.5620060874058160e+001 -7.8924506312565701e-001
    9.8785877720849946e+000 -7.5503389868959558e-001
    1.1968138203465688e+001 -9.4286574258710376e-001
    7.8503928932183555e+000 -1.4537270030545364e+000
    9.1673837427072122e+000 -1.8824543073697459e+000
    8.8106737604936072e+000 -1.5677776132802390e+000
    8.3638371751533569e+000 -1.4247143277193399e+000
    9.7808183289444077e+000 -1.2176762602826536e+000
    9.3334569509637824e+000 -1.0654676192579888e+000
    1.2254102759612874e+001 -9.7978055255787233e-001
    1.0077480412828065e+001 -9.3771382145472448e-001
    8.7950066947707679e+000 -7.9890399124589828e-001
    7.6547231576303556e+000 -9.6715041578869199e-001
    9.6757383227528013e+000 -1.5229034088871094e+000
    8.6859977263698749e+000 -1.6149082936445160e+000
    8.8263620828186227e+000 -1.2183622309804345e+000
    1.9270216644005181e+001 -1.0328828726487402e+000
    2.8580611660664143e+001 -9.3751979120508422e-001
    2.3411257808915366e+001 -7.6932083932978113e-001
    1.5472141190570060e+001 -9.2909287231662385e-001
    1.3611698920846560e+001 -9.0431376605632852e-001
    8.9082278284754892e+000 -1.4693819925877918e+000
    8.7850250306556532e+000 -1.8306833429100058e+000
    8.4141071716271476e+000 -2.0457945645104552e+000
    8.7785001656255162e+000 -1.6406141823332587e+000
    1.6612652313167001e+001 -1.2016679040345006e+000
    2.3090598497519405e+001 -1.1057236417947098e+000
    1.6822075477626800e+001 -7.6555345306402656e-001
    1.0585668518460951e+001 -8.3208671621773644e-001
    8.4224555301557906e+000 -7.2497184635913114e-001
    7.8884768622068089e+000 -1.0066310443562618e+000
    9.0725664243015434e+000 -1.8662889171603683e+000
    8.7025672311266717e+000 -2.1955814384939139e+000
    8.0757125836435755e+000 -1.6328086108511592e+000
    8.0739235178708224e+000 -1.2239968823876359e+000
    8.4733876245245963e+000 -9.8442672196189496e-001
    1.2199687483021776e+001 -9.2483024868887764e-001
    1.0323722120383060e+001 -8.9771228704374262e-001
    9.2752224073577629e+000 -7.8610417162396506e-001
    8.2790647100613359e+000 -7.6076354332562923e-001
    1.2354803912515660e+001 -1.0864941332350204e+000
    8.7390824372067328e+000 -1.5819318923552403e+000
    7.6443727817081299e+000 -1.5915448419136820e+000
    8.8332475726696931e+000 -1.3724160623914090e+000
    1.2294130477687359e+001 -1.0910621221631069e+000
    1.4336555622696878e+001 -7.9185479395705916e-001
    1.2177133308561631e+001 -7.7086617120635070e-001
    1.1654237569221243e+001 -7.1000928017363696e-001
    9.4556523670145545e+000 -6.8198686872519498e-001
    1.5271825385818603e+001 -8.6988710427918536e-001
    8.6367368533593805e+000 -1.3316518953109373e+000
    7.8540540803547083e+000 -1.9813979534033137e+000
    1.4791800719919095e+001 -1.2275819811854782e+000
    2.2034770179737727e+001 -1.0132370744521744e+000
    1.8177104660425190e+001 -7.6445745990434988e-001
    9.9430285867300388e+000 -7.9022935966351193e-001
    8.7078723531681401e+000 -6.8309294716393676e-001
    8.7392284005369518e+000 -8.2494645269659461e-001
    1.0389278522606498e+001 -1.5107775251460236e+000
    8.3985093489125244e+000 -2.1944061729744342e+000
    7.7729716465198466e+000 -2.0102987827462719e+000
    9.0803956154988548e+000 -1.5026268066655788e+000
    2.0718206876557602e+001 -9.9173026143600995e-001
    1.8556725781567117e+001 -7.9669417297254230e-001
    9.2868434625068197e+000 -7.8895941780542234e-001
    8.9057790578995863e+000 -6.6728803493653632e-001
    9.9669661670937870e+000 -7.0708817496255560e-001
    1.4627002175997927e+001 -1.0542846605161831e+000
    8.3384757625134540e+000 -2.0602253958055883e+000
    7.3038639375239862e+000 -1.3764674577533571e+000
    8.6796808965368104e+000 -1.2973903957353194e+000
    1.6643051713622722e+001 -1.0939160053186019e+000
    2.0382487971807450e+001 -8.7730970983734691e-001
    1.4299469230910082e+001 -7.8572758792932318e-001
    9.7064220885257555e+000 -6.2862244202992079e-001
    8.6900779061852251e+000 -6.2681367187331227e-001
    1.6038307366150665e+001 -7.7332348611440149e-001
    9.9606293431305737e+000 -1.1031039149009625e+000
    7.7926995729069253e+000 -1.6382824387229484e+000
    7.1817188817811193e+000 -1.6977075711271263e+000
    8.7799274714529680e+000 -1.2760454763761484e+000
    2.2061592902773018e+001 -1.0199407240816942e+000
    1.6198460263219193e+001 -8.7053716918168289e-001
    8.3007106269828910e+000 -6.6680288394685083e-001
    7.8596962350523603e+000 -6.6219415975210338e-001
    1.3483858555889990e+001 -8.2279257028353781e-001
    1.1414080615187709e+001 -1.1623263015082581e+000
    7.2025897625313924e+000 -1.9878793371082790e+000
    7.1875997191665686e+000 -1.6407274303448107e+000
    1.5327343407089801e+001 -1.1726167728495680e+000
    1.6088298590152021e+001 -8.3728275459770518e-001
    8.8301617211418684e+000 -7.7009470465364693e-001
    8.7883399247215763e+000 -6.3399216909301770e-001
    1.1223135936057981e+001 -6.4400142181892361e-001
    1.6828159467370838e+001 -8.1690895428184951e-001
    1.0438610329790617e+001 -1.4813574714945064e+000
    7.2291485731053093e+000 -1.9401327048752044e+000
    7.2692293965274546e+000 -1.8193804870973675e+000
    7.5570189276872037e+000 -1.2853378515758240e+000
    1.5257857404192636e+001 -1.0109187668848512e+000
    9.8223279431506327e+000 -8.9550822532064334e-001
    8.9318308216124311e+000 -6.7839400589596699e-001
    9.5574789774117441e+000 -6.4946465031207168e-001
    1.8440637351904421e+001 -8.4268709716155421e-001
    1.1299335413870015e+001 -1.1542747116820289e+000
    8.0860942703049066e+000 -1.2061255131882263e+000
    7.5261869449963710e+000 -1.8614278066122523e+000
    7.2060560496426049e+000 -1.4334033161033872e+000
    2.1941074559629410e+001 -9.6196534107186493e-001
    2.2097438554760199e+001 -7.6382547639347909e-001
    9.4201796193907743e+000 -6.2450599211729585e-001
    7.6223276021281938e+000 -6.0401823222830198e-001
    1.5938539109991394e+001 -6.7927287310102091e-001
    1.4460231775908753e+001 -9.0311812400928793e-001
    8.6711685334572604e+000 -9.2044354246790294e-001
    7.6555084276396643e+000 -2.0410106630483171e+000
    7.5313202946978475e+000 -1.8670400750769482e+000
    1.4108014605809004e+001 -1.0722466362886527e+000
    1.3667247001243769e+001 -7.2889508837156325e-001
    7.9986060173500348e+000 -6.4183061800795693e-001
    7.3444791516489403e+000 -6.0286177310004307e-001
    1.1584461679753714e+001 -6.0313742588841657e-001
    1.7470320405435746e+001 -7.4435853719044565e-001
    8.7968320952572618e+000 -1.4000890785667837e+000
    7.4555925184623177e+000 -1.8580176264329087e+000
    7.3828800507950278e+000 -1.3593479215819653e+000
    1.5864741941429852e+001 -8.4242680909494039e-001
    1.0052569290205879e+001 -7.7319899037504269e-001
    1.0125896101791222e+001 -6.4200028047023106e-001
    9.8990678669521568e+000 -6.0423461427996428e-001
    2.3673485087534136e+001 -7.5394223864126886e-001
    1.4413230201629311e+001 -8.4679991852252812e-001
    8.8458841534779769e+000 -9.6210738230817927e-001
    7.5523375469077960e+000 -1.8247931012460923e+000
    7.4696260792440867e+000 -1.5056217468203712e+000
    1.3062010980075568e+001 -9.6051104018010580e-001
    8.6772470945145841e+000 -9.0758855209638023e-001
    7.8713974762439971e+000 -6.8677808482731784e-001
    7.5976973685445772e+000 -6.1357168496490688e-001
    1.3743145936207622e+001 -6.3417082436355598e-001
    1.6824096896942212e+001 -7.7519161084780641e-001
    1.0816397213617133e+001 -8.8645792454514083e-001
    6.6617056917536290e+000 -1.8526463804358220e+000
    6.6704677335964897e+000 -1.9143968821948976e+000
    8.9405788007856071e+000 -1.2954821936921783e+000
    9.2043342586171466e+000 -8.1786607628006491e-001
    8.9614537346149774e+000 -7.5711336091013703e-001
    8.3409276643242087e+000 -6.5009131220364547e-001
    1.3333777399472009e+001 -6.4521405508010243e-001
    1.9822990817277738e+001 -7.3827892893470615e-001
    2.0813264131053625e+001 -8.3388092761083343e-001
    9.0978754368654116e+000 -1.3652997317849729e+000
    6.5761291893117901e+000 -1.6813316328744561e+000
    9.5965104632036162e+000 -1.4653068786729306e+000
    8.8993900266176134e+000 -1.0161792645376164e+000
    9.3983540093688660e+000 -7.9549807021077323e-001
    8.9401528670749890e+000 -6.4751542771963944e-001
    1.7018688200113708e+001 -6.3239716923660738e-001
    2.7545376668230642e+001 -7.3154528690326481e-001
    1.0429997978885950e+001 -9.3308707550690961e-001
    6.8062396962757994e+000 -1.5927668676238271e+000
    6.7340948968125982e+000 -1.5724379482564579e+000
    1.1758088048398676e+001 -1.2235923579184516e+000
    7.7809188334431978e+000 -1.0493993495281571e+000
    8.4213136409423885e+000 -8.1170730132051505e-001
    8.6622781073174817e+000 -6.7898507723912738e-001
    1.3845160641774365e+001 -6.7403098359352642e-001
    1.8848812284576322e+001 -8.0424053306498622e-001
    2.0038148366995500e+001 -8.8246824729119999e-001
    1.2225153148120150e+001 -1.1609739782865056e+000
    8.7052792051437446e+000 -1.2094233319213565e+000
    1.1472347534440059e+001 -1.2535077014736196e+000
    7.6638662131049795e+000 -1.2021080560162125e+000
    8.4834649891574525e+000 -8.4909419507607953e-001
    9.2748223544570791e+000 -6.9205642096103737e-001
    1.5815538210721479e+001 -6.4129150842443383e-001
    2.3269876461243193e+001 -7.3897534190072556e-001</input_scale>
  <output_scale>
    5.2631578947368418e-001 4.9999999999999994e-001
    5.2631578947368418e-001 4.9999999999999994e-001
    5.2631578947368418e-001 4.9999999999999994e-001
    5.2631578947368418e-001 4.9999999999999994e-001
    5.2631578947368418e-001 4.9999999999999994e-001</output_scale>
  <inv_output_scale>
    1.8999999999999999e+000 -9.4999999999999996e-001
    1.8999999999999999e+000 -9.4999999999999996e-001
    1.8999999999999999e+000 -9.4999999999999996e-001
    1.8999999999999999e+000 -9.4999999999999996e-001
    1.8999999999999999e+000 -9.4999999999999996e-001</inv_output_scale>
  <weights>
    <_>
      -1.1628665411038689e+001 -1.8486179641700282e-002
      -4.2731994226459236e-002 -1.3515950094700857e-002
      4.7743004379792939e-002 -1.1970987324787873e-001
      -4.0534177548928992e-003 2.5443508855865368e-002
      -3.4978767436239712e-002 -3.3245538139787624e-002
      -5.3042274816570464e-002 4.6971231282062549e-002
      3.6719916752588920e-002 -1.9892525463357964e-003
      -4.4886761972575767e-002 -5.0283382332386092e-002
      3.0232771985715154e-002 3.6979303109156785e-003
      1.8868699159897381e-003 -7.1196071393397856e-002
      2.7877536549711819e-002 -5.1726762245804414e-002
      -5.4218245032911332e-002 2.1634399538441366e-002
      9.2264094447086262e-002 -3.3324159725937365e-002
      -7.6142176290864033e-002 3.9954183000191379e-002
      4.0505994507252216e-002 -4.4958309223180060e-002
      -3.4233149969197151e-002 -3.6364297476784414e-002
      -4.8593156737436645e-002 -5.4385538729234573e-002
      -1.0426249427041725e-002 1.1339021475793691e-001
      2.3900333061753026e-002 8.3286710081986147e-003
      -4.9672890852090458e-002 1.5773415151562744e-002
      1.0779202686264232e-003 -4.1985855957860987e-002
      1.2588369717149250e-001 -8.3741587028695816e-003
      2.4124588826097046e-003 -5.2887759143923067e-002
      7.3985196072137174e-002 3.0414613810070417e-002
      1.0283259668699959e+001 2.4970457401352113e-002
      -1.1005857572302191e-002 -7.3875965391047207e-003
      -2.5060148937283209e-003 1.0789270559731332e-003
      8.5561316035365320e-002 -7.6295620807845216e-002
      -2.2690134043136315e-002 9.6023661367208111e-003
      -5.5688128283947730e-002 -5.5942122840554123e-003
      1.0699808192505231e-001 -5.7417024617292317e-003
      -1.3959622916251438e-001 -8.4673142733827270e-002
      1.4106463188678085e-002 -3.9192571496893605e-002
      -3.3868754311177605e-002 -6.3461320166629379e-002
      1.4299050864217497e-002 -5.6820438009578172e-002
      -8.4058206368241031e-002 3.3646548205808868e-002
      2.8098288099750691e-003 4.3388950297965443e-003
      -1.7181556076416959e-001 4.8545131611655912e-002
      1.5682622670323419e-002 4.4239377657816242e-002
      -2.9589816208809794e-002 -7.2274216014872730e-002
      3.9295522385504973e-003 -1.4279029278571992e-002
      -9.9305384647476361e-002 -1.6801647280770802e-002
      -5.0908877485958730e-002 7.5075174224221650e-002
      -1.2074016386761817e-003 -3.9753216021265372e-002
      -1.0618443566535118e-003 -1.3461000621203006e-002
      1.2005485082705580e-001 -7.5540991067959182e-002
      4.8823264556149708e-002 3.2127847270264184e-003
      1.1750896932174985e-001 4.5536383419502356e-002
      1.2719776427904490e+001 1.0017201462483789e-001
      4.0560538349529796e-003 7.3556191128642534e-003
      -2.5440595385778239e-002 2.2147424436839069e-003
      1.9859655358761519e-001 -2.2007500099667487e-001
      -4.7533349660082935e-002 -7.0611407622091296e-003
      -1.7055931357692910e-002 2.8561388170438476e-002
      1.4478258716498929e-001 -7.4829413102071363e-002
      -1.4405071178846732e-001 -2.1586081609656829e-002
      2.9785303905320144e-002 -2.1334078203029325e-002
      -3.8807849456764999e-002 -2.5587131784982468e-003
      3.5729519470359773e-002 -5.0048733950620296e-002
      -1.0352463127337085e-001 1.2896927586693276e-002
      -8.6558432848067041e-003 -5.9043198283185563e-002
      -1.8826893789675606e-001 3.4538421016901570e-002
      -2.5201819681905310e-002 9.2123141156348703e-002
      6.1813636354679348e-003 -3.2605724373000466e-002
      5.3055307929413660e-002 3.4589225315458279e-002
      -1.3220439939526413e-001 -1.1014135313305254e-001
      2.0717291618487465e-002 5.8340550927020014e-002
      3.9099697130241182e-002 -8.7330702577305047e-002
      -1.9154929114959220e-002 -1.0843022916377482e-001
      1.4538616481261654e-001 -4.2839930520653248e-002
      6.1669233619976754e-002 4.9061053923049446e-003
      9.7646013153295949e-002 1.0411410928122453e-001
      -4.1218751976587411e+000 1.3196826928395763e-001
      5.5763431554290588e-002 -6.6213884137735990e-002
      6.6606033868397294e-002 -9.7835278237015350e-002
      5.5043400127476591e-002 -1.5651744461867662e-001
      1.1037782497994087e-003 5.1196983736662413e-002
      9.2609495163603880e-002 1.5824651245454691e-001
      1.8313612823269604e-001 -2.2160623501994116e-003
      -4.1061809941753012e-003 8.9985304604366725e-002
      -4.3924457185820290e-002 -5.0334867818668257e-002
      6.9765746801797451e-002 1.2079637636798646e-001
      8.7351014487599757e-002 1.8632506530751419e-002
      -3.2709591458917407e-002 1.3320483181253856e-001
      -1.6091659025575944e-001 -1.4492808114272321e-001
      -1.5704869945227246e-001 -1.2015978469578735e-001
      -9.4227104072971093e-002 4.2755326671148369e-002
      1.2759332838775389e-001 -3.0737453714110963e-002
      1.3691973093422624e-001 4.7919436290079172e-002
      -3.4773469650347527e-002 -5.4757520956660762e-002
