<?xml version="1.0"?>
<opencv_storage>
<my_nn type_id="opencv-ml-ann-mlp">
  <layer_sizes type_id="opencv-matrix">
    <rows>1</rows>
    <cols>3</cols>
    <dt>i</dt>
    <data>
      1764 48 4</data></layer_sizes>
  <activation_function>SIGMOID_SYM</activation_function>
  <f_param1>6.6666666666666663e-001</f_param1>
  <f_param2>1.7159000000000000e+000</f_param2>
  <min_val>-9.4999999999999996e-001</min_val>
  <max_val>9.4999999999999996e-001</max_val>
  <min_val1>-9.7999999999999998e-001</min_val1>
  <max_val1>9.7999999999999998e-001</max_val1>
  <training_params>
    <train_method>BACKPROP</train_method>
    <dw_scale>1.0000000000000001e-001</dw_scale>
    <moment_scale>1.0000000000000001e-001</moment_scale>
    <term_criteria><epsilon>1.0000000474974513e-003</epsilon>
      <iterations>7000</iterations></term_criteria></training_params>
  <input_scale>
    1.9244307325417587e+001 -9.4796903334639770e-001
    1.2940153103733628e+001 -1.2722018020900112e+000
    9.5619679491204685e+000 -1.4891918820538688e+000
    1.4003265658531229e+001 -1.0921703641048044e+000
    7.8596334232332987e+000 -1.0654063418188566e+000
    1.8179600055384569e+001 -6.9385433084025305e-001
    2.2360558586431555e+001 -7.8078237521861660e-001
    2.9478151508971667e+001 -7.2095211379316515e-001
    1.9792516942865330e+001 -7.4633241021716845e-001
    1.0138752271566032e+001 -1.0809931461250155e+000
    7.6035553417667225e+000 -1.8837162123087976e+000
    8.0070208865448826e+000 -2.2251065905412570e+000
    1.0205364187674109e+001 -1.2167122690885903e+000
    7.3926725533696933e+000 -1.0373731758453002e+000
    1.4335940649772008e+001 -7.1236606537899749e-001
    1.6080940283348216e+001 -7.4195392055384934e-001
    1.9014407050146520e+001 -7.2449183271434270e-001
    1.4335148764877658e+001 -8.9136790099193675e-001
    1.5156948541633795e+001 -1.0060828882821378e+000
    1.2703511634951454e+001 -1.8589580446686427e+000
    7.7880157667369883e+000 -2.1668472586444434e+000
    1.0774449446654943e+001 -1.8278578740437372e+000
    7.9770070435768989e+000 -1.1641832870114994e+000
    1.6300295410490882e+001 -7.6967165721484210e-001
    1.7145532706920381e+001 -7.5809227432628468e-001
    2.4589391249598595e+001 -8.1454861461957440e-001
    1.6410239265963249e+001 -8.5716978183338588e-001
    9.0190894932669661e+000 -1.1619500233410325e+000
    9.2781183318896332e+000 -2.8014956253554626e+000
    1.0953146628498597e+001 -3.5469213601656775e+000
    9.4739904996280924e+000 -1.9381278654610872e+000
    7.5741596154550850e+000 -1.0460601292483702e+000
    1.3108151477964713e+001 -7.7592655223757889e-001
    1.4436010514448965e+001 -7.9107987181035999e-001
    1.6910894035597082e+001 -8.4597361490726009e-001
    1.0253337305071458e+001 -9.4464452097164953e-001
    8.8340643011130400e+000 -8.4567033762771493e-001
    7.4126847821448747e+000 -1.4893436433574541e+000
    7.9057506815482679e+000 -1.5029579085028018e+000
    1.4567406015577873e+001 -9.2350388568561093e-001
    1.1244495052950244e+001 -7.7068205655348643e-001
    2.8068968070493831e+001 -5.8561660918761849e-001
    3.6396430592163135e+001 -6.3042364230576886e-001
    4.0447444690089597e+001 -6.8490293362429699e-001
    1.2494101163637392e+001 -6.4813072746531619e-001
    8.8572171144132810e+000 -1.3459783239672691e+000
    8.7533207723088626e+000 -1.9486595514291107e+000
    7.2606962495736012e+000 -1.9035754739532151e+000
    9.0632044852234177e+000 -1.0122341528551992e+000
    1.0768685711968018e+001 -8.7385734268225423e-001
    2.1421675834822057e+001 -6.6347068020613487e-001
    2.9100702748463462e+001 -6.8278046542183568e-001
    2.7812798567492660e+001 -7.4238340278199599e-001
    8.5425259849884423e+000 -7.5643304437420722e-001
    8.7645140357986833e+000 -8.8745774008994116e-001
    9.4579927647798367e+000 -2.1957143405740895e+000
    8.8925280271199600e+000 -2.5160069692683096e+000
    1.1601034450485539e+001 -1.2624039615301039e+000
    1.2135669982548453e+001 -7.2678781969665540e-001
    2.5241239488709400e+001 -5.7659835167008067e-001
    3.3218890085036080e+001 -6.2126146224808576e-001
    3.4658920134975986e+001 -7.0310511836412748e-001
    9.8400863538774193e+000 -6.6150142710129600e-001
    9.0467760545100671e+000 -1.2658560190080812e+000
    7.8703669823760745e+000 -2.2832784173386798e+000
    6.9298624158988229e+000 -2.0499964431888991e+000
    6.4222423678433902e+000 -1.1367347607840592e+000
    9.5186995474951281e+000 -9.2760786636531456e-001
    2.2271348313443823e+001 -7.1521010726748946e-001
    2.9207204832747323e+001 -6.6569761243305325e-001
    2.8970131971924207e+001 -7.8258423861672943e-001
    8.5206901412217277e+000 -7.6386488402629282e-001
    7.0382383859801578e+000 -1.1964212953306723e+000
    8.4774502667654925e+000 -1.3896664170786059e+000
    8.1411245126249945e+000 -1.5787216698323250e+000
    1.4115927291348347e+001 -1.1059133586617340e+000
    1.6792800216727514e+001 -9.0325442224331809e-001
    3.7276639065088546e+001 -8.4542354711489098e-001
    4.4983381850955752e+001 -8.4866565281411555e-001
    2.8046521855016525e+001 -7.8092238407004966e-001
    8.1514586703528842e+000 -7.8905730011297415e-001
    7.1423838663441455e+000 -1.3139333939387914e+000
    8.6103330187973981e+000 -1.6089670693439342e+000
    6.4743567180858514e+000 -1.2598117309372985e+000
    7.4603024312417308e+000 -1.0024341807010217e+000
    1.0598648906970116e+001 -9.4290133343773708e-001
    1.4322822786091960e+001 -7.5704235085854055e-001
    2.3387304177796498e+001 -9.1190483510745968e-001
    1.8776986579959182e+001 -8.5278706232911550e-001
    8.1674652744434368e+000 -9.7776327180774936e-001
    7.7849630608654143e+000 -1.0403172495601620e+000
    8.2454832244798268e+000 -1.6567544782464616e+000
    7.2967898953434513e+000 -1.8285437230863313e+000
    9.2939851226171282e+000 -1.2108225779630666e+000
    9.0688313455150986e+000 -7.1542510759705991e-001
    1.9593037101216275e+001 -6.2984421676178026e-001
    2.4880436693409926e+001 -6.8331001426822779e-001
    2.3981866146215186e+001 -8.0080488002860539e-001
    8.0900307498124224e+000 -7.9002607432755911e-001
    8.2093889707936398e+000 -1.0879049620773111e+000
    8.0695648969507552e+000 -1.4730729788993540e+000
    6.2971252698922129e+000 -1.2983659368800216e+000
    6.9527207853565889e+000 -1.1899458343707925e+000
    8.9507637752354068e+000 -8.8482884068333723e-001
    1.1995372912233913e+001 -8.2878084797310514e-001
    9.6285030467113977e+000 -7.8064978198473822e-001
    1.0668234555097285e+001 -8.2748843327635357e-001
    7.9199352245936803e+000 -9.2874468632052787e-001
    6.9216903728131633e+000 -1.3507167086603886e+000
    1.0151175458628984e+001 -1.4338513403719340e+000
    6.7204070694678970e+000 -1.0552507676100475e+000
    7.0026352195326265e+000 -9.4057490018853496e-001
    9.6563742917433864e+000 -9.3242660725254323e-001
    1.6202656771254865e+001 -8.1890050006357129e-001
    2.4602925650549334e+001 -9.3596891118333303e-001
    2.0224188235078483e+001 -9.9079374151051292e-001
    6.7143042399229236e+000 -1.1858160003169746e+000
    7.0643676619421996e+000 -1.3371625778967815e+000
    1.1360030531445783e+001 -9.2390665816115625e-001
    6.9730045675450922e+000 -9.4203377297484936e-001
    6.8785789668162636e+000 -9.3654488551975168e-001
    8.8797116018259370e+000 -9.1876945991840198e-001
    2.0632925729941885e+001 -7.8552646028611461e-001
    2.8586576856734872e+001 -8.6123393737453879e-001
    1.0416392226933773e+001 -9.4929040323894265e-001
    6.4984639812119269e+000 -1.2237779444951471e+000
    8.4073194577440749e+000 -1.1386398913209066e+000
    1.0580038535891534e+001 -1.2724897555623909e+000
    6.6836816685746276e+000 -1.1466692440116601e+000
    7.6234104460809746e+000 -1.2401861686935662e+000
    9.2403174520860780e+000 -9.4590898376725951e-001
    1.0564212291288115e+001 -8.2486313925380272e-001
    8.3886989927485001e+000 -7.3094139848250295e-001
    8.2143214721051443e+000 -7.7962615791942425e-001
    7.5016155659712362e+000 -1.0477114786527610e+000
    8.7620305148319133e+000 -1.0430372158202708e+000
    1.1274097108315486e+001 -9.5238306821043417e-001
    7.0581669574963888e+000 -1.0581650411694565e+000
    9.0006988882735506e+000 -1.1560372120587470e+000
    9.8895729739324025e+000 -8.7970138269262832e-001
    1.4249620219721336e+001 -8.2654006478765341e-001
    1.2581342646391306e+001 -8.3115034849612657e-001
    9.7705379246145814e+000 -9.0508843843651665e-001
    7.2964355768552416e+000 -1.0414810905355025e+000
    9.6391776857093472e+000 -1.2208044596258310e+000
    1.2220440888504109e+001 -8.2898540511482599e-001
    7.5558551252098125e+000 -8.8729052347665216e-001
    7.0225481894957325e+000 -9.2372608493681774e-001
    7.5902598133998840e+000 -9.5312571530491108e-001
    1.6185089272938704e+001 -8.7129917377197830e-001
    1.8040398903838319e+001 -9.6311367299414863e-001
    6.9204382606635866e+000 -1.0475905283485021e+000
    6.0348194259199568e+000 -1.2319511531070622e+000
    1.0766275563591732e+001 -9.8646018961890847e-001
    1.6007238880040635e+001 -9.1859493748589038e-001
    7.8848778233479333e+000 -8.6691553209083294e-001
    8.2440783900608601e+000 -9.0470292521077689e-001
    8.9589277691606792e+000 -9.8229560877587208e-001
    1.4171007968120884e+001 -9.7411635958462284e-001
    7.7077580185612184e+000 -9.2715003590079637e-001
    6.6253673469433290e+000 -1.1535973320148545e+000
    6.0381986893690538e+000 -1.2120014372160357e+000
    1.1260515423275477e+001 -1.0432431441936214e+000
    1.0899339671493028e+001 -9.5273162339797557e-001
    6.8047019159702247e+000 -9.9313032608403129e-001
    8.1346989883215315e+000 -1.0306277813021272e+000
    1.0385228447440312e+001 -9.9710810246984527e-001
    1.4566313743959578e+001 -8.7774857706847442e-001
    1.5018411887640930e+001 -8.7006365892478676e-001
    1.0355850725269633e+001 -9.7767678387628654e-001
    7.3289497373113717e+000 -1.0186274578776486e+000
    1.1114499253104146e+001 -1.1083492147027938e+000
    8.9485214647658857e+000 -1.0483284365490013e+000
    6.3304756487549030e+000 -1.0380906476465936e+000
    7.0204931457419564e+000 -1.0356192362138366e+000
    1.2558983425877958e+001 -1.0396176182095267e+000
    2.0853060978956137e+001 -1.0439952909411170e+000
    9.1541542561094342e+000 -8.9200088675721578e-001
    6.7256377116102088e+000 -1.0918847911315348e+000
    7.2664495836284777e+000 -1.1031063835007249e+000
    1.3997834014996791e+001 -6.7676472437582957e-001
    1.8992557061727595e+001 -7.4910851016239233e-001
    8.1821126228368168e+000 -8.1547695900247519e-001
    1.0381915642714729e+001 -7.9253486965386977e-001
    1.0635515603391674e+001 -7.1962837929829215e-001
    1.7098372494189871e+001 -8.3574319416661658e-001
    7.1937388404018385e+000 -9.5194461408717901e-001
    6.3184162257154082e+000 -1.1633349792242744e+000
    8.1898812790976834e+000 -9.6901683225870938e-001
    1.9475855822740936e+001 -8.0304900498066079e-001
    1.0557238808629299e+001 -8.0464591593663393e-001
    5.9418474907888292e+000 -9.1377068967952535e-001
    7.2750229530173582e+000 -9.2250665915378438e-001
    9.4281279013787351e+000 -9.2528373048515389e-001
    1.3323773034334121e+001 -9.5554042004893380e-001
    7.0283392543820842e+000 -1.1775717196033053e+000
    6.3741590013072731e+000 -1.2461085301934394e+000
    8.7952726994187316e+000 -8.0317093622449043e-001
    1.3314857269044099e+001 -8.3970757865261347e-001
    9.9438853307031358e+000 -8.6188300387259709e-001
    5.8747704293610301e+000 -9.7476583994205102e-001
    7.8329043520109805e+000 -9.4528508869297956e-001
    1.7059990268758138e+001 -7.6738879275354410e-001
    2.2039310432932346e+001 -7.9458419877212050e-001
    6.9721443127904790e+000 -9.0948812299903048e-001
    6.4338741490496867e+000 -1.1139039072291856e+000
    8.3263177842653882e+000 -8.7136847027198261e-001
    1.5388821943470758e+001 -7.7927272981040652e-001
    7.9964359186712102e+000 -8.6808390155124504e-001
    5.7449157351310394e+000 -9.5451649036128683e-001
    6.2551232440777929e+000 -9.2951993210403538e-001
    1.7959497965039404e+001 -8.4613039235337240e-001
    1.5956063762863346e+001 -1.0086358512541587e+000
    6.5414654066853775e+000 -1.1352149656877204e+000
    6.2101472816182897e+000 -1.1972990645449069e+000
    8.6969936451027490e+000 -7.4853025406387952e-001
    1.6817376043092480e+001 -7.9227973111916306e-001
    1.0494796973430610e+001 -8.3276364030953920e-001
    6.8502964216415210e+000 -9.7446734049569783e-001
    7.9670441535835863e+000 -1.0096992757315351e+000
    1.0582270957983956e+001 -1.1074713873108641e+000
    1.5471728558673092e+001 -1.2641627594685845e+000
    6.1959061103099033e+000 -1.2507566651991422e+000
    6.4306680469529569e+000 -1.2391424046503199e+000
    1.0969735979860031e+001 -8.4251076686808557e-001
    1.7523741674314326e+001 -7.5594144737698454e-001
    1.0449902149050356e+001 -7.7303767085594988e-001
    6.8748157353846961e+000 -9.6396586621511193e-001
    7.1547234003669109e+000 -1.0149928018923078e+000
    9.4105282250529694e+000 -1.1254390043285796e+000
    1.5311119034641113e+001 -1.1494787048069901e+000
    9.1930125068279462e+000 -1.1397930476858489e+000
    1.2686395330078524e+001 -1.0876698080697833e+000
    2.1474071908691641e+001 -9.2058230020870424e-001
    1.7222037289790052e+001 -7.2643712378244962e-001
    9.5679379219234626e+000 -8.7561772883457012e-001
    6.4734644492583433e+000 -9.9049383976835215e-001
    7.1725035943699504e+000 -9.7734970173616287e-001
    1.5290786486799011e+001 -8.8554023304874452e-001
    8.5156361542919861e+000 -1.0523354433708068e+000
    5.5301114523494217e+000 -1.1571415400746008e+000
    5.5492785198562169e+000 -1.1472713692431251e+000
    1.0873912390255777e+001 -7.2400375135766704e-001
    2.6490722960375791e+001 -8.3355869250685621e-001
    1.2378010311697107e+001 -8.3994769385758961e-001
    6.8389842754475039e+000 -9.4965045533734049e-001
    7.5662178063253647e+000 -9.6597340537463594e-001
    1.3716662696253547e+001 -1.0553159338091662e+000
    8.4234755528971181e+000 -1.1639292444957454e+000
    5.5570514952358945e+000 -1.1522716029501168e+000
    8.8131586050485762e+000 -1.0516955040602385e+000
    2.6918225765376597e+001 -9.2985193977401859e-001
    1.7708198186616919e+001 -7.9519301673963594e-001
    1.8325839656645361e+001 -1.4734443511186657e+000
    7.2266775974817685e+000 -1.5518188211154884e+000
    9.2333854186133326e+000 -1.6838957517897890e+000
    1.0587461546066233e+001 -1.0463697862445174e+000
    2.8914182272304213e+001 -8.1099593072645337e-001
    3.1446928405493029e+001 -7.1669209210294715e-001
    3.4556480390788430e+001 -7.4006415037150219e-001
    2.0466524310100237e+001 -7.2784700221826915e-001
    9.4418536320537463e+000 -8.3029641717272207e-001
    1.3278915993778146e+001 -2.3858608437720901e+000
    9.3972297415662265e+000 -2.9412033484919333e+000
    1.1305967454626041e+001 -2.2003659148850945e+000
    1.1367612373987711e+001 -9.4592151928784951e-001
    2.3668044303998460e+001 -7.5005022132885990e-001
    2.5893957148810554e+001 -7.0688311600527332e-001
    2.3320271194496971e+001 -7.8352470797770246e-001
    9.5602364442717356e+000 -6.7519369070699697e-001
    1.4510778847332052e+001 -8.5746162486206889e-001
    1.4334947445541575e+001 -1.4106573341039794e+000
    8.0808989063486134e+000 -2.2004799789575205e+000
    9.1890786975013388e+000 -2.3423711552584554e+000
    1.0263326756010903e+001 -1.3691742145069059e+000
    1.9727842848753738e+001 -8.6044044991331226e-001
    2.6817616574995299e+001 -7.9171733946114597e-001
    1.7695826181221356e+001 -6.5299993164334180e-001
    1.1145442539470027e+001 -6.5574675745530320e-001
    9.2557527408793927e+000 -9.1081231624566117e-001
    6.9037297652506444e+000 -1.3505448829911928e+000
    7.5305602208794866e+000 -2.4180436907016420e+000
    8.0120240826173745e+000 -2.2457972071469285e+000
    1.1027186398690393e+001 -1.1542733441052320e+000
    1.9156196791261149e+001 -8.1222059882478659e-001
    2.4982536245433515e+001 -7.7604066088697599e-001
    9.9502069776679125e+000 -6.5479240648614867e-001
    8.9890004688275553e+000 -6.9921072040024934e-001
    8.0572974348239388e+000 -6.5263294186478249e-001
    9.8171124313839702e+000 -1.5671444850017549e+000
    7.9821818596085876e+000 -2.0625805280423455e+000
    1.2516806211055131e+001 -1.4412528334943757e+000
    1.6083166473361693e+001 -7.8222250778583746e-001
    6.3725554437252377e+001 -8.5247492609035069e-001
    1.0040770742116132e+002 -9.3119602151747638e-001
    5.9085927639058916e+001 -8.0518308368001568e-001
    8.1171271438195127e+000 -5.4287522336297167e-001
    8.1815908701703322e+000 -8.1979843957035370e-001
    8.0425378514176984e+000 -1.6953585199175227e+000
    7.0343613725773180e+000 -2.0587423360442267e+000
    8.8476398082419134e+000 -1.4864465714299477e+000
    6.9300263826572444e+000 -8.9460435801287774e-001
    2.5872934917477128e+001 -6.6988197617109746e-001
    6.5566335281762804e+001 -7.2703752764957241e-001
    6.6793834843467877e+001 -9.0468081618711249e-001
    7.8536463507702905e+000 -5.8452996705067384e-001
    9.5867086590240849e+000 -6.4410589960939479e-001
    9.6092004198137122e+000 -1.1870976028577322e+000
    6.5572443573485826e+000 -1.7061837898059671e+000
    8.6940596203765423e+000 -1.5883373276964543e+000
    8.6189438757928212e+000 -7.8727151923231020e-001
    4.2083524657133708e+001 -8.5117293459489429e-001
    8.1036402191769909e+001 -9.2457250720909812e-001
    1.1935046663726213e+001 -5.2889558223281474e-001
    7.7281402278550351e+000 -5.3889325647681119e-001
    9.5384331240308207e+000 -6.9493498564915179e-001
    8.0025943382379072e+000 -1.2018621938976375e+000
    6.3347857766438391e+000 -1.4581892562314638e+000
    7.1432964872618214e+000 -1.6581657914716978e+000
    6.5996683742037083e+000 -9.8583777792746063e-001
    2.0272797332471683e+001 -7.4867113306581023e-001
    6.8092606746096266e+001 -8.3955695116079332e-001
    1.4727143325727592e+001 -5.3779793324823910e-001
    7.7430478434431089e+000 -5.4399482578139546e-001
    7.7839454447890528e+000 -7.5614597304933462e-001
    8.1358969871310727e+000 -1.1366810691056606e+000
    6.6212912182952799e+000 -1.4265491331126643e+000
    9.1916001924416761e+000 -1.3150759641926080e+000
    6.0985937244901347e+000 -7.3809494192357517e-001
    1.9633818010142058e+001 -5.8406108288690506e-001
    4.6200712098035666e+001 -6.5755738387886520e-001
    5.9193389246414732e+001 -9.0088707814228297e-001
    7.6266626622821372e+000 -5.8059861173665250e-001
    7.7931385831345272e+000 -7.1676017120856594e-001
    8.1072302610664071e+000 -1.0174368081789593e+000
    6.1175697237377902e+000 -1.1970879785068858e+000
    7.7508257789913655e+000 -1.3390111422624718e+000
    5.9510315094428163e+000 -7.8603229602021374e-001
    1.2871379852719578e+001 -7.3716467253507656e-001
    1.1184653812041207e+001 -6.0012438074070062e-001
    1.3524677129794744e+001 -6.3806865975919003e-001
    7.6622844151775258e+000 -6.4733537021796017e-001
    9.5853495669255757e+000 -6.2079108422588869e-001
    8.4910452141643482e+000 -1.0084629985472122e+000
    6.1614960508213432e+000 -1.3084775007106850e+000
    7.6568029980646095e+000 -1.5046125209558736e+000
    5.8290008378402618e+000 -8.5937522415234247e-001
    1.9420376849041357e+001 -5.9912885441395047e-001
    7.6442798946623270e+001 -6.8673116038845361e-001
    1.7579433260379904e+001 -4.8720317653346318e-001
    7.4777719379352190e+000 -5.1232937408040602e-001
    8.8841959088680742e+000 -6.2513694404868569e-001
    8.7508472024397985e+000 -9.9368944623804234e-001
    6.1463492505211752e+000 -1.3274166878243374e+000
    8.0168534036864507e+000 -1.5328853830849329e+000
    6.0259571000609125e+000 -8.1283159322513954e-001
    1.6195723107678678e+001 -6.4124812612831061e-001
    3.6550292378978710e+001 -6.3969387882819950e-001
    1.7034684897650244e+001 -5.7697467377672074e-001
    7.5107389393426551e+000 -5.2594654303480848e-001
    8.0413274780854902e+000 -7.6097881425519354e-001
    8.7495225477643590e+000 -1.0997037661000155e+000
    6.0332011887524049e+000 -1.1821600304659685e+000
    7.2051141554878626e+000 -1.3282343910402783e+000
    6.2836102122938762e+000 -9.1322462487741851e-001
    1.2373833138877073e+001 -8.3004191891840118e-001
    9.4387713600220238e+000 -6.3640935563847700e-001
    9.7251126456057921e+000 -6.8604144292387359e-001
    7.7176218202584321e+000 -7.2509540900462810e-001
    8.5474608033492636e+000 -8.0212585769711875e-001
    1.0856434934098278e+001 -1.0049636830770154e+000
    6.3988189153241457e+000 -1.0731299066816935e+000
    9.7052040507635038e+000 -1.2962588762820915e+000
    6.5253610044428854e+000 -7.9546540370418817e-001
    1.5012381305253106e+001 -9.1274067503875633e-001
    1.5964927066220366e+001 -8.6588301631123121e-001
    1.7408623130881544e+001 -1.0354777039504326e+000
    7.8101285005288910e+000 -7.7096371728802182e-001
    9.4625005599582881e+000 -7.7578479576656456e-001
    8.7170206525483813e+000 -1.1155307425231931e+000
    6.0593238311773145e+000 -1.3398374447379007e+000
    8.2672090613958975e+000 -1.5378492046435208e+000
    6.3766477401857617e+000 -9.3577421151969709e-001
    1.6619677879531778e+001 -8.4103893238835026e-001
    1.8129458383257504e+001 -6.7088622897989980e-001
    1.7565249851687678e+001 -7.8494337591298569e-001
    7.5450716990600224e+000 -6.0072495272718751e-001
    8.9394039125011044e+000 -8.7935454905819554e-001
    8.2958750511013459e+000 -1.1356922688770970e+000
    6.5441362496025697e+000 -1.3448982656594313e+000
    8.4245593456927264e+000 -1.3849133119495658e+000
    6.5062188288449878e+000 -8.0802423747957430e-001
    1.6008718479671199e+001 -8.4150822676787551e-001
    1.8611283684484640e+001 -7.5085474046449507e-001
    1.7158508587555108e+001 -7.8576473990907325e-001
    7.6062324761073201e+000 -7.1477538141508445e-001
    9.4088783492180248e+000 -8.0527395801465118e-001
    1.3940469479596542e+001 -9.7526127370805660e-001
    7.0482670570426462e+000 -9.6498689500432910e-001
    1.1374501522805135e+001 -1.1145411532346243e+000
    7.1025444635022472e+000 -7.0440440593477793e-001
    1.3741314396468031e+001 -7.5649807470024322e-001
    2.0087545821400266e+001 -8.2490099513714554e-001
    1.8078173476837573e+001 -9.1357907431620922e-001
    7.4580765703830529e+000 -7.6956104237937550e-001
    9.9338680904522381e+000 -9.3274201410969881e-001
    9.8425572757022213e+000 -1.0600499197296605e+000
    5.6756552632147601e+000 -1.0901677640813914e+000
    8.1907878713521551e+000 -1.2420111312656172e+000
    7.1888248564476092e+000 -7.0947814117048491e-001
    1.6738002556045821e+001 -7.7163000896340905e-001
    1.6573222835324660e+001 -7.8313924124800904e-001
    1.2144435633772575e+001 -9.3213845717270016e-001
    7.4728680030338097e+000 -8.5094719725138546e-001
    8.0217443496222192e+000 -8.5797969417330133e-001
    8.3578601283283636e+000 -1.1468513381564081e+000
    6.2070545636627994e+000 -1.4126513365416105e+000
    8.6663193037720809e+000 -1.4614995295553674e+000
    7.0140135271182507e+000 -7.6092942719997148e-001
    1.1270857054735199e+001 -7.4465421323270209e-001
    8.9948578207416237e+000 -5.8806259272886030e-001
    8.5469693651129273e+000 -6.4144488391924648e-001
    6.4569270094482238e+000 -7.8981382496316954e-001
    1.0304580456917675e+001 -8.7613385583346848e-001
    9.0261186488537319e+000 -1.1739103848947057e+000
    6.0565961448969929e+000 -1.2664595007281223e+000
    6.5383775314687202e+000 -1.4153999578351379e+000
    7.1793605569629459e+000 -8.1738055373264529e-001
    1.1864355369810022e+001 -8.2732334128279816e-001
    8.9399695971735582e+000 -6.5825812412527784e-001
    7.9641451521339297e+000 -7.4573149262907890e-001
    7.1937840131756534e+000 -7.9137575927765791e-001
    1.3490361470003302e+001 -9.3025358341882514e-001
    9.5606434083478877e+000 -8.7844096628417201e-001
    6.1170505508821149e+000 -1.0500360827109487e+000
    9.2709857449276925e+000 -1.1779302185386094e+000
    8.8160238103526343e+000 -6.9086905419654243e-001
    1.4642963222164131e+001 -7.1291046292230797e-001
    8.4138145330889493e+000 -8.3493558683978297e-001
    7.9741658737330603e+000 -9.9899801930679588e-001
    7.9286376012546746e+000 -8.2500485951491898e-001
    1.5683889652003682e+001 -8.3593818528148833e-001
    9.6022987702359686e+000 -8.6371240100964386e-001
    5.8964047319150090e+000 -1.0140516594026883e+000
    7.1806407028039310e+000 -1.0411444052920156e+000
    1.4809113972037069e+001 -9.3007060478440140e-001
    1.0020805786612764e+001 -9.3140494428534681e-001
    5.5223435700512091e+000 -9.6492500306486639e-001
    5.6307825535309819e+000 -1.0200719612653060e+000
    8.1096988014462976e+000 -7.2797144193811958e-001
    1.1748109089307530e+001 -7.5404870848098027e-001
    1.0889712802837250e+001 -1.0323536948836802e+000
    6.2530431969865452e+000 -1.1536072121969003e+000
    7.4247738633747806e+000 -1.3921024683931329e+000
    8.3164789811703894e+000 -7.8311159577558809e-001
    1.2767881089664813e+001 -7.3346202287080087e-001
    1.6105268143820766e+001 -7.6266438099597600e-001
    1.0875411017552162e+001 -7.6664358539388888e-001
    7.9359563210123314e+000 -6.6636239090864746e-001
    1.0406178140445013e+001 -7.0983011752753167e-001
    1.2011823505006921e+001 -1.1112254091807576e+000
    6.4159911882087490e+000 -1.1183502636972635e+000
    7.3167650665871751e+000 -1.2127230997740959e+000
    8.8067827553604090e+000 -8.9162650780543373e-001
    9.7855228502084834e+000 -8.8955283584125400e-001
    6.2580853111228150e+000 -8.1359954919664468e-001
    9.9290144711111328e+000 -8.8909598430869763e-001
    7.9763305633727066e+000 -6.5097808027696957e-001
    1.2803131863102797e+001 -7.2120783612709083e-001
    7.9532746899372722e+000 -8.5995020178365700e-001
    5.5861755812917755e+000 -9.8713352718433567e-001
    5.9653029315099602e+000 -1.0096743028049655e+000
    1.3723036046108170e+001 -1.0439417659005086e+000
    8.7728144126973238e+000 -1.1622826987608272e+000
    6.3048721248586306e+000 -1.1890723315465295e+000
    9.2841049591826099e+000 -1.2102484203849762e+000
    1.0935354142201277e+001 -7.0373065789676748e-001
    2.0572693024095649e+001 -7.4713517257315432e-001
    1.1942269976314284e+001 -7.9693004359593467e-001
    6.0796133247655408e+000 -9.1355080784287546e-001
    7.5037871441358970e+000 -9.6846169403080118e-001
    1.1158106840397261e+001 -1.0794975537236151e+000
    8.0423207958296050e+000 -1.3397398345138547e+000
    6.4602081413715098e+000 -1.1929010909889068e+000
    1.4451944568514635e+001 -1.0428576875497122e+000
    2.3533270172801586e+001 -8.1824330596110351e-001
    1.1358797080075567e+001 -7.5120855862140279e-001
    1.0982088338772924e+001 -1.0613214319751725e+000
    6.0427804451775460e+000 -1.0469185201354880e+000
    6.6881811091752503e+000 -1.0813794974361493e+000
    1.1022311944654346e+001 -1.2685520744624810e+000
    7.8989548097810811e+000 -1.1959166150258316e+000
    6.5844627750323195e+000 -1.0954364269206289e+000
    1.2543036937404475e+001 -9.8114579555930581e-001
    1.0471247511656259e+001 -6.9767210389196421e-001
    1.9346035316086613e+001 -7.7535507647899504e-001
    2.2022931870219338e+001 -9.3530746597473990e-001
    1.0627616602206128e+001 -8.7727357579927157e-001
    1.2760098994524220e+001 -1.0741612275916712e+000
    1.0040044431155742e+001 -1.3576857333681300e+000
    6.5877894958386944e+000 -1.3189695442996943e+000
    6.4961937931346529e+000 -1.1100048550240074e+000
    1.8288643065435011e+001 -1.0070926322716547e+000
    1.7295936984943790e+001 -7.4630569238085920e-001
    2.0897346469097887e+001 -7.5454691027927001e-001
    1.6832905558065615e+001 -1.1301576995067446e+000
    7.6436934538065593e+000 -1.8546763392437933e+000
    7.8475568904772111e+000 -1.7953156318783690e+000
    8.2495751322339004e+000 -1.2881365756713106e+000
    1.4866100862049548e+001 -6.8610197494908409e-001
    4.2647791109119659e+001 -7.5525673534305304e-001
    2.2356767099028442e+001 -5.3621544133494170e-001
    1.1114083386672682e+001 -5.1676604235624357e-001
    1.3658698105168900e+001 -7.5355318026678086e-001
    1.0085372102435606e+001 -1.2313376077440774e+000
    7.7856469839514144e+000 -2.1658593912690902e+000
    9.2094450779218207e+000 -2.2006558186634044e+000
    1.1376520319214912e+001 -1.1688254120171178e+000
    1.9910110495421922e+001 -7.8398669857165904e-001
    4.0683215255031214e+001 -8.1393661782952431e-001
    8.9315358678641825e+000 -5.4079105979002773e-001
    7.8758541205223551e+000 -5.6480329476340230e-001
    2.9330118587256333e+001 -7.5934667074816686e-001
    1.0854794776387914e+001 -8.8574030105684209e-001
    6.7318957793709693e+000 -1.4542364144718780e+000
    1.0401799551301893e+001 -3.0219155841173326e+000
    6.8081637503554120e+000 -1.6171673847224550e+000
    1.5823346855762196e+001 -9.2688098314606471e-001
    4.1567117863872539e+001 -7.5022262311031984e-001
    4.7987853302190096e+001 -6.1697811744035236e-001
    3.9254571204183726e+001 -7.6986173730975249e-001
    2.0827606393693120e+001 -9.2552659005577653e-001
    8.5537595190344202e+000 -1.1255238098921976e+000
    6.4532927924594663e+000 -1.5133264689263366e+000
    8.1548705104391228e+000 -2.0386851981701604e+000
    8.4440391180820740e+000 -1.4776953033066389e+000
    1.8820065614133487e+001 -1.0592121840618018e+000
    3.4998876554321555e+001 -9.0662567922903625e-001
    2.6048826413820251e+001 -7.7987805847033509e-001
    1.1632067074231959e+001 -6.3079071445013324e-001
    2.0301467263054231e+001 -8.5486351649506376e-001
    1.2066493580317173e+001 -9.8713601867297629e-001
    6.7775464804669934e+000 -1.3409369196633809e+000
    1.0012758548367426e+001 -1.5358873121312799e+000
    8.7186522754979130e+000 -8.3951191332788744e-001
    3.2151014742663179e+001 -8.6073622947049888e-001
    7.5102350959446014e+001 -1.0084895117789598e+000
    8.3481643982195290e+000 -5.3021166165575051e-001
    6.2822677359687971e+000 -5.4716861861207300e-001
    1.9027425996938348e+001 -1.0320725583832326e+000
    9.6811682213018546e+000 -1.0985467845560910e+000
    6.4861518287810584e+000 -1.3889313228171913e+000
    7.5056495879039495e+000 -1.6068180375211880e+000
    7.3135632891665496e+000 -9.8884180701950353e-001
    1.4241082813192062e+001 -7.6606600856703921e-001
    3.4961074344115687e+001 -7.9358046399709337e-001
    8.1548767294933775e+000 -5.9478821495872258e-001
    6.3963961042967670e+000 -6.2125122300582547e-001
    1.4601233249596744e+001 -9.1220390194002909e-001
    1.0644698246402093e+001 -1.1352569888939681e+000
    6.6654767857897195e+000 -1.4519300674424152e+000
    7.9401316006690719e+000 -1.4811052639381850e+000
    1.1949315608254089e+001 -1.3101869092117495e+000
    2.4899231459718983e+001 -1.1065853912098009e+000
    2.8537730762047246e+001 -9.2025140080993773e-001
    2.0979507105450335e+001 -9.1396747167055092e-001
    8.0844591445455922e+000 -7.3929259891301613e-001
    8.2557152103477645e+000 -1.0024870354740041e+000
    8.2913399141600514e+000 -1.1867147359195072e+000
    7.2049260251281488e+000 -1.7589118655094225e+000
    6.9059694567295828e+000 -1.3768745655791161e+000
    7.4883445527421655e+000 -1.1995485265686929e+000
    1.1468343806265780e+001 -9.4826528403261445e-001
    1.0683571822916512e+001 -7.6131567181369453e-001
    1.0005725511905776e+001 -9.6982793792890998e-001
    6.3234597452975185e+000 -9.6721932151615209e-001
    2.7244790403123130e+001 -1.1116346583646042e+000
    8.2618972661740209e+000 -1.0306657218416040e+000
    6.0533601658643148e+000 -1.3705742519605697e+000
    6.4930126749988251e+000 -1.2889708003801181e+000
    7.7458874902234545e+000 -1.0328595148518878e+000
    2.0003456730310027e+001 -6.9826312448028804e-001
    5.1572529894184221e+001 -7.6438135493530479e-001
    9.9066039719183348e+000 -5.5521662755671786e-001
    6.9473222260699599e+000 -5.7044418484700876e-001
    2.2452318811037049e+001 -1.0522497791081107e+000
    8.7668757044703547e+000 -1.0354564342503456e+000
    6.2906010209507865e+000 -1.4101056802299163e+000
    7.8400520141932581e+000 -1.3577245307318415e+000
    8.3638535931900773e+000 -7.9677967719033271e-001
    1.9338758014314973e+001 -6.4633927365087152e-001
    3.9320623005655740e+001 -6.3230280924602500e-001
    8.3778874000948971e+000 -5.3384892198807676e-001
    6.9203921673548630e+000 -5.5934989128370805e-001
    8.9799488273413068e+000 -9.8709914622679118e-001
    8.9311941569020181e+000 -1.0895070887521283e+000
    6.3016709594291296e+000 -1.4347832514734900e+000
    6.3522605744212681e+000 -1.1653309629051769e+000
    8.1930301831700341e+000 -1.0812764446610585e+000
    1.8806631306846811e+001 -9.5050569485678338e-001
    2.1484137306791972e+001 -8.1289110998762859e-001
    1.2014900589746894e+001 -8.6006262858705029e-001
    6.4941788616727587e+000 -8.8906413961130704e-001
    9.3467550061231552e+000 -9.5758331744294733e-001
    8.8062213746108000e+000 -1.0638437320400136e+000
    7.5904141330191406e+000 -1.4097735130360849e+000
    9.2064566592607129e+000 -1.3474918770960052e+000
    8.6216460013055460e+000 -1.0019513923387120e+000
    2.2842488039326525e+001 -9.3526766195071864e-001
    3.0002190734220754e+001 -8.3321202293013130e-001
    8.1071377664553967e+000 -6.5539249737971905e-001
    6.3016695131651206e+000 -8.5127780867674230e-001
    2.0806401607287096e+001 -1.0283015094826911e+000
    8.4433147340617349e+000 -9.4598951734556380e-001
    6.8516535766888724e+000 -1.2726783525020529e+000
    9.8180664049988664e+000 -1.2938294244847821e+000
    8.0670789560333542e+000 -7.6951842137191229e-001
    2.1236655596426893e+001 -6.9374981904690769e-001
    3.6077253426716418e+001 -7.1029512557957430e-001
    9.5010259597743527e+000 -5.6318176204892001e-001
    8.1954883734863326e+000 -5.9367340588107498e-001
    1.6948717954678550e+001 -1.0081840546585650e+000
    8.4194591838569952e+000 -1.1920262489356144e+000
    6.2944215702704707e+000 -1.5108322656487057e+000
    7.8055299421530320e+000 -1.3895911198778190e+000
    8.1084308783290826e+000 -7.6942075394261156e-001
    1.8900701450153942e+001 -7.6072498271542210e-001
    2.0868669197543344e+001 -7.4083478591771990e-001
    1.0310543487026184e+001 -6.2612289554207690e-001
    8.7919582113736787e+000 -6.5639569709562662e-001
    1.0043654884265944e+001 -9.0319131265062569e-001
    8.4800759498875120e+000 -1.0904738204307032e+000
    6.5034709817850604e+000 -1.4177584192582324e+000
    8.0053027947996025e+000 -1.3483233387089120e+000
    8.5501777786602755e+000 -1.0050812634888806e+000
    2.2667449424026216e+001 -9.8336050319606727e-001
    2.0478831188174407e+001 -7.7085611127732756e-001
    8.6846174877949416e+000 -6.9937904620706293e-001
    7.1237455417376916e+000 -8.5989323301574072e-001
    9.4871321852211210e+000 -9.0487430867618590e-001
    8.1342754143266518e+000 -1.4638109607885337e+000
    6.6206676942802449e+000 -1.6440879125793328e+000
    6.7367177735251058e+000 -1.3570406301204432e+000
    8.0352371312327691e+000 -1.1347402433300691e+000
    1.3517957579205113e+001 -9.6682853633360599e-001
    1.0616287448393619e+001 -7.2671156515105495e-001
    8.3962677510032755e+000 -7.1416326589706491e-001
    7.2511446521629583e+000 -8.7332395492538817e-001
    1.6606679261298169e+001 -9.0572367974839685e-001
    9.9511397172133886e+000 -1.2640696984993514e+000
    8.2098654863314238e+000 -1.9330908857115243e+000
    9.3281216238202909e+000 -1.4583267084170790e+000
    9.8550707650113694e+000 -7.9686546172150430e-001
    1.9539320946400963e+001 -8.2876514515118260e-001
    1.1175591091461410e+001 -6.9027239780151339e-001
    1.0093659290923240e+001 -7.4819647683649670e-001
    1.1755828628720710e+001 -7.4470484171539497e-001
    1.3563887517241490e+001 -9.0267816483426822e-001
    1.2905198469977844e+001 -1.8440056382202272e+000
    8.7822129765204302e+000 -2.2067855139225996e+000
    7.9728637841120333e+000 -1.6371950782422873e+000
    1.0197824996672072e+001 -9.4581884860310195e-001
    1.8751965235573579e+001 -8.9204837228505030e-001
    9.8305314384086415e+000 -6.3997550349421117e-001
    8.9529711771550691e+000 -7.0983883988166740e-001
    1.1468177512610072e+001 -7.4652866277369168e-001
    1.0598927736718649e+001 -9.0419851009516072e-001
    1.0151634145718416e+001 -1.4891640462543769e+000
    9.8433266356469975e+000 -2.6302833888784187e+000
    8.8645940795921696e+000 -1.7446139073171660e+000
    9.8125139238082202e+000 -1.2160237609042572e+000
    1.2314201328592882e+001 -8.7177052190241733e-001
    1.0668193161452564e+001 -7.5470011606947673e-001
    1.0757981434005830e+001 -7.9259613298301113e-001
    9.3996730453916157e+000 -8.4189727185117091e-001
    9.1953516340153527e+000 -1.0423739384283643e+000
    9.7276251795387338e+000 -1.8296404819111887e+000
    1.5404935315955774e+001 -4.6030888177421483e+000
    9.2978370273488018e+000 -2.2856758444970628e+000
    1.1972242213371945e+001 -1.5265744122285261e+000
    2.0144611809824486e+001 -1.1454785859222680e+000
    1.6956629712436108e+001 -8.8191572288607400e-001
    1.6060469029248090e+001 -8.9862473842960078e-001
    1.0044776371014784e+001 -7.8207809589724542e-001
    1.0771013865470760e+001 -9.2569077139484224e-001
    1.0140596153050717e+001 -1.5109767270457868e+000
    8.0734619934783982e+000 -1.9086896911755520e+000
    7.4825585291001770e+000 -1.6642407427772328e+000
    9.7788522101317437e+000 -1.0811379156799206e+000
    1.7049405581278549e+001 -9.4836270629439634e-001
    1.4357894339671885e+001 -7.0257417395636634e-001
    1.1490955413373765e+001 -7.4499524869413691e-001
    1.1736708698751508e+001 -7.9486399344018477e-001
    9.9446860721457462e+000 -8.5657886302516684e-001
    1.0415354122635602e+001 -1.1625451469440493e+000
    7.1707597541988717e+000 -1.3263956054691133e+000
    7.7116903036832207e+000 -1.3682332969862112e+000
    1.0505823135029763e+001 -1.0901047952998961e+000
    1.5248244884974842e+001 -9.5602282041140085e-001
    1.7835136735632638e+001 -9.1725960879432589e-001
    1.7629150086629238e+001 -9.4626006091289627e-001
    1.0754964392932832e+001 -8.4521464354367160e-001
    8.5591887341856800e+000 -1.2709620831738344e+000
    9.8088373862281610e+000 -1.9035390098039522e+000
    1.4123462477990488e+001 -4.1631065322853225e+000
    9.4902227395119088e+000 -2.3617215939957679e+000
    1.1116591596289972e+001 -1.4578340564793635e+000
    1.7621686335977909e+001 -1.0400488038856350e+000
    1.3987168769477112e+001 -7.4204311610850504e-001
    1.3471383916400892e+001 -7.5493370344750188e-001
    1.0047350709390052e+001 -9.7487593543951045e-001
    9.0483309543269339e+000 -1.1876044433513882e+000
    9.9933072297520233e+000 -1.4597062109110186e+000
    9.3641278607138094e+000 -1.8611412643280656e+000
    9.2169271421478189e+000 -1.5304891177464688e+000
    1.1532422157923531e+001 -1.3368263279622208e+000
    1.3376898850723265e+001 -1.0211311403044714e+000
    9.8781679469807173e+000 -8.2739762692337293e-001
    9.7769382725011056e+000 -8.2159749917964908e-001
    1.0528756683750379e+001 -1.0788536132960558e+000
    1.0154299162882467e+001 -9.7204210204543373e-001
    8.6711744425698551e+000 -1.1805295005108363e+000
    6.6414013005913333e+000 -1.1046807931230305e+000
    6.9050663265080745e+000 -1.1924648032543474e+000
    9.4777783081920308e+000 -1.7471740338969233e+000
    8.8507622525680283e+000 -1.5328506935487787e+000
    1.1219660401169792e+001 -1.4178373483084845e+000
    1.5741211132797496e+001 -1.1656712923170323e+000
    1.0858833101258510e+001 -9.4589058425095585e-001
    1.4069146873112256e+001 -8.7495106234998343e-001
    1.6509095193828283e+001 -9.8194813683670978e-001
    1.0580917576627121e+001 -9.5837987895742172e-001
    1.1061862389141444e+001 -1.2258060654666580e+000
    1.0978801939204418e+001 -2.5698261174302570e+000
    7.3971104517985395e+000 -1.6329627363332733e+000
    7.3294588110038417e+000 -1.2185461159649251e+000
    2.1506325829787368e+001 -1.1826326024684293e+000
    1.5803066176705393e+001 -9.2750089597337348e-001
    1.1487036363479367e+001 -1.1320777244593647e+000
    1.2155215949518734e+001 -1.2388310934974638e+000
    7.5703138547745050e+000 -1.1053419864377558e+000
    8.1332417804562596e+000 -1.3842892422016557e+000
    9.8778575622049001e+000 -2.2186136516650810e+000
    9.8838804230928439e+000 -1.5665105692831880e+000
    1.5642552583793575e+001 -1.5457476394813154e+000
    1.5922892272591382e+001 -1.3306840021460040e+000
    1.4460450389371179e+001 -1.2325360199434163e+000
    1.9150520399978166e+001 -9.0641209319803961e-001
    2.4535948779224817e+001 -9.5102412253496738e-001
    1.7533905895791065e+001 -1.0151015745335810e+000
    1.3831891015103581e+001 -1.4653612858176843e+000
    1.0397647312541158e+001 -3.0269591267161782e+000
    7.3176812039818087e+000 -1.5637709576908061e+000
    1.2206308470195175e+001 -1.2567337573927833e+000
    2.6156523569749435e+001 -1.1354542199131799e+000
    2.1467051209975804e+001 -9.9003975549927958e-001
    3.2431689908380797e+001 -6.7437841132199861e-001
    1.5113689847240876e+001 -7.6468971289887122e-001
    8.0397432777111124e+000 -1.0518968768149746e+000
    9.2175565404048747e+000 -2.4047365163301402e+000
    7.1322110610302065e+000 -2.0233174073960636e+000
    1.2989886609683868e+001 -1.7151407900805618e+000
    1.5081552602733874e+001 -8.2302268421046854e-001
    2.9806764903178898e+001 -6.5003477757182537e-001
    3.2537764439844992e+001 -5.9674188135924289e-001
    2.3794690897137134e+001 -8.8968946598017185e-001
    1.4387477232963743e+001 -1.1384192519002088e+000
    8.0366278962935418e+000 -1.4990793888088585e+000
    9.9611700926700273e+000 -2.0594036479699946e+000
    8.2859031355677768e+000 -1.9541681043114332e+000
    1.3498549247985824e+001 -1.6223191700813191e+000
    1.2978189277130220e+001 -9.8493456185407291e-001
    2.3083960932049539e+001 -9.2052946888204412e-001
    2.4740656803893536e+001 -8.7714433573513839e-001
    2.8304829237599435e+001 -5.9994807927505034e-001
    2.6114471610137191e+001 -6.2036152648728837e-001
    1.6477573502805644e+001 -7.8969093817398917e-001
    1.3894635843026569e+001 -1.7242327034431060e+000
    7.1317475767928027e+000 -2.0214302088381584e+000
    1.0434917530845597e+001 -3.0386122362873236e+000
    7.6222998789449194e+000 -1.1400432265121714e+000
    1.3542159469846155e+001 -8.0423283277784485e-001
    2.4413585142235625e+001 -6.2038448596147089e-001
    1.7639033863742284e+001 -8.7125599905289330e-001
    2.5297508162124689e+001 -9.9130912348075195e-001
    1.4995685557889885e+001 -1.1517960840067203e+000
    1.3260341772774490e+001 -1.6561760129194176e+000
    8.5286576054577843e+000 -2.0722546485182498e+000
    1.1249671615052725e+001 -2.5729743358803900e+000
    7.6889274945430230e+000 -1.2950220600438371e+000
    1.2025010657921957e+001 -1.0970640704718138e+000
    1.5819561504623964e+001 -9.2113256307254832e-001
    1.1574362155128375e+001 -8.8059532851639599e-001
    1.5482957884502888e+001 -1.3079987754183089e+000
    8.8004896148102549e+000 -1.6131924631311914e+000
    1.0575712982287531e+001 -1.8548278565128640e+000
    1.1290807546759133e+001 -1.8185091284851234e+000
    1.3607467674194078e+001 -1.4272607317078894e+000
    1.6153629296194026e+001 -1.1989422913164343e+000
    1.8382848467033714e+001 -9.8093682316328767e-001
    1.0057152206777024e+001 -8.1473801131505630e-001
    7.9656340697430510e+000 -1.1103020733038049e+000
    8.8222235109731084e+000 -1.1207197813087360e+000
    8.0758127487593523e+000 -1.6238706984583660e+000
    8.3560535335115738e+000 -1.5078446923412763e+000
    8.3374261253143747e+000 -1.2642700137682981e+000
    1.1685077404627258e+001 -1.2189832534254674e+000
    1.2776814355954722e+001 -1.2159957183681367e+000
    1.0399111903304920e+001 -9.5372495477981234e-001
    7.4726839764839728e+000 -9.4194478597997067e-001
    7.7984059253181170e+000 -8.1082491917111210e-001
    1.4582541054952495e+001 -8.1602075827486165e-001
    1.5341100792640260e+001 -1.2363412429711129e+000
    1.4487880342478109e+001 -1.7043140835210469e+000
    9.4792081457400421e+000 -1.8701399203218900e+000
    8.6239748599566450e+000 -1.5718085658800476e+000
    7.8740800705028855e+000 -1.2608233918654581e+000
    1.3229616139872231e+001 -1.1167501143196163e+000
    8.3807842137261659e+000 -8.4913931794432762e-001
    7.3980383826075364e+000 -9.0554369978152982e-001
    9.2231963764091205e+000 -1.0095169889280526e+000
    1.0594538515445356e+001 -1.1759072828354420e+000
    9.2285441870267420e+000 -1.2045251679161826e+000
    8.0409773285779789e+000 -1.3055883703428648e+000
    7.8030436022859524e+000 -1.3120255370032241e+000
    7.7225305892343847e+000 -1.1773557132268861e+000
    1.3503983067277996e+001 -1.1036067803555789e+000
    7.7456947166932135e+000 -8.6902558033008070e-001
    8.0604595217370978e+000 -1.1045736700998758e+000
    1.0410734276717760e+001 -1.1388603026694946e+000
    7.7256407758475723e+000 -1.2970753098586920e+000
    7.6401826860605899e+000 -1.1766372327331944e+000
    9.9928686592051719e+000 -1.3031399523539666e+000
    1.1701526916947063e+001 -1.0596734092892770e+000
    1.5348643746657254e+001 -1.1059516526302804e+000
    1.1765411316901019e+001 -9.2572121182667244e-001
    7.0078636151290725e+000 -9.3531863267260262e-001
    8.4317996981662375e+000 -1.0480121500040784e+000
    1.0481333685296612e+001 -1.1385608010288586e+000
    9.5328894885284168e+000 -1.3623269355181369e+000
    9.3707819272498813e+000 -1.3637754194425020e+000
    9.7963969660880252e+000 -1.4748952177576045e+000
    1.3683779585986157e+001 -1.2867770521614255e+000
    1.4547352348272430e+001 -9.6749438450666891e-001
    8.4153981842206704e+000 -7.1720134858776452e-001
    6.5921886879718601e+000 -8.9781171094809797e-001
    6.8781812843994574e+000 -9.6508687683459626e-001
    9.0730493918568698e+000 -1.0502845812669492e+000
    1.0706449576418134e+001 -1.0998557519509158e+000
    1.3298380539445247e+001 -1.3475772385556595e+000
    8.7146580287127424e+000 -1.3835124761750959e+000
    7.1965264894011289e+000 -1.1491768097452879e+000
    7.2798890782593588e+000 -1.0801183236861227e+000
    1.4037848825990235e+001 -1.1534046076179925e+000
    8.3040617695926233e+000 -8.6511334980747101e-001
    6.6789397885394592e+000 -9.3267240258581696e-001
    7.5615817680772430e+000 -9.8589846313304463e-001
    1.0278227328237497e+001 -1.1167990996701092e+000
    1.1975390371143833e+001 -1.3771490725067281e+000
    9.8033968306686514e+000 -1.5988296041285925e+000
    8.6698084790213379e+000 -1.2846391315345318e+000
    8.6736420230285827e+000 -1.1075234768106947e+000
    1.5048303882536240e+001 -1.1278441301064268e+000
    8.1923189089957784e+000 -8.5241104131558243e-001
    8.3087773612154319e+000 -7.5460551008825594e-001
    8.8446655255630287e+000 -9.2624997219513472e-001
    8.1605666678738640e+000 -1.2650296189878705e+000
    9.5719910549414919e+000 -1.2564629385209889e+000
    1.1655748600216299e+001 -1.3775116596268668e+000
    1.8099257643325846e+001 -1.3518511531576962e+000
    1.7142252667944739e+001 -9.7876078422009793e-001
    1.1094560726081683e+001 -7.3793059154403751e-001
    7.3273259363329784e+000 -8.2522008906290623e-001
    8.3984055876035306e+000 -8.2526700073740455e-001
    8.7974012259727967e+000 -1.2053269608708226e+000
    7.6558940534110338e+000 -1.5263966711610049e+000
    8.2955814232649967e+000 -1.2981814212178280e+000
    8.7258605859662755e+000 -1.3104127802805734e+000
    8.9060171791312435e+000 -1.1843338463214934e+000
    9.3105198799954163e+000 -9.7908141539002802e-001
    1.0255007571142290e+001 -7.9990650961244292e-001
    7.5070981587401242e+000 -8.5281140758809182e-001
    7.4518039347754890e+000 -9.0211585559615126e-001
    8.1416383676646440e+000 -9.6945036437881560e-001
    8.8602098172620742e+000 -9.6743070880937976e-001
    1.4452017329724173e+001 -1.3533335557327248e+000
    1.1544428894377585e+001 -1.5070669109433967e+000
    8.3406629720453420e+000 -1.1349304910982321e+000
    8.0717296986079763e+000 -1.0200534541863113e+000
    1.5337217500046702e+001 -8.5923269214703224e-001
    8.1572047368645233e+000 -6.8339716679172335e-001
    7.8020190847803947e+000 -9.9105749377522601e-001
    8.0257061776971739e+000 -1.0996606272893452e+000
    8.3930984633497125e+000 -1.2892814752514976e+000
    1.0111295992755544e+001 -1.2869883800529316e+000
    8.7991368991693300e+000 -1.4450234486857709e+000
    7.6876300547824554e+000 -1.3395410687160834e+000
    7.3153454032198955e+000 -1.1795761334221642e+000
    1.2793053167839993e+001 -1.0482302077586820e+000
    8.2156349096573997e+000 -7.3721090863251604e-001
    8.2681285854171147e+000 -7.4172903020404923e-001
    8.4011233638926210e+000 -9.8310277554208936e-001
    8.1236233763657957e+000 -1.5056477778621626e+000
    9.1491810753853162e+000 -1.3507419930615565e+000
    8.4484797609335942e+000 -1.1477340256256288e+000
    9.5327462875583642e+000 -1.0778090546721704e+000
    1.2429993839763766e+001 -9.1088852100407813e-001
    1.6547239372961897e+001 -7.9174898055442566e-001
    8.1925724361592778e+000 -6.8133785686391812e-001
    8.2231265462435665e+000 -7.9989488758279736e-001
    8.4902477881104197e+000 -1.1100988896415191e+000
    8.3414235230016907e+000 -1.7117421247960398e+000
    8.5733067566752990e+000 -1.5528695737266529e+000
    8.3773335711459680e+000 -1.2702904985479648e+000
    1.0687789327421669e+001 -1.1328397009589164e+000
    1.5552354843304030e+001 -8.9234184772164260e-001
    2.9178977322703613e+001 -9.3527057099363820e-001
    8.1126847613883069e+000 -6.3301435967994435e-001
    8.2973690156925031e+000 -7.6049200967259112e-001
    8.4029617836598707e+000 -8.6952758365106808e-001
    8.4832625832828015e+000 -1.0332350836636146e+000
    1.1543157380236918e+001 -1.2234487104616740e+000
    8.8535002640326343e+000 -1.3184201449891668e+000
    7.8373039268667748e+000 -1.3923287307073877e+000
    7.7070281501248159e+000 -1.1696478623327331e+000
    1.4310760523772501e+001 -9.1854176625404194e-001
    8.1383357312152906e+000 -6.5408101004007313e-001
    8.1637652907065377e+000 -6.9904689115202634e-001
    8.1633713044542127e+000 -7.5573389247588907e-001
    8.3044487054176361e+000 -9.4017917704489973e-001
    1.1929094617542383e+001 -1.3266280715641097e+000
    9.0103086599874640e+000 -1.5005380131854225e+000
    7.8439940812073914e+000 -1.5785363236487386e+000
    8.1151459591566510e+000 -1.4148270736115338e+000
    1.2454888100460606e+001 -1.1140495953533036e+000
    8.2039609058277048e+000 -7.4118776627232974e-001
    9.5326114656291647e+000 -1.1439553166409182e+000
    9.6044717915778026e+000 -1.5852048602045403e+000
    1.0048001326810819e+001 -2.4177313067993111e+000
    8.7041874278092060e+000 -1.8350551927378063e+000
    8.5092697879511405e+000 -1.4561460552265812e+000
    1.0152973213103591e+001 -1.2345900239202678e+000
    1.4712319090587570e+001 -1.1662324848322638e+000
    2.5195221824403507e+001 -1.2728286724470281e+000
    1.0005060811435763e+001 -8.9832466305290393e-001
    1.0628747657115094e+001 -1.0815710086436812e+000
    1.1459991105904185e+001 -1.3976763525865046e+000
    1.1562801503165252e+001 -1.8204033526192442e+000
    1.1805836489202711e+001 -1.6667404298122566e+000
    1.1371755420043709e+001 -1.6104001640676542e+000
    1.7474167932909793e+001 -1.5762137415995239e+000
    1.1591526788846089e+001 -1.0506067648610207e+000
    1.0657960230103763e+001 -8.9804261456334866e-001
    1.2719637511094653e+001 -1.0339555782967689e+000
    1.0144535527278640e+001 -9.8221519835928661e-001
    9.2232879968919406e+000 -9.1698777059828218e-001
    9.1542769042159193e+000 -1.1369961478115893e+000
    1.1268885946544676e+001 -1.4114994189340198e+000
    8.9914878966030507e+000 -1.6256447692906493e+000
    8.0612001701496165e+000 -1.7760487768650770e+000
    8.1810548660327189e+000 -1.7464237203756392e+000
    1.0239349994145037e+001 -1.3774226899758573e+000
    8.8205537520562043e+000 -1.0703573160781064e+000
    1.1114887157303160e+001 -1.1037816561882035e+000
    9.4272548766075239e+000 -1.0084790987700394e+000
    1.0474764259433767e+001 -1.1447233224774847e+000
    1.4931752353510621e+001 -1.4744185961343674e+000
    1.1093517455226126e+001 -1.5914544135889681e+000
    1.0269146588248075e+001 -1.5399686092621958e+000
    1.1013894197496981e+001 -1.5510454166575312e+000
    1.3280629209541649e+001 -1.4439877107577095e+000
    9.3495281637503211e+000 -1.0534421691605422e+000
    1.5967237203958014e+001 -1.1146732003013209e+000
    1.5966607427176269e+001 -1.3408686738143420e+000
    1.1862146909874332e+001 -1.3369637522909965e+000
    1.0818373296913718e+001 -1.7949011750596504e+000
    9.8289229540971945e+000 -2.6810164797142928e+000
    1.2053277037385550e+001 -1.8865207778844160e+000
    1.4959947930954650e+001 -1.5334834986498833e+000
    1.3617579660107683e+001 -1.1630265115819760e+000
    2.0436038387158341e+001 -1.2635571641601624e+000
    1.9388804322126735e+001 -7.6951766725140336e-001
    2.4054359062638042e+001 -9.0438719465745376e-001
    1.7446362714132967e+001 -1.0885037486104574e+000
    1.2426861287336445e+001 -1.9077584628349422e+000
    1.2571747520401473e+001 -4.0413387360411281e+000
    8.2807022864984567e+000 -1.7561451310520431e+000
    1.7202398652329165e+001 -1.2177021802691823e+000
    2.0772468138487636e+001 -9.0268374556105435e-001
    1.9603441484266767e+001 -7.8293087389784155e-001
    1.4933311667051202e+001 -1.2940536637133109e+000
    1.0969758018159585e+001 -1.2895615283727671e+000
    1.3939106230294968e+001 -1.7600255553976452e+000
    1.1073171168436010e+001 -2.0273673377894617e+000
    1.0569531990477266e+001 -2.9532372032003646e+000
    1.0035006995273847e+001 -1.7235592895881127e+000
    1.0274892409011716e+001 -1.2954560394032020e+000
    1.3911511457460477e+001 -1.3420113761119368e+000
    1.2554303758183824e+001 -1.1412984255128251e+000
    1.6301056867115157e+001 -8.5209376454294161e-001
    1.9203674062436058e+001 -1.0797052698544951e+000
    1.4863753962124743e+001 -1.3982959790679974e+000
    8.1297991240173406e+000 -1.9298891799357678e+000
    1.3946742125542695e+001 -4.5532852433258348e+000
    1.2027985343401538e+001 -1.8818184582305943e+000
    1.4070909562877590e+001 -1.0696878274325952e+000
    1.9117142131469230e+001 -9.1082262230693367e-001
    1.6247351558196243e+001 -8.2865844914563824e-001
    3.3362113488919881e+001 -6.3910131958864014e-001
    4.4241186433975550e+001 -5.6845831913074751e-001
    3.9355429566430871e+001 -6.5392254259028204e-001
    1.9155321720832106e+001 -9.5489166943503812e-001
    6.6017210115579488e+000 -1.4658136239861908e+000
    1.0435379987240346e+001 -2.8784102886033973e+000
    6.4540903280320459e+000 -1.3628425189028732e+000
    1.3003143375625857e+001 -8.9708348952837613e-001
    2.7918518243453519e+001 -7.0641420269058763e-001
    1.4061838656288979e+001 -7.1118365134725625e-001
    2.9160512235682781e+001 -7.7758828086440879e-001
    3.5784873465517194e+001 -8.2806615476757239e-001
    2.0907898757399469e+001 -1.0454098904493698e+000
    8.2378159658425361e+000 -1.3604887759807804e+000
    8.2354164929185671e+000 -2.0241393451467125e+000
    6.0062555933734627e+000 -1.2345467207460814e+000
    9.0520241106722459e+000 -9.9144494773112479e-001
    2.2101439551529079e+001 -1.0085626332630411e+000
    1.1875203619113442e+001 -5.5245272635220644e-001
    2.9846312256417590e+001 -6.2445371399481608e-001
    4.0007512663889386e+001 -8.1089532171431356e-001
    1.6006190532525551e+001 -8.2743784648370755e-001
    7.5325407587676008e+000 -1.3558404533368309e+000
    8.3844544140557637e+000 -2.0145668499936349e+000
    7.9343292875913578e+000 -2.0129152116538145e+000
    1.6339876934440699e+001 -1.2014704059445926e+000
    1.6373574900072850e+001 -7.5165310554767173e-001
    8.1670691068227832e+000 -5.9918056070139170e-001
    1.1241177177624280e+001 -5.9142041519325039e-001
    3.3031392390149115e+001 -8.0405403741490900e-001
    1.8961536320316778e+001 -8.6952305423742016e-001
    9.9359670207633251e+000 -1.2423394788990221e+000
    9.2160269071426733e+000 -2.4040906846021857e+000
    7.9786973887836226e+000 -2.2395347497839149e+000
    8.9833921573533928e+000 -1.2266218001795901e+000
    1.0396525785206338e+001 -7.3614148051506678e-001
    8.4647185935530942e+000 -7.4340059319397034e-001
    2.5368485456851467e+001 -7.4216884505905900e-001
    4.9269734533153631e+001 -8.3310687522378812e-001
    2.2274026500493267e+001 -9.5879313609403927e-001
    8.8335064853518936e+000 -1.0763898596173571e+000
    8.5983971128680565e+000 -1.4915001920241693e+000
    6.2093666210705596e+000 -1.1610979485803263e+000
    1.5095206469018811e+001 -1.0234033252247885e+000
    1.2221892347013192e+001 -7.4051349886378171e-001
    6.2462150079050982e+000 -8.3100337548462977e-001
    1.0597878179889319e+001 -9.6397817931594043e-001
    1.1307936142944088e+001 -7.2167826751027986e-001
    1.0453850076650763e+001 -8.3373701532433786e-001
    7.5281874610167483e+000 -1.0832638893110951e+000
    7.3124223088837450e+000 -1.5938903274561904e+000
    6.5168520324559633e+000 -1.3563310351864934e+000
    1.1938104845410681e+001 -1.0118433781932437e+000
    9.7294066733103630e+000 -7.5576138162944584e-001
    6.2505463104341423e+000 -5.5471967648133846e-001
    9.2260284446089909e+000 -5.5537585044526638e-001
    5.5696586114313675e+001 -8.8617798964021510e-001
    2.8125804610863888e+001 -8.5881965474660826e-001
    1.0863055925123621e+001 -9.8520550885468949e-001
    9.2895129780311834e+000 -1.5880805861999048e+000
    6.9042759503417903e+000 -1.4749694432609313e+000
    1.1332129869955713e+001 -1.0308835178790408e+000
    1.3070603771035934e+001 -6.8959752591923773e-001
    5.9770080963545436e+000 -7.7143286445931314e-001
    6.2985275565318926e+000 -7.8244161199446316e-001
    8.5520786276871394e+000 -5.7858978566007857e-001
    1.1455459763329438e+001 -7.3939241165554337e-001
    7.3100553145525256e+000 -9.4907552543318952e-001
    7.5696005823068271e+000 -1.7431216945613826e+000
    6.8309635358631340e+000 -1.5502926376477502e+000
    1.1007106729717398e+001 -1.1907063263295747e+000
    1.2695979501182206e+001 -9.1638966117300757e-001
    6.5780940381849495e+000 -8.0947096070041946e-001
    8.5269813529420784e+000 -8.5072122580040110e-001
    8.7594161163469657e+000 -6.1941017969776890e-001
    1.8862623803840144e+001 -8.7683131750245324e-001
    8.5737096241416424e+000 -1.0995235697133765e+000
    6.4557573034422884e+000 -1.2025146462288876e+000
    5.9300087441827234e+000 -1.1546331367388731e+000
    1.4027286175920269e+001 -9.8696833088839053e-001
    9.3067085402718472e+000 -6.6640972473185034e-001
    6.6250996056508473e+000 -8.0041086297712483e-001
    7.2977610399068968e+000 -8.4865793324990912e-001
    8.5795255329919353e+000 -6.2265081081807794e-001
    1.6448338064031645e+001 -8.8193116020111129e-001
    8.2741979093488567e+000 -8.5852056572088553e-001
    9.2424441460045532e+000 -1.0791646259805847e+000
    7.7151708055397688e+000 -9.5403956122654821e-001
    1.5986778915579187e+001 -8.9029395989618487e-001
    1.0187476361813012e+001 -6.7571303563841667e-001
    6.6203061049897265e+000 -7.4743875512767766e-001
    6.7810841155110468e+000 -7.7644417853658221e-001
    8.4199860483751685e+000 -5.5525221997127383e-001
    1.2312994730730148e+001 -6.6625066023349000e-001
    8.1069883894442683e+000 -8.7007754752170441e-001
    6.2863682247659352e+000 -1.2495227489414804e+000
    5.8252364035167323e+000 -1.1491991347028225e+000
    1.0492540194504818e+001 -9.0102746812528811e-001
    1.9811348022622582e+001 -9.2603472700742240e-001
    6.8163488581300324e+000 -6.9758251648294456e-001
    6.5105356462239588e+000 -7.8700507312415324e-001
    8.6073838909797136e+000 -5.8598706241725373e-001
    1.0838499630568071e+001 -7.5229460673480175e-001
    8.1006476276438111e+000 -8.2215195593359425e-001
    7.0499373188315841e+000 -1.1288945144443550e+000
    5.6351388968755511e+000 -9.9329757193810642e-001
    1.2595368894156477e+001 -8.1393992138844129e-001
    1.7886238161213463e+001 -7.9556862967998976e-001
    7.7478276340260885e+000 -8.8132499229895167e-001
    7.2180463207505312e+000 -8.8297121873534468e-001
    8.2934453627881624e+000 -6.7665201286052379e-001
    1.5877556630606067e+001 -9.1493424224723596e-001
    7.8700303470698003e+000 -8.4288691102582991e-001
    7.6849542225469456e+000 -1.0461731733565443e+000
    6.2265768414483933e+000 -9.7717625750599080e-001
    1.5260180554583028e+001 -8.8955240396771018e-001
    1.1949682487904020e+001 -7.3624918576239029e-001
    7.6567593394945535e+000 -8.9355570875157375e-001
    6.6143571714399183e+000 -8.8549179099916941e-001
    7.7972424964843237e+000 -8.5954623651588635e-001
    1.2811486556378604e+001 -1.0325028628448811e+000
    7.8231774420882738e+000 -1.0255233891995224e+000
    6.2134242799943378e+000 -1.1738985048502650e+000
    5.7306513197166309e+000 -1.1068117639518544e+000
    1.0622795470969820e+001 -9.9719569047033252e-001
    1.0364140599156917e+001 -7.3414432003299357e-001
    7.9710263743914460e+000 -7.0637085388771303e-001
    6.9605785299192462e+000 -8.1004885768701396e-001
    8.1926683175093586e+000 -6.1640235188508086e-001
    1.1198540085077713e+001 -8.0593867927652596e-001
    7.5829837870201864e+000 -7.9941587076588250e-001
    8.7606772858646007e+000 -1.0174159388411133e+000
    6.6635211825881822e+000 -9.2754577012459016e-001
    1.5086951214106788e+001 -8.7432890139198494e-001
    2.0048200773896102e+001 -8.5350094514962704e-001
    7.9825915078841545e+000 -6.6310481185428982e-001
    6.7280542485828079e+000 -8.1779915227101496e-001
    8.3497085785873324e+000 -7.1795796889365304e-001
    1.0789403817381888e+001 -8.0090245840797869e-001
    7.5857861021032456e+000 -7.8625533541187276e-001
    6.6634974269339002e+000 -1.1725543973710038e+000
    5.6563568597963174e+000 -1.0797425953491149e+000
    1.1282892611234535e+001 -9.4210811972379405e-001
    1.9483214904327529e+001 -8.9399917277604601e-001
    1.1119637101031641e+001 -8.9198446607464743e-001
    7.5110833408877600e+000 -8.4389726880465954e-001
    7.7424133562153097e+000 -8.3981024948190008e-001
    1.1452249467673198e+001 -9.6100967754225464e-001
    9.9917945411221307e+000 -1.1446453483014989e+000
    8.2140131192352168e+000 -1.5569209807047750e+000
    6.9560437581203827e+000 -1.4155533891057897e+000
    1.6156981120028370e+001 -1.1383252505723378e+000
    1.1757924687686584e+001 -7.2649432143345183e-001
    1.1199942677463437e+001 -8.1079502453454999e-001
    8.1110751683408555e+000 -7.0964192162925332e-001
    8.3628876142442561e+000 -7.1589128345920228e-001
    1.7002124089345401e+001 -1.0464188842170283e+000
    1.1593070644252988e+001 -1.3284938310304752e+000
    8.2391830420656991e+000 -1.9547341076924063e+000
    7.9409058935793757e+000 -1.9145429502828117e+000
    1.0558734000180674e+001 -1.2140604921245799e+000
    9.1918369357654832e+000 -8.7161176560179110e-001
    9.5028313679614342e+000 -6.8240765455016617e-001
    7.2478409475810821e+000 -7.7083176509025286e-001
    7.9553264453857970e+000 -6.8176509630576643e-001
    1.5595839963576928e+001 -8.5946517728102523e-001
    1.0068339853868613e+001 -7.7500377587022207e-001
    7.8125006255014160e+000 -1.3287110928888761e+000
    6.6958108417103688e+000 -1.4115880046833789e+000
    1.3630002596237274e+001 -1.0450176624186605e+000
    2.2562250405352099e+001 -8.4996523452437089e-001
    9.8703145792190767e+000 -7.2833745660869154e-001
    7.2437359935473653e+000 -7.6517028704932499e-001
    8.0538344889803515e+000 -6.5772331385232730e-001
    1.8143895685561763e+001 -8.8281328277849858e-001
    1.0391183846889398e+001 -8.5283947315786168e-001
    6.9796976279658276e+000 -1.4858089375103771e+000
    7.0374211157248014e+000 -1.6347249214724737e+000
    1.1378003106996626e+001 -1.3364725418123093e+000
    1.3349104284619498e+001 -7.8904690918652476e-001
    1.2082997253975968e+001 -9.3595735935062896e-001
    8.0614133731947462e+000 -6.7447703809469561e-001
    8.2153142170284692e+000 -6.4618038474047834e-001
    2.4292762543574192e+001 -1.0555675099326671e+000
    1.1470814404819606e+001 -1.1681429616513073e+000
    7.2580683530418950e+000 -1.6861090482748975e+000
    7.4635597234024127e+000 -1.7862223614319968e+000
    9.8814893392324077e+000 -1.2400534822343094e+000
    8.3709756198445930e+000 -9.4837881821957026e-001
    1.1769846188058890e+001 -1.0603131046187999e+000
    8.1587211258328143e+000 -7.9844427073518021e-001
    8.2291440034839809e+000 -7.5995098432144848e-001
    1.5795623463458087e+001 -9.3447916522290597e-001
    1.4047954774050318e+001 -1.1299033428047867e+000
    8.9208844115074495e+000 -1.2400694120731679e+000
    8.5009010991112461e+000 -1.2018144472989665e+000
    1.2456190573294194e+001 -1.1013944522017685e+000
    9.0027082978809574e+000 -9.2511607881824776e-001
    9.8329183562216720e+000 -7.7211733362477630e-001
    7.3944714255168211e+000 -7.7961408225255990e-001
    8.1097832590797250e+000 -6.7644355429881398e-001
    1.5241837530553372e+001 -8.6443008024717816e-001
    1.0118300389116706e+001 -9.4012296151697738e-001
    6.4638640148184230e+000 -1.4625358858674635e+000
    6.3999010154262592e+000 -1.4884991125354663e+000
    9.1160647624306108e+000 -1.1319415566585054e+000
    1.0707405426015963e+001 -8.0335738955489366e-001
    1.0024976225642565e+001 -8.7322244916449443e-001
    7.9440356701438652e+000 -9.2071435581819094e-001
    9.5235254844080011e+000 -9.3718627547787725e-001
    1.2131112447984432e+001 -9.9052969196307672e-001
    1.1806690861960734e+001 -1.1503277280922073e+000
    7.4800570124355774e+000 -1.4170324671983803e+000
    6.7094945426496109e+000 -1.3049703563730299e+000
    1.3111041891610943e+001 -1.2300016899027102e+000
    9.9759799183433611e+000 -8.2601498033609833e-001
    1.4707665534321544e+001 -1.1605168000363872e+000
    1.4213658094025165e+001 -1.2604171755142952e+000
    1.5540243354403648e+001 -1.5147543015468266e+000
    1.0066088149699489e+001 -1.4217962917409535e+000
    1.0057763754333740e+001 -1.8773719690177313e+000
    7.8896702608512292e+000 -1.1976645327370345e+000
    7.4633411579779070e+000 -9.8800919489549333e-001
    1.5846813095093948e+001 -1.2580957134866864e+000
    1.0741585551382913e+001 -9.6885640823076369e-001
    2.3167862660637763e+001 -9.5363877611662673e-001
    2.6506102238926967e+001 -1.1580230943527032e+000
    1.1744844492959505e+001 -1.2937299326591500e+000
    7.2586974140177363e+000 -1.4767645787102597e+000
    1.0300902999401400e+001 -2.7804462209836127e+000
    1.5048200634355675e+001 -1.3155496459798364e+000
    2.0753705797644457e+001 -1.0361559624348289e+000
    2.6035237633629770e+001 -9.0946610952755602e-001
    1.9975150153719074e+001 -8.6721972384125312e-001
    1.0703666658425094e+001 -9.8010978213942790e-001
    1.1843324042848431e+001 -1.1958343742235786e+000
    8.6140654571798301e+000 -1.4553622351888926e+000
    8.4405469032194986e+000 -1.5790289057288447e+000
    1.0238242947386608e+001 -1.7815662867410258e+000
    6.4691147984245854e+000 -1.2106436816303527e+000
    6.2481712369023139e+000 -1.1011580914410448e+000
    8.9882726519693428e+000 -1.1814820706168983e+000
    9.9904160282169077e+000 -1.0054135929440728e+000
    1.5022852567699386e+001 -9.2612942028929301e-001
    1.5361105309069996e+001 -1.1183210097975651e+000
    7.0978955178612519e+000 -1.3032503422340114e+000
    7.5258981207101936e+000 -1.6771554206025625e+000
    1.1810247794326484e+001 -2.5977328310829968e+000
    1.0026913034809464e+001 -1.2481008538070715e+000
    9.4093403096841044e+000 -9.8108765018629385e-001
    1.4961171900305102e+001 -9.6525852619271113e-001
    1.4418082544909840e+001 -9.3254896526577169e-001
    1.4787170893997855e+001 -6.8433957794425826e-001
    2.9440032518673195e+001 -7.5725506494769657e-001
    2.9145657459602454e+001 -7.9261114455489845e-001
    2.1602990755413696e+001 -8.9108703279829882e-001
    1.0946475269894735e+001 -1.3186050437998447e+000
    8.8435304645003416e+000 -2.1034744561841778e+000
    7.8253535368434903e+000 -2.0291390345603304e+000
    1.4925732365151749e+001 -1.3220550523833625e+000
    1.7664889858050643e+001 -9.0938170766418758e-001
    9.7432294646136235e+000 -7.1005059413688032e-001
    1.6901392243321251e+001 -7.4986704625313161e-001
    2.7200957668368641e+001 -7.9480947866694240e-001
    1.9814053063968771e+001 -8.0555934836502718e-001
    1.1665581253441461e+001 -1.1320088231046168e+000
    7.9676049582312274e+000 -2.0992309128922524e+000
    7.6053898099482709e+000 -2.3511311947047160e+000
    6.9378281718767889e+000 -1.2691213995085620e+000
    9.8091709770349347e+000 -9.1208024525735198e-001
    1.8085536831220995e+001 -7.1964829787124296e-001
    2.8211609805214604e+001 -7.5628345786934537e-001
    2.3171812076392900e+001 -7.7286850983981303e-001
    1.6483755758388785e+001 -7.7084116530564750e-001
    9.3048701458579330e+000 -1.0879540731299802e+000
    9.2821503681091357e+000 -1.7571890011803852e+000
    7.4614405210743708e+000 -1.6480592797105051e+000
    1.4406085521808004e+001 -1.4568531998550873e+000
    1.6032243906186249e+001 -8.0925556591891956e-001
    1.0177689799943808e+001 -7.3228659480954816e-001
    2.0546007301133479e+001 -7.8133651635332890e-001
    2.1239488668847859e+001 -7.9409184056946658e-001
    1.6459086622002587e+001 -7.7873100650410298e-001
    1.0100375853702893e+001 -1.0535914882669823e+000
    1.1437256403111718e+001 -2.5556790737444186e+000
    1.0211236260951063e+001 -3.3210038934886019e+000
    1.2308212067552907e+001 -2.7230243886409684e+000
    1.0000519376040026e+001 -9.2879815324131121e-001
    7.7661832157022443e+000 -5.7085348161243754e-001
    2.1689812472226464e+001 -7.1786087752293093e-001
    4.2175803800713368e+001 -7.3694562391850249e-001
    3.4967313336471697e+001 -8.0617208999461820e-001
    1.7288531333104377e+001 -9.0339241773131218e-001
    9.0631010757907884e+000 -1.4158134019981794e+000
    6.6118117496320972e+000 -1.6909636091386322e+000
    1.1643646135080525e+001 -1.2306056589290937e+000
    9.1747725734293031e+000 -6.4740635667078439e-001
    7.0763972635131482e+000 -7.6267369235541616e-001
    8.5053334507289993e+000 -6.7083945989262161e-001
    9.1667233345120600e+000 -5.3910978776596030e-001
    1.3098749349570022e+001 -7.1133136296020449e-001
    7.7496045848694335e+000 -8.4902312818063663e-001
    6.9992739835549296e+000 -1.2599455293897113e+000
    6.0167464248798295e+000 -1.3365824455233888e+000
    7.8851638317641601e+000 -1.1261907848349018e+000
    9.4569546145998551e+000 -7.7827073710820993e-001
    8.0132577402542946e+000 -5.6958146428462075e-001
    4.1577941045983010e+001 -8.1905980641305431e-001
    4.7900443524474213e+001 -8.3076238715947581e-001
    3.4409864253194364e+001 -7.9820954165489255e-001
    1.7250990919982282e+001 -9.0531929049171789e-001
    1.2112611983361784e+001 -1.5822224075515501e+000
    8.1643118853052563e+000 -2.1633402484699467e+000
    9.7092626021769437e+000 -1.7128802836394075e+000
    8.0523068182298516e+000 -6.8680448361432866e-001
    7.9327003401648861e+000 -7.0676384878260201e-001
    1.1643783836339432e+001 -6.3390747668153846e-001
    1.3957270152702225e+001 -6.1906812879971151e-001
    1.2991017041857432e+001 -6.9883558384090938e-001
    7.8271747469767181e+000 -8.3405142333063298e-001
    8.1758012921154659e+000 -1.3431983376484273e+000
    7.0418989064476083e+000 -2.0635921588209456e+000
    8.3826621934943439e+000 -1.7601716340175757e+000
    8.1810376055773268e+000 -8.8062051199706270e-001
    6.5463768078785405e+000 -7.0814795135322794e-001
    9.3538816774174158e+000 -6.4998890008888599e-001
    1.1119526452679434e+001 -5.2054815574277624e-001
    1.1734098637814968e+001 -6.2299169872707039e-001
    6.6361571689722600e+000 -6.9931327712864255e-001
    7.2143718936793348e+000 -1.0657967196343872e+000
    5.7668311267890715e+000 -1.0479884190362829e+000
    1.0934577194756139e+001 -8.7354889283662951e-001
    1.0963743194823280e+001 -6.4025358406249777e-001
    6.9362977334729372e+000 -6.5009525856186046e-001
    9.3603530362485898e+000 -6.6574049906772559e-001
    1.2484698972626379e+001 -5.4336320851077780e-001
    9.7509672466109159e+000 -7.3396986533268671e-001
    6.3751762790302173e+000 -8.2102347642799234e-001
    7.7798344639631596e+000 -1.0709066752341219e+000
    5.7121126933518358e+000 -9.6832810980572659e-001
    1.2328113916931319e+001 -7.1120322416995496e-001
    1.0965286555985351e+001 -5.9133933316759713e-001
    7.1177420684267227e+000 -6.8270618555536644e-001
    1.2973917815091729e+001 -6.8161774288656296e-001
    1.7136360272841664e+001 -6.9352753949108392e-001
    1.0671164970249780e+001 -6.4956644192883406e-001
    6.6223750840068547e+000 -7.2128734020435148e-001
    8.2856832655843746e+000 -1.1050882040405816e+000
    6.3568227682563201e+000 -1.3881544261792185e+000
    8.2646928857156485e+000 -1.1432792557077345e+000
    8.0077967388247480e+000 -7.5198080443466964e-001
    7.1500105343005780e+000 -7.0368967456430076e-001
    1.0584599440541464e+001 -7.2718615237709783e-001
    1.0033133496543337e+001 -6.7707479067590082e-001
    8.3374960454160565e+000 -7.5951574302180924e-001
    6.3430660632381688e+000 -8.3606078747285273e-001
    7.1496329456022076e+000 -1.1325365674236136e+000
    5.9551618847623393e+000 -1.1353427335781983e+000
    8.4905759942366110e+000 -9.9876151021092330e-001
    8.6229356690598955e+000 -7.2816801547160359e-001
    6.7363242649483208e+000 -6.4282581481827150e-001
    8.3170832978791491e+000 -6.9182977177450811e-001
    8.8864290761205869e+000 -5.8747213012795807e-001
    1.0657037153506836e+001 -8.4146312520421451e-001
    6.9435407066462158e+000 -9.1557904879099350e-001
    8.3231690487995564e+000 -1.0827723587279159e+000
    5.7270700695438261e+000 -9.6082956459687885e-001
    1.2962219161550562e+001 -8.3520741035154189e-001
    1.2392935252517171e+001 -7.0398076720395819e-001
    6.7336434351039909e+000 -6.3384428470803733e-001
    8.0555508165716319e+000 -7.2032563605913380e-001
    8.6369801543666309e+000 -6.1918703872053016e-001
    1.0767542381818002e+001 -7.2090247206669822e-001
    7.0404899320190193e+000 -7.3301060640605198e-001
    8.0539249718410133e+000 -9.8593063355322952e-001
    6.3411403683162222e+000 -9.4336466439763589e-001
    1.2639797862275405e+001 -8.2028171869583077e-001
    1.2157046714346453e+001 -6.8874958209966708e-001
    6.9717729698111759e+000 -8.0592730356687770e-001
    8.6298578620580582e+000 -8.0373134420518988e-001
    8.5530956603817305e+000 -6.9526515513701692e-001
    9.6161565374390250e+000 -8.4305017174882646e-001
    6.9410810054130545e+000 -9.5065890435357780e-001
    6.5200724242143533e+000 -1.1107450719726002e+000
    5.5714210964207149e+000 -1.0112687685568458e+000
    7.8754902758231387e+000 -8.8836229115140686e-001
    9.8064429846973908e+000 -8.4573798388357546e-001
    6.9912583399769153e+000 -8.0006040140714962e-001
    8.5081417188904922e+000 -9.1863929193715343e-001
    8.9941834362721593e+000 -8.2080032588438678e-001
    9.1765198914157597e+000 -7.1007639524050237e-001
    7.1605646619204339e+000 -7.6944334802221548e-001
    8.0518030500760158e+000 -1.0103304041278485e+000
    5.9095547953040164e+000 -9.6451322903963843e-001
    9.3753380058157205e+000 -8.3343025254973491e-001
    1.0366176781758631e+001 -8.3668531178920325e-001
    6.6868537649067941e+000 -6.7095060396768047e-001
    6.9084180382271860e+000 -6.9309506904488660e-001
    7.2863319739821701e+000 -5.8153649775342298e-001
    1.2160337166035820e+001 -7.1873581299946543e-001
    8.7539824406729281e+000 -7.0665269127344632e-001
    8.4541027120372902e+000 -1.1807385806276334e+000
    5.9758257709213520e+000 -1.1944360761668351e+000
    1.3628514591515666e+001 -9.4683198903460175e-001
    1.4727275611129420e+001 -7.3643162945048402e-001
    6.8811341703953675e+000 -7.1461841545566573e-001
    6.5121259949728350e+000 -8.0821683910807263e-001
    7.4519406603290319e+000 -6.5674107473352616e-001
    1.1762798929766289e+001 -7.5241016984267939e-001
    8.9189323366412658e+000 -7.6754583880038685e-001
    6.4245258085072505e+000 -1.3184790088485281e+000
    5.9163263935370480e+000 -1.3353861782488485e+000
    9.7848478377422072e+000 -1.0310434446560746e+000
    1.6640071270282398e+001 -8.5471288006763946e-001
    6.9000999838767711e+000 -7.5523975841096369e-001
    7.4287498467998914e+000 -7.9297602342455575e-001
    9.3176630274931060e+000 -7.2902477511123576e-001
    1.0913166868574548e+001 -7.1105244998595363e-001
    9.0189329191035217e+000 -7.5737819382842853e-001
    9.8487130766719240e+000 -9.9946726781655082e-001
    6.6542712112597631e+000 -9.7805108271841434e-001
    1.4894066562232489e+001 -9.3560936030143671e-001
    1.2993585353365388e+001 -8.6056920762848632e-001
    6.7311183676963084e+000 -9.0887235359437157e-001
    8.3404817259237731e+000 -1.0252561523382548e+000
    1.1123513272908268e+001 -8.2179327743137465e-001
    1.2856411884090834e+001 -7.8754743664733484e-001
    9.2412088923527236e+000 -8.1412312893739325e-001
    7.0594857323508728e+000 -1.1815880821700120e+000
    5.7175034145898920e+000 -1.1267255772152294e+000
    1.0309031500407430e+001 -1.0744403014758832e+000
    1.3866844760910439e+001 -1.0884263332379314e+000
    8.2921387801278090e+000 -6.1849758285714362e-001
    8.7041849417356829e+000 -7.8317793371406441e-001
    1.4294633461778076e+001 -7.6351450692266820e-001
    1.1859338781879922e+001 -6.5658166950489794e-001
    9.4279845889616478e+000 -6.8859947379123332e-001
    7.4668941759595784e+000 -1.2444012943429881e+000
    6.0858189008488743e+000 -1.1447648236443111e+000
    1.3072515950070581e+001 -8.6837036196069339e-001
    1.9299102434623641e+001 -7.0215368694582581e-001
    8.5181408675558963e+000 -6.2746304291439392e-001
    8.9806850243091478e+000 -9.0747345959783454e-001
    6.2914985175779377e+000 -8.9635936005909889e-001
    1.0261976790985544e+001 -9.0065590285058594e-001
    1.1772067812713235e+001 -8.7807497300614512e-001
    7.3680462284462251e+000 -1.1019007859101910e+000
    6.2237619621539562e+000 -1.0723053994861000e+000
    1.5545225190650040e+001 -9.6473591484824051e-001
    1.4380210594123044e+001 -6.5282742457384935e-001
    7.7646403902404533e+000 -8.3008941831787098e-001
    7.1352807856910019e+000 -1.0774464986687562e+000
    7.3554183291163557e+000 -8.8290133328477738e-001
    1.3016772892116517e+001 -7.0501622157559130e-001
    1.1080014490582990e+001 -6.9952864141265680e-001
    7.6026767594986131e+000 -1.0348855255213343e+000
    5.8797839073150771e+000 -1.0206917376358471e+000
    1.0005534794767319e+001 -8.1904717892549561e-001
    1.7434269150542313e+001 -8.9498915872907359e-001
    8.2498161441806541e+000 -7.4853843124136332e-001
    5.2464971578660862e+000 -1.0724937134203383e+000
    5.3114602387998735e+000 -1.0098688171206387e+000
    9.7801847075121575e+000 -9.6490579264517351e-001
    1.9344923132180636e+001 -1.0117097841989677e+000
    6.7385591991027587e+000 -9.9048569335402559e-001
    5.7497874438801215e+000 -9.9856055824452528e-001
    9.0540778069579488e+000 -7.9558104457179801e-001
    1.6781759893920164e+001 -7.3846483577986310e-001
    1.1969107521607114e+001 -6.5424518612707028e-001
    1.1707334611421977e+001 -9.7543474516369422e-001
    6.4957112235958183e+000 -1.0711768963222372e+000
    8.2839452132557696e+000 -1.1342993404521116e+000
    1.3925482325206836e+001 -1.1673768402870779e+000
    6.7870231085900485e+000 -1.0249367959170894e+000
    5.9212278098997384e+000 -1.0048961584228655e+000
    1.4261864493886984e+001 -9.8909771612283348e-001
    1.4742527063048362e+001 -7.0202909257546808e-001
    2.3072262171970902e+001 -7.1942821071061469e-001
    1.7567938633850162e+001 -9.6683296162869303e-001
    6.2943515920445092e+000 -1.0285273139976989e+000
    6.5244111564842857e+000 -1.2540959739959401e+000
    1.0674758496149519e+001 -1.1210083783976508e+000
    1.4819120942399945e+001 -1.0659718985694335e+000
    1.1470537008636969e+001 -8.1632743066852376e-001
    3.0891614808956820e+001 -9.8798929087291099e-001
    3.1221976273326874e+001 -8.5300721130331381e-001
    1.1770665726221383e+001 -7.3256054823431471e-001
    7.5132609944343764e+000 -1.2177292740144807e+000
    6.2576080155186160e+000 -1.2168106171974149e+000
    8.6153073850328461e+000 -1.1495438941640839e+000
    1.3268147922603100e+001 -1.0021744213052814e+000
    5.8679975353265057e+000 -1.0242900302817861e+000
    5.3031408025643607e+000 -9.9313240926144275e-001
    7.0688158833678258e+000 -8.0843544459471639e-001
    1.2208469728498672e+001 -6.4915874330600976e-001
    2.0279446356949887e+001 -7.4283353992958845e-001
    1.0911419725549461e+001 -1.0475267421477634e+000
    6.3862376517063177e+000 -1.2114961905158652e+000
    8.3387617862839551e+000 -1.3199958143507324e+000
    1.1151149206835406e+001 -1.0732630999204227e+000
    7.2160652382767401e+000 -1.0014890506751473e+000
    5.8096597176964435e+000 -9.5321757686736519e-001
    9.6759850528654106e+000 -7.6952190255978647e-001
    1.6493506422545227e+001 -6.6392508834459818e-001
    1.9278820639470062e+001 -8.9724644140587129e-001
    2.3183542651760305e+001 -8.2408159407428894e-001
    1.7177448365071989e+001 -8.2714380796248477e-001
    1.5702983384269091e+001 -8.9601029477961258e-001
    8.0393495443031835e+000 -1.2632058928289531e+000
    1.1552772497384879e+001 -1.7586445533796358e+000
    7.6099410662910536e+000 -1.9511130960141700e+000
    1.2245843832431309e+001 -1.7214416091822915e+000
    1.7308846221485172e+001 -1.0425483408664433e+000
    1.2979862977101249e+001 -9.6368676291079702e-001
    1.6660295836850260e+001 -7.9962573214595145e-001
    1.4338229508278095e+001 -8.2227639382544682e-001
    1.2671182026834034e+001 -8.5426932637015629e-001
    7.5708852412375354e+000 -1.1562418837751016e+000
    1.0157012260760826e+001 -2.0170451703505576e+000
    1.0707819135115566e+001 -3.3209994636234605e+000
    9.0792687390636875e+000 -2.6200161335767680e+000
    9.5683241588233194e+000 -1.1571774316514289e+000
    1.7761090483109566e+001 -8.0469211603340396e-001
    2.3735783886919698e+001 -7.7462524411609968e-001
    1.7350781982130780e+001 -8.0330972971569348e-001
    1.6662313824769996e+001 -8.7080332172230490e-001
    7.8206190483884059e+000 -1.2659093807247728e+000
    1.4000528426826165e+001 -1.2094702134009447e+000
    9.9905823121218251e+000 -1.6060305598948972e+000
    1.0787961539548814e+001 -1.2214525678083747e+000
    1.6992993711926111e+001 -9.9398826470003043e-001
    1.4473359587955603e+001 -9.2023346596467426e-001
    1.8359382256108294e+001 -8.0029709332828936e-001
    1.4082342415324904e+001 -8.0096436578560926e-001
    1.1972428615160462e+001 -7.9015262170776612e-001
    7.2323315406590760e+000 -1.1645802632364066e+000
    9.8588177865449644e+000 -1.2866220959354011e+000
    8.3471450065394173e+000 -2.2889091862039335e+000
    7.5508833743733730e+000 -1.8891546032134059e+000
    1.0401560139135643e+001 -1.1675171996922822e+000
    1.3012256507567862e+001 -6.8142591860477741e-001
    4.1324740324477823e+001 -7.2557274906899139e-001
    4.0493558125952177e+001 -7.5501527932137369e-001
    2.6523549026860181e+001 -6.5561547950958321e-001
    1.3171871600141714e+001 -8.2197240731655297e-001
    1.2808896077865855e+001 -1.3509888352948265e+000
    8.9631242207367077e+000 -2.4665586955217949e+000
    9.4168165157567998e+000 -2.0654919183014866e+000
    8.6806813387304729e+000 -8.2294531246469604e-001
    8.4838990480769212e+000 -7.7335847817963321e-001
    2.6702202870169273e+001 -7.8999142149933876e-001
    2.6949567299546572e+001 -7.2807415045437596e-001
    1.9132804826682499e+001 -7.6769062872959470e-001
    9.1009054268171834e+000 -9.5109214567507283e-001
    6.5180602132933725e+000 -1.1227005055731294e+000
    7.1756926240845988e+000 -2.0695635337749057e+000
    8.1574755855534402e+000 -2.2512047100095076e+000
    9.0380946073280324e+000 -1.1954160846099657e+000
    1.3211334727024619e+001 -6.6785581551396023e-001
    3.7747290253385771e+001 -6.6370445130454281e-001
    3.6319729227078483e+001 -7.2870466761732189e-001
    2.4081222101688986e+001 -6.7359444142050107e-001
    1.0066101369267809e+001 -8.7320230521826392e-001
    1.3516260659766328e+001 -9.3605488434340034e-001
    8.0992609250713876e+000 -1.5282391970096734e+000
    7.3590275153547813e+000 -1.4704347207329405e+000
    8.7057977880159481e+000 -8.6339795915484208e-001
    8.5340805335689769e+000 -8.0330184651428360e-001
    2.4150166436020172e+001 -7.5567070072027342e-001
    2.4724907498399066e+001 -7.3741004510167885e-001
    1.7353664226857450e+001 -7.4180937833791694e-001
    9.0719047644250139e+000 -9.5223478457851674e-001
    7.9788723998377913e+000 -1.0427935063325464e+000
    7.1635536910838882e+000 -1.9020234461717778e+000
    8.6877929680508981e+000 -1.9296867966096254e+000
    8.5843029356107845e+000 -1.4511023089631732e+000
    8.0171439152059296e+000 -8.3791700436179317e-001
    1.5797339978361283e+001 -7.7602319350951199e-001
    1.8513224096015588e+001 -7.5524002648226662e-001
    1.5621822468272230e+001 -6.7536646119030375e-001
    9.6164107801571319e+000 -7.3160764797182254e-001
    1.0173118717562277e+001 -1.1175018798419936e+000
    7.2957422520115696e+000 -1.6921780787221075e+000
    8.5356754457244861e+000 -1.5480503828174144e+000
    8.2752168155940886e+000 -1.0443583290253537e+000
    7.9083488131774278e+000 -9.4721613991162246e-001
    1.0222379589813773e+001 -8.4680784456446578e-001
    9.3197079766303830e+000 -7.8592014961577772e-001
    1.2083211865125030e+001 -8.2699434043036668e-001
    9.6683826420126380e+000 -9.0752241065165262e-001
    7.0710929710081469e+000 -1.0452966445613894e+000
    6.4046562493518255e+000 -1.2303692025490705e+000
    8.4934991853318476e+000 -1.3788195109027563e+000
    8.8424531062657081e+000 -1.1285637910721020e+000
    8.0168893384620112e+000 -8.6905220152252260e-001
    2.1478926609486823e+001 -8.3299902006783255e-001
    3.3182443125926412e+001 -8.3051834524465207e-001
    2.8458337238395835e+001 -8.4254045371342001e-001
    1.3859167140695652e+001 -9.3549925988830906e-001
    1.0863376336216779e+001 -1.0008658399077266e+000
    8.0711640734646881e+000 -1.5301274927253945e+000
    8.3373121965357821e+000 -1.3275325240674978e+000
    6.7667911708403752e+000 -1.2277602905360361e+000
    7.8417664176883237e+000 -1.0890858288887713e+000
    1.7322967658134299e+001 -9.9032296075037718e-001
    2.5153533540448912e+001 -1.0248219104109195e+000
    1.2809238899237302e+001 -7.6423592240153193e-001
    8.2477949917986013e+000 -9.5028095146616776e-001
    6.7479399249249701e+000 -9.7585556319139233e-001
    6.5877879354609874e+000 -1.2171520682644190e+000
    8.2625186367273376e+000 -1.5186983025449388e+000
    6.9494045047932653e+000 -1.3353546566701657e+000
    7.0905581157693121e+000 -1.0138122461860344e+000
    8.0549867966416127e+000 -8.2967161431375103e-001
    8.5182398854149568e+000 -7.2956718305631030e-001
    1.2819813038636008e+001 -8.3576803857866810e-001
    1.0164315810678918e+001 -9.3385340245944881e-001
    7.6750836932051465e+000 -1.0731048424195337e+000
    6.7405606978052530e+000 -1.0853283781960923e+000
    1.0080758496721044e+001 -1.0803519077966015e+000
    9.3950347305188462e+000 -1.1395226599387136e+000
    6.8470863164566449e+000 -9.9132497592140423e-001
    8.8562936250765798e+000 -8.8957493303087043e-001
    1.2820430210188812e+001 -8.0912801342002827e-001
    1.4516653214123121e+001 -7.6323912152541584e-001
    1.1648498316323035e+001 -8.8930297685463000e-001
    9.3369108781257104e+000 -9.7789495859340703e-001
    7.4160608660404623e+000 -9.9423409859462875e-001
    1.1459588407391333e+001 -8.7480868085283803e-001
    1.0473656937515905e+001 -1.0160101279182376e+000
    6.2425747671523029e+000 -1.2079893741870107e+000
    1.5794514107339529e+001 -1.0152078619421943e+000
    2.4556665866832557e+001 -9.5645916612580206e-001
    1.3333649841172445e+001 -7.8843706663769131e-001
    7.8483610178763428e+000 -9.9312736255508327e-001
    7.0437378012904004e+000 -9.5597537288255718e-001
    7.0952884793462196e+000 -1.0675764525593303e+000
    9.8022921087425914e+000 -1.3819842828705116e+000
    6.7095561694440091e+000 -1.3276754815027525e+000
    6.1108636426576322e+000 -1.1657882661561663e+000
    8.4293507339247729e+000 -1.0209046598629556e+000
    2.4553080248931071e+001 -8.8808623595985614e-001
    1.3918546607648500e+001 -8.0157099244804897e-001
    7.4904229581161017e+000 -1.0184930074028926e+000
    7.1877554102630805e+000 -9.4297991804227399e-001
    7.7621514288004523e+000 -9.1898424930088563e-001
    1.2239947459778028e+001 -9.4650496523483663e-001
    6.8282213704993362e+000 -1.2405488299414231e+000
    6.8759967225096341e+000 -8.9313264332769138e-001
    1.0158480244117586e+001 -9.1313346863805545e-001
    1.9135343111521571e+001 -8.8487601509370084e-001
    1.9263750424878367e+001 -8.8809066430393557e-001
    1.1686653465660296e+001 -9.3504828842109977e-001
    7.6230916344938651e+000 -9.3389090063788238e-001
    6.9758539747398398e+000 -9.5122293153791893e-001
    1.2256892299157609e+001 -8.5462124948198659e-001
    1.3316830622121072e+001 -9.5284319374126458e-001
    6.7809350476945953e+000 -1.0158671017790155e+000
    6.3498954149611926e+000 -1.0458845586980166e+000
    9.1060146271227946e+000 -8.7308167088339850e-001
    2.3100351155170500e+001 -9.4577957566757265e-001
    1.3774362590490469e+001 -9.8419594401246557e-001
    6.6596244031577312e+000 -9.6957635486959415e-001
    6.3164168825784062e+000 -9.9372110030857508e-001
    1.0418106167415282e+001 -9.2542505443034484e-001
    1.4320525646780251e+001 -1.0614521591049828e+000
    5.5706510699674219e+000 -1.1762579411234404e+000
    6.2710583213218110e+000 -1.0431624885899440e+000
    1.6616123950798645e+001 -9.5448691782840545e-001
    1.1635774577441737e+001 -8.2350313805968045e-001
    6.9933468928448415e+000 -9.8218631329671624e-001
    6.8658715622859079e+000 -9.1640889811116577e-001
    8.4843507736957395e+000 -8.2782819528127471e-001
    1.4027001519979409e+001 -7.8065727154848041e-001
    1.0289651553261669e+001 -1.0420503808767154e+000
    5.6536530847173827e+000 -1.1768126833327839e+000
    6.1456477321474807e+000 -1.1136006704382133e+000
    7.3337265034123043e+000 -9.1389921298389842e-001
    1.5299799653028821e+001 -9.6396724643229970e-001
    8.0565222891088162e+000 -1.0129956775496358e+000
    7.1839763730467450e+000 -9.2163082832021059e-001
    7.5814350052595243e+000 -8.4718083478850104e-001
    1.8964694871223774e+001 -8.9857018834479507e-001
    1.1602000516472636e+001 -8.8609307433426487e-001
    7.7422575287618951e+000 -8.0151269294057381e-001
    6.3865019162575996e+000 -1.0850487982329315e+000
    6.9789187452961654e+000 -8.7241645594826489e-001
    2.8429699297534849e+001 -7.8656474729624593e-001
    2.1898077450889932e+001 -7.7864498965379270e-001
    7.4340431015570623e+000 -9.0425069628726518e-001
    6.0216816362147325e+000 -9.4878935521147323e-001
    1.2436296582720304e+001 -7.9138589055926156e-001
    1.7941216473982845e+001 -8.1435679958950158e-001
    7.9722934403022814e+000 -7.1920009297660037e-001
    6.0424516108114075e+000 -1.1921499650617524e+000
    6.4189294730570117e+000 -1.0954222237353379e+000
    1.7726211049818392e+001 -8.9070182687599464e-001
    1.8694175767334450e+001 -7.5893415948211018e-001
    6.3910051751020314e+000 -9.1430436578699037e-001
    5.8261349644715388e+000 -9.4057039242685692e-001
    8.6134818002382723e+000 -7.9018186558184988e-001
    1.8351417390804617e+001 -7.6790655257628937e-001
    7.6421298059328162e+000 -9.3043911395132184e-001
    6.2261304477239801e+000 -1.1192695694282206e+000
    6.9691462346617925e+000 -8.9954853767165233e-001
    2.1156829178210828e+001 -8.1156441799586965e-001
    1.0085068833520312e+001 -7.9916177952273026e-001
    8.1671951313821420e+000 -8.2612573126542210e-001
    7.5977641193921786e+000 -8.1984655360718817e-001
    2.2871645742919643e+001 -8.0204608639839181e-001
    1.5484859664557410e+001 -6.9268403710985005e-001
    8.1264086288613235e+000 -8.1272073827763858e-001
    6.2910733578052733e+000 -1.2343768743899504e+000
    6.8293126321767810e+000 -1.0660077752995760e+000
    1.4607298661500028e+001 -9.3361000021348528e-001
    8.9691001568114430e+000 -9.4808128575201966e-001
    6.5172244375361101e+000 -9.2447277287472096e-001
    6.0229182135549451e+000 -9.2438398881229411e-001
    1.0671512259498474e+001 -8.0045518521880543e-001
    1.7554238335744291e+001 -8.2349928002346851e-001
    9.9718510311004955e+000 -7.3928101688743764e-001
    5.6071186400386583e+000 -1.1517683716098888e+000
    5.6117922135025609e+000 -1.1551228829170246e+000
    9.1367375912845326e+000 -9.5526922235721823e-001
    1.6014270305122597e+001 -8.4875697181765153e-001
    7.5557664739348454e+000 -9.6648728094761094e-001
    6.6163501498576709e+000 -9.8964695932725111e-001
    9.7781950195474447e+000 -8.2041629537639726e-001
    1.8870923002349532e+001 -7.4929075932745604e-001
    2.2431116188228192e+001 -7.9237660560824852e-001
    8.5232562083212322e+000 -1.0537309385767994e+000
    5.6806105121934101e+000 -1.1460674083871252e+000
    9.4091321036756934e+000 -1.1150653320151884e+000
    1.3249358655207802e+001 -1.0408367752376548e+000
    7.9666288716814098e+000 -9.7987596811029787e-001
    7.0358666832391874e+000 -9.7543317883174518e-001
    1.2355082675670722e+001 -8.1015085026679123e-001
    2.4934959747844896e+001 -7.3074846920481673e-001
    9.5982931189344463e+000 -8.6086920990401916e-001
    6.0877579437875786e+000 -1.2312021320256494e+000
    6.1292596692830372e+000 -1.1922416024401783e+000
    1.4839057822105351e+001 -1.2739325846866842e+000
    9.4106784455666599e+000 -1.1402370270662399e+000
    7.4586374282011825e+000 -9.9590620875262381e-001
    6.9790421139353693e+000 -9.8431961268151424e-001
    1.0750064114573647e+001 -8.4303013161937235e-001
    1.6415098256588717e+001 -8.1771297179801739e-001
    2.1029867969159710e+001 -9.0298677905800584e-001
    1.1998343834654595e+001 -1.0761226823847039e+000
    8.6121739838003482e+000 -1.0961812382252956e+000
    1.3772716716387317e+001 -1.3217820984293767e+000
    8.0610253186527601e+000 -1.2480176514043488e+000
    7.3453754716460216e+000 -1.0442750052364191e+000
    7.3628063249830635e+000 -9.6198867085219475e-001
    1.2154696370742347e+001 -7.6880512666379852e-001
    2.1163566124394226e+001 -7.5079526766348004e-001</input_scale>
  <output_scale>
    5.2631578947368418e-001 4.9999999999999994e-001
    5.2631578947368418e-001 4.9999999999999994e-001
    5.2631578947368418e-001 4.9999999999999994e-001
    5.2631578947368418e-001 4.9999999999999994e-001</output_scale>
  <inv_output_scale>
    1.8999999999999999e+000 -9.4999999999999996e-001
    1.8999999999999999e+000 -9.4999999999999996e-001
    1.8999999999999999e+000 -9.4999999999999996e-001
    1.8999999999999999e+000 -9.4999999999999996e-001</inv_output_scale>
  <weights>
    <_>
      -1.8461011139971149e+001 -4.3041712545825311e-002
      1.5648637864555051e-001 6.2353942702990772e-002
      -7.8638887981427472e-002 -4.5528646727835534e-002
      1.4971569144492750e-001 -1.7315301543057135e-001
      -3.0214487573253641e-002 -1.8420189704163231e-001
      -6.7704490404079928e-002 -4.2007045978732713e-002
      6.9948064079820196e-002 6.7808034347109192e-002
      1.3237995968107183e-001 -2.9997567537813193e-002
      9.2383878098419178e-002 -2.4985499455698456e-002
      -9.4740904116094135e-002 -2.0240666508020994e-001
      -9.3937634775280249e-002 -2.0120591127841456e-001
      -5.9492281098205025e-003 9.4313469660107299e-002
      6.2056936905977668e-002 -5.5256227876278034e-002
      1.7065220177194237e-001 -8.6009941934326900e-002
      3.3660553522881775e-002 -2.2546580843242039e-001
      -2.0770580808918601e-001 -1.3207182677760848e-001
      1.5002266029221183e-002 -1.2865394092739699e-001
      -2.4447870749912076e-001 2.7182183983527050e-002
      6.4218943703509987e-002 -6.5400070369893690e-002
      1.9146751284866886e-001 1.1405919542441499e-001
      -1.4814928226781535e-001 -5.0719306960701226e-002
      6.3283325954544598e-002 -3.5899838120884202e-002
      -7.9257699493839137e-002 3.1641851392558047e-002
      -3.6567312025199562e-002 1.5833531801619521e-001
      3.2380012009389240e+001 -1.6183674944624145e-002
      2.4463730821599498e-003 -2.5820866686134627e-003
      -7.5760937417731068e-004 2.8091620864616881e-003
      5.6110776628340926e-004 -2.4335195484831984e-003
      8.9103793660228244e-003 -2.3130507969798637e-003
      1.2146148603649960e-003 4.3694709221340708e-002
      -1.4470673841867076e-003 -2.6358933735804184e-004
      2.6408583405914798e-004 4.7850580000245092e-002
      -1.5405275348711287e-002 -1.2683294264989107e-002
      4.1882756778259714e-002 -2.5145849688075418e-003
      -5.9536503580475927e-004 -1.2727894426347963e-003
      1.8126218372452485e-002 1.0319136828665222e-003
      -6.9000645148508430e-004 4.0161597089183581e-003
      6.2596490390411943e-004 -8.3048204334020253e-005
      -8.3816208569039794e-003 -2.5601451047371003e-003
      -1.3401148930215078e-003 -1.6922266140684959e-003
      1.4676853828319517e-002 -1.7552754484147475e-003
      -2.9902245819561752e-003 9.4105385025909753e-003
      -1.6119234813337887e-003 -4.7860565847700968e-006
      2.3209731887587556e-003 4.3498824003942381e-004
      -3.9472525133669144e-004 4.6002472077620810e-003
      -6.6782019761643435e-004 5.9805936046474018e-003
      -1.6937261513628166e-002 -8.1252002220640000e-003
      -9.8264374009670082e-003 1.4399864775359245e-003
      3.3758134000403103e+001 -6.6125788573279887e-002
      -1.0754819679887969e-002 -1.9852773229803937e-002
      6.2412133823473610e-003 7.1426952253663308e-003
      -1.0222152379511301e-002 1.2855166335013333e-002
      1.1219549450136467e-002 1.3091188857448404e-002
      6.2382032968557079e-003 1.4387723607905967e-002
      -8.0444918184220376e-003 -5.9888250277105350e-003
      -9.2258617243803041e-003 8.0279279866037070e-002
      -5.6715866494500299e-002 -1.2961322534928585e-002
      8.8223854574474458e-002 1.5014667652375923e-002
      7.9208493691471631e-003 1.4983681744963536e-002
